tree
version=v3
num_class=1
num_tree_per_iteration=1
label_index=0
max_feature_idx=27
objective=regression
feature_names=group subgroup item sales_lag1 sales_lag2 sales_lag3 sales_lag4 sales_lag5 sales_lag6 sales_lag7 hour sales_lag8 sales_lag9 sales_lag10 sales_lag11 sales_lag12 sales_lag13 sales_lag14 sales_lag15 sales_lag16 sales_lag17 sales_lag18 sales_lag19 sales_lag20 sales_lag21 sales_lag22 sales_lag23 sales_lag24
feature_infos=-1:0:1:2 -1:0:1:2:3:4:5 -1:0:1:2:3:4:5:6:7:8:9:10:11 [-53.549210556795124:60.904035765348816] [-53.549210556795124:60.904035765348816] [-53.549210556795124:60.904035765348816] [-53.549210556795124:60.904035765348816] [-53.549210556795124:60.904035765348816] [-53.549210556795124:60.904035765348816] [-53.549210556795124:60.904035765348816] none [-53.549210556795124:60.904035765348816] [-53.549210556795124:60.904035765348816] [-53.549210556795124:60.904035765348816] [-53.549210556795124:60.904035765348816] [-53.549210556795124:60.904035765348816] [-53.549210556795124:60.904035765348816] [-53.549210556795124:60.904035765348816] [-53.549210556795124:60.904035765348816] [-53.549210556795124:60.904035765348816] [-53.549210556795124:60.904035765348816] [-53.549210556795124:60.904035765348816] [-53.549210556795124:60.904035765348816] [-53.549210556795124:60.904035765348816] [-53.549210556795124:60.904035765348816] [-53.549210556795124:60.904035765348816] [-53.549210556795124:60.904035765348816] [-53.549210556795124:67.580845630864744]
tree_sizes=2767 2811 2795 2812 2810 2801 2814 2820 2796 2812 2819 2805 2806 2796 2797 2804 2808 2809 2804 2795 2805 2802 2811 2829 2828 2800 2810 2834 2803 2810 2809 2792 2800 2813 2814 2831 2808 2813 2835 2840 2829 2809 2798 2821 2816 2818 2832 2821 2819 2823 2848 2802 2841 2831 2808 2838 2806 2834 2808 2826 2823 2810 2829 2814 2835 2810 2795 2805 2813 2815 2819 2818 2817 2818 2806 2822 2835 2836 2830 2770 2857 2800 2839 2830 2823 2794 2802 2820 2822 2809 2833 2814 2823 2851 2837 2849 2792 2847 2814 2800 2867 2843 2803 2807 2814 2865 2830 2820 2823 2813 2802 2800 2817 2803 2811 2846 2834 2802 2812 2785 2810 2801 2821 2789 2831 2813 2801 2807 2782 2830 2795 2808 2804 2816 2832 2829 2838 2806 2828 2803 2808 2823 2796 2815 2800 2810 2797 2829 2847 2795 2795 2821 2795 2779 2834 2811 2854 2790 2804 2823 2817 2823 2808 2867 2810 2837 2841 2806 2804 2785 2799 2806 2858 2810 2828 2792 2787 2815 2807 2847 2792 2824 2822 2811 2823 2801 2807 2780 2813 2817 2852 2761 2768 2782 2793 2760 2811 2801 2839 2795 2820

Tree=0
num_leaves=31
num_cat=0
split_feature=3 3 3 5 15 5 18 26 6 27 4 20 27 22 4 4 26 26 5 4 4 6 7 4 9 6 26 3 6 26
split_gain=970678 43831.8 26320.6 23842.2 12706.1 11685.7 9918.37 7799.06 7743.01 7325.46 5335.39 3695.54 3553.05 3989.14 3408.3 3352.79 3090.79 2486.03 2219.95 2111.45 2063.4 2044.03 1834.85 1759.86 1755.23 1704.03 1650.39 1579.3 1570.96 1560.82
threshold=1.0000000180025095e-35 5.6688297571879414 -2.1704258858517123 3.989021486710262 1.0000000180025095e-35 -4.9705191004614724 -0.12466000319823736 -8.9722526827684845 11.048627031413378 7.6332737177779793 1.5791293501888259 0.69521338149972867 -8.518434364696736 -1.0000000180025095e-35 10.590223110311575 -3.0357435778146189 11.055295089947981 9.690210982387546 14.607988568766718 -23.64778701348332 9.9858108891123045 -9.516253034674758 0.53817013237534062 19.358473635953974 -1.0260483901723589 11.434945646266703 6.3648791694770788 -7.7244610489060799 -3.6709921477106549 -3.6118275263981174
decision_type=2 2 2 2 2 2 2 2 2 2 2 2 2 2 2 2 2 2 2 2 2 2 2 2 2 2 2 2 2 2
left_child=2 3 4 10 7 21 -3 19 14 11 -2 -8 -9 28 18 -7 22 -10 -5 -1 -12 29 -13 26 -6 -18 -11 -21 -14 -4
right_child=1 6 5 8 24 15 9 12 17 23 20 16 13 -15 -16 -17 25 -19 -20 27 -22 -23 -24 -25 -26 -27 -28 -29 -30 -31
leaf_value=0.2872341145354097 0.5767151415772126 0.68884499747931405 0.38033893900600457 0.65977927646466095 0.40313018227778818 0.44702932763485859 0.75245664623011888 0.38175772611426517 0.8352695573815111 0.77302190546493832 0.63647338693992184 1.0193764208461995 0.30226644547675674 0.36529297063322441 0.75814386057924776 0.52678677318985945 0.71801930989558205 0.73837617101107711 0.75344592352371509 0.37807463647540263 0.71886265307342856 0.40817151727617845 0.83106296714308581 0.80429577586943979 0.4648107373470623 0.81440019095540706 0.71591566011281305 0.42710253772116813 0.34886432704554549 0.25073361104741976
leaf_weight=66 715 462 78 594 310 310 373 555 281 302 642 21 1566 749 279 659 158 170 122 500 150 322 1432 173 456 137 614 554 355 71
leaf_count=66 715 462 78 594 310 310 373 555 281 302 642 21 1566 749 279 659 158 170 122 500 150 322 1432 173 456 137 614 554 355 71
internal_value=0.558653 0.729354 0.386024 0.671989 0.364745 0.46155 0.775487 0.351504 0.730004 0.787957 0.616322 0.809606 0.335714 0.326143 0.698846 0.501271 0.821801 0.798747 0.675739 0.396973 0.652077 0.37983 0.833785 0.745792 0.439849 0.762779 0.734743 0.403845 0.310878 0.318581
internal_weight=0 6625 6551 2953 5111 1440 3672 4345 1446 3210 1507 2121 3225 2670 995 969 1748 451 716 1120 792 471 1453 1089 766 295 916 1054 1921 149
internal_count=13176 6625 6551 2953 5111 1440 3672 4345 1446 3210 1507 2121 3225 2670 995 969 1748 451 716 1120 792 471 1453 1089 766 295 916 1054 1921 149
is_linear=0
shrinkage=1


Tree=1
num_leaves=31
num_cat=0
split_feature=3 3 4 5 3 17 17 26 27 4 6 20 27 12 26 4 23 5 4 3 26 5 7 5 5 6 25 27 17 26
split_gain=932239 42100.7 25375 22413.3 13517.1 9824.01 8150.48 8608.96 7082.61 6383.95 5777.59 3828.38 3323.49 3046.15 2951.62 2867.25 2820.53 2785.53 2677.64 2234.16 1888.98 1819.99 1772.61 1724.83 1653.72 1616.35 1597.6 1506.07 1426.3 1397.52
threshold=1.0000000180025095e-35 5.5520566278145971 -2.67602613943586 5.4338785567237862 -4.1523831100621891 1.0000000180025095e-35 -1.0000000180025095e-35 -8.9722526827684845 7.6332737177779793 1.5791293501888259 11.048627031413378 0.69521338149972867 -8.518434364696736 -0.75891771713707135 11.055295089947981 10.320924878607437 1.0000000180025095e-35 -0.40709852295374482 9.6082421280511152 -7.5564637560870151 9.690210982387546 12.127534153766257 0.53817013237534062 14.607988568766718 -14.798598519386152 11.434945646266703 -5.2216256832867307 -6.8883297876032854 -3.045876152421203 6.0722750144883264
decision_type=2 2 2 2 2 2 2 2 2 2 2 2 2 2 2 2 2 2 2 2 2 2 2 2 2 2 2 2 2 2
left_child=2 3 6 9 13 -3 7 19 11 -2 15 -7 -9 26 22 23 28 27 -11 -1 -12 29 -13 -5 -21 -16 -4 -6 -14 -10
right_child=1 5 4 10 17 8 -8 12 21 18 20 14 16 -15 25 -17 -18 -19 -20 24 -22 -23 -24 -25 -26 -27 -28 -29 -30 -31
leaf_value=-0.18950196406149097 0.021442828247944516 0.12224648342500107 -0.15202866783769672 0.10091782750531243 -0.045280704795685502 0.18986689710688878 -0.13327633519993198 -0.17846273878163996 0.20753593564350556 0.081621981274435887 0.27465325433064286 0.45150884537469771 -0.23592145021272895 -0.10389993881737745 0.15737632784854483 0.20227176806485037 -0.19617760940418003 -0.018679082049801503 0.16328554251804728 -0.20574042017507083 0.1828364461449021 0.2135930713432026 0.26642789723163268 0.18824685179981693 -0.11736976061205912 0.25052163731900678 -0.22553668883499467 -0.10902371265558582 -0.27955625499598685 0.14309372502478343
leaf_weight=465 765 433 189 411 237 415 770 565 188 769 246 21 1364 189 162 251 631 419 203 101 141 448 1444 116 525 138 316 396 384 474
leaf_count=465 765 433 189 411 237 415 770 565 188 769 246 21 1364 189 162 251 631 419 203 101 141 448 1444 116 525 138 316 396 384 474
internal_value=0 0.167287 -0.169177 0.110182 -0.103878 0.2118 -0.192904 -0.204283 0.223586 0.0646621 0.17805 0.244525 -0.222067 -0.172392 0.257377 0.146638 -0.232423 -0.0586801 0.0986772 -0.156295 0.241201 0.182462 0.269081 0.12014 -0.131628 0.200223 -0.198026 -0.0851578 -0.245507 0.161395
internal_weight=0 6625 6551 2902 1746 3723 4805 4035 3290 1737 1165 2180 2944 694 1765 778 2379 1052 972 1091 387 1110 1465 527 626 300 505 633 1748 662
internal_count=13176 6625 6551 2902 1746 3723 4805 4035 3290 1737 1165 2180 2944 694 1765 778 2379 1052 972 1091 387 1110 1465 527 626 300 505 633 1748 662
is_linear=0
shrinkage=0.02


Tree=2
num_leaves=31
num_cat=0
split_feature=3 3 3 5 15 5 18 27 26 6 4 20 27 22 4 26 4 4 6 4 5 7 26 6 9 5 6 25 26 8
split_gain=895322 40447.9 24468.8 21571.1 11798.1 10941.3 10053.3 7643.59 7231 6282.44 4622.49 3485.14 3314.57 3831.57 3062.34 3031.39 2857.38 2015.78 1936.6 1879.36 1871.82 1814.8 1811.99 1755.51 1644.04 1605.79 1540.6 1487.06 1413.29 1541.45
threshold=1.0000000180025095e-35 5.2638044225266265 -2.1704258858517123 3.989021486710262 1.0000000180025095e-35 -4.9705191004614724 -0.12466000319823736 7.6332737177779793 -8.9722526827684845 9.9771212900921089 1.5791293501888259 0.69521338149972867 -7.3245336652264674 -1.0000000180025095e-35 -3.6712254827938282 10.035820473306448 10.320924878607437 -23.64778701348332 -9.3375749036879245 9.4442585650811068 12.127534153766257 0.53817013237534062 8.5736188631575772 11.434945646266703 -1.0260483901723589 14.310796959243389 -6.300726351854709 -0.93930499950711299 6.0722750144883264 9.8178968130573008
decision_type=2 2 2 2 2 2 2 2 2 2 2 2 2 2 2 2 2 2 2 2 2 2 2 2 2 2 2 2 2 2
left_child=2 3 4 10 8 18 -3 11 17 16 -2 -8 -10 -14 -7 21 25 -1 -4 -12 28 -13 27 -17 -6 -5 -19 -11 29 -9
right_child=1 6 5 9 24 14 7 20 12 22 19 15 13 -15 -16 23 -18 26 -20 -21 -22 -23 -24 -25 -26 -27 -28 -29 -30 -31
leaf_value=-0.26251095070080327 0.015421198426269163 0.12308622616227016 -0.22995209260909788 0.095405300340328111 -0.14947573511158266 -0.11130709321030002 0.18634773105806468 0.1289905928158098 -0.17376111644847844 0.17870941091280479 0.071236275059415127 0.45463462829589846 -0.23998771727593479 -0.18624481588961131 -0.032269755674836538 0.15921940231918902 0.19056926147739506 -0.16940363763531377 -0.14364406536616195 0.15082482120374571 0.20821658894417627 0.26278153795226517 0.17467471313361937 0.2483206666565341 -0.089780828181302938 0.1813323630141363 -0.12050530061732463 0.28159133260138336 0.13791671896463378 0.24622965103359659
leaf_weight=66 698 505 155 532 310 273 387 72 646 77 599 20 1832 747 696 192 239 605 316 148 456 1419 195 164 456 104 449 208 491 119
leaf_count=66 698 505 155 532 310 273 387 72 646 77 599 20 1832 747 696 192 239 605 316 148 456 1419 195 164 456 104 449 208 491 119
internal_value=0 0.163941 -0.165793 0.106182 -0.18631 -0.0929727 0.206223 0.218869 -0.199069 0.163508 0.0524267 0.240784 -0.214274 -0.224421 -0.0545372 0.252521 0.131612 -0.155287 -0.172047 0.0870048 0.176848 0.265448 0.221652 0.200266 -0.113939 0.109456 -0.148573 0.253795 0.155874 0.202035
internal_weight=0 6625 6551 2800 5111 1440 3825 3320 4345 1355 1445 2182 3225 2579 969 1795 875 1120 471 747 1138 1439 480 356 766 636 1054 285 682 191
internal_count=13176 6625 6551 2800 5111 1440 3825 3320 4345 1355 1445 2182 3225 2579 969 1795 875 1120 471 747 1138 1439 480 356 766 636 1054 285 682 191
is_linear=0
shrinkage=0.02


Tree=3
num_leaves=31
num_cat=0
split_feature=3 3 3 4 4 18 27 17 26 5 5 20 26 6 5 5 27 26 8 5 22 27 24 14 25 7 27 4 8 6
split_gain=859868 38916.4 23637.6 17469.4 15940.4 13756.4 9323.45 8353.07 5552.27 5049.25 4550.04 3055.25 3617.3 2853.95 2710.68 2379.54 2165.24 2075.31 1804.78 1801.95 1780.28 2547.4 1787.41 1771.26 1719.24 1936.46 1671.1 1650.65 1636.6 1514.39
threshold=1.0000000180025095e-35 3.9008000391212518 -4.2633973035887545 5.9490215012819112 -4.9705191004614724 -0.077078319114880528 7.4241396271333091 -1.0000000180025095e-35 -8.9722526827684845 5.253742023188237 -0.31810431364663322 0.69521338149972867 11.055295089947981 11.215821704975601 -6.8170176179356021 12.127534153766257 -6.8883297876032854 6.0722750144883264 -4.7565986159676692 13.744359108131064 -1.0000000180025095e-35 -6.2229992249667765 -1.3405132604494234 -0.075409340081255785 12.754845170493756 0.63244537792388 2.4972063750244065 -1.0000000180025095e-35 9.8178968130573008 11.434945646266703
decision_type=2 2 2 2 2 2 2 2 2 2 2 2 2 2 2 2 2 2 2 2 2 2 2 2 2 2 2 2 2 2
left_child=2 3 7 9 14 23 11 8 -1 27 16 -7 24 -5 -4 17 -6 28 -18 -11 21 22 -10 -3 25 -13 -26 -2 -8 -14
right_child=1 5 4 13 10 6 15 -9 20 19 -12 12 29 -15 -16 -17 18 -19 -20 -21 -22 -23 -24 -25 26 -27 -28 -29 -30 -31
leaf_value=-0.16138080718867034 -0.010596718695951664 0.08597928961015118 -0.20742865728679127 0.14392513288980546 -0.058575242323160193 0.18641188546524504 0.1316044901616194 -0.12776121006056465 -0.18350657597541589 0.093177280826834005 -0.019610651512162566 0.45616783550807405 0.14734759254462046 0.22672774087114944 -0.14307161216038333 0.2022129596926433 -0.17038760907274295 0.12723831793701804 -0.09665080829759426 0.19720258249647238 -0.18472783803392975 -0.24248850242064396 -0.32204607942700386 0.14908616725197343 0.29790280013515147 0.26266577688332393 0.16170271795502927 0.046129023514402699 0.24229594169294133 0.23235132894345692
leaf_weight=853 269 386 509 487 391 428 88 663 542 274 453 21 184 253 539 509 188 586 452 88 456 1465 40 330 50 1388 129 865 136 154
leaf_count=853 269 386 509 487 391 428 88 663 542 274 453 21 184 253 539 509 188 586 452 88 456 1465 40 330 50 1388 129 865 136 154
internal_value=0 0.160663 -0.162477 0.0927501 -0.114614 0.195261 0.210894 -0.192632 -0.205447 0.0534328 -0.0724431 0.234746 0.245487 0.172235 -0.174329 0.168326 -0.0956566 0.147031 -0.118311 0.118465 -0.220465 -0.228426 -0.193028 0.115065 0.258133 0.26555 0.199747 0.0326729 0.19881 0.186077
internal_weight=0 6625 6551 2236 2532 4389 3673 4019 3356 1496 1484 2354 1926 740 1048 1319 1031 810 640 362 2503 2047 582 716 1588 1409 179 1134 224 338
internal_count=13176 6625 6551 2236 2532 4389 3673 4019 3356 1496 1484 2354 1926 740 1048 1319 1031 810 640 362 2503 2047 582 716 1588 1409 179 1134 224 338
is_linear=0
shrinkage=0.02


Tree=4
num_leaves=31
num_cat=0
split_feature=3 3 4 4 3 17 17 26 5 27 6 20 27 12 26 23 5 5 3 3 4 5 12 7 5 25 5 6 5 17
split_gain=825817 37427.3 22792.2 20608.1 12055.9 8541.71 7287.37 7726.15 6523.45 5997.2 3856.83 3388.22 2981.33 2769.25 2603.56 2564.24 2471.91 2469.52 2118.42 2103.22 1660.73 1615.3 1581.37 1573.1 1555.08 1528.8 1458.4 1456.74 1404.85 1372.6
threshold=1.0000000180025095e-35 5.6688297571879414 -2.67602613943586 5.9490215012819112 -4.1523831100621891 1.0000000180025095e-35 -1.0000000180025095e-35 -8.9722526827684845 4.1241624103554608 7.6332737177779793 9.9771212900921089 0.69521338149972867 -8.518434364696736 -0.75891771713707135 11.055295089947981 1.0000000180025095e-35 -0.077078319114880528 13.439089708649025 1.3316874371394121 -7.5564637560870151 19.358473635953974 6.3996012231505661 23.776985626036652 0.53817013237534062 -14.798598519386152 -5.4492110569017251 14.958183643775667 11.434945646266703 4.1241624103554608 -3.045876152421203
decision_type=2 2 2 2 2 2 2 2 2 2 2 2 2 2 2 2 2 2 2 2 2 2 2 2 2 2 2 2 2 2
left_child=2 3 6 8 13 -3 7 19 18 11 21 -7 -9 25 23 29 -6 -10 -2 -1 26 -5 -23 -13 -21 -4 -11 -16 -12 -14
right_child=1 5 4 10 16 9 -8 12 17 20 28 14 15 -15 27 -17 -18 -19 -20 24 -22 22 -24 -25 -26 -27 -28 -29 -30 -31
leaf_value=-0.17923299900274123 0.0089208271612043599 0.11542712389363496 -0.14072049299728226 0.10911675937437723 -0.075979920650197902 0.17860351501950406 -0.12533301036101585 -0.16802359550756163 0.095089037923789213 0.14587912477977655 0.15161695334452149 0.42530043919881189 -0.22220276487827345 -0.096741399532430383 0.14691018313405257 -0.18457123615573828 -0.010578958830272142 0.19091160933684259 0.061726730615451836 -0.19494856718332865 0.22963077017337599 0.15931907631958334 0.31622153439159906 0.25093779849505721 -0.10925412993927797 -0.21294604207878004 0.20141047665730732 0.23602360727795721 0.23734251357400898 -0.26500834707403553
leaf_weight=465 577 422 185 310 709 410 770 565 501 649 98 21 1364 189 158 631 343 137 642 101 173 312 28 1435 525 320 267 137 348 384
leaf_count=465 577 422 185 310 709 410 770 565 501 649 98 21 1364 189 158 631 343 137 642 101 173 312 28 1435 525 320 267 137 348 384
internal_value=0 0.157449 -0.159228 0.10444 -0.0973416 0.200079 -0.181716 -0.192475 0.0638505 0.211071 0.173213 0.230357 -0.209323 -0.162046 0.242475 -0.219131 -0.0546562 0.115665 0.0367316 -0.147013 0.172799 0.142135 0.17224 0.253453 -0.12308 -0.186487 0.162066 0.188295 0.218506 -0.231606
internal_weight=0 6625 6551 2953 1746 3672 4805 4035 1857 3250 1096 2161 2944 694 1751 2379 1052 638 1219 1091 1089 650 340 1456 626 505 916 295 446 1748
internal_count=13176 6625 6551 2953 1746 3672 4805 4035 1857 3250 1096 2161 2944 694 1751 2379 1052 638 1219 1091 1089 650 340 1456 626 505 916 295 446 1748
is_linear=0
shrinkage=0.02


Tree=5
num_leaves=31
num_cat=0
split_feature=3 3 3 4 18 15 5 27 26 5 27 22 20 26 4 6 4 5 26 4 6 14 12 20 21 6 8 12 8 26
split_gain=793114 36000.4 21958.8 16115.5 12746.7 10564.4 9964.42 8665.58 6478.69 4668.6 3004.99 3381.32 2793.89 3362.59 2708.86 2646.43 2418.93 2209.53 1985.88 1934.35 1814.1 1662.55 1644.96 1991.37 1924.48 1604.19 1560.13 1516.41 1513.88 1465.52
threshold=1.0000000180025095e-35 3.9008000391212518 -2.1704258858517123 5.9490215012819112 -0.077078319114880528 1.0000000180025095e-35 -4.9705191004614724 7.4241396271333091 -8.9722526827684845 11.877732560877531 -7.3245336652264674 -1.0000000180025095e-35 0.69521338149972867 10.035820473306448 -1.8242567463008605 11.215821704975601 1.3316874371394121 12.127534153766257 6.0722750144883264 -12.233509809379401 -9.516253034674758 -0.075409340081255785 10.671600483416482 6.4096208969695816 4.4324148807983912 11.665635251470796 9.8178968130573008 -1.7365948971677885 22.90168413095622 -3.6118275263981174
decision_type=2 2 2 2 2 2 2 2 2 2 2 2 2 2 2 2 2 2 2 2 2 2 2 2 2 2 2 2 2 2
left_child=2 3 5 9 21 8 20 12 19 16 -10 -12 -6 22 -8 -5 -2 18 26 -1 29 -3 28 -24 -25 -15 -9 -7 -14 -4
right_child=1 4 6 15 7 27 14 17 10 -11 11 -13 13 25 -16 -17 -18 -19 -20 -21 -22 -23 23 24 -26 -27 -28 -29 -30 -31
leaf_value=-0.19196356413166446 0.014766264777845314 0.082201581005914223 -0.16037832651764919 0.13806322776548013 0.17940015102249229 -0.16783456791557924 -0.089590599407377999 0.12610118914818899 -0.1633704904934547 0.17602060336250444 -0.22623010089285425 -0.17574356036761915 0.22101034730299815 0.14627964898522172 -0.021861813981982475 0.21779872315821677 0.067628682501419901 0.19424087926604527 0.12170521900227847 -0.13104455447606608 -0.13582004574457218 0.14334120417995888 0.30828854662455046 0.3057078789209785 0.20520899262312239 0.22771496145954628 0.23417563078993492 -0.093981033802062353 0.30008795669486932 -0.28596482585853256
leaf_weight=277 692 386 78 487 428 135 408 88 646 111 1832 747 759 212 561 253 693 509 586 843 322 330 325 115 226 178 136 631 111 71
leaf_count=277 692 386 78 487 428 135 408 88 646 111 1832 747 759 212 561 253 693 509 586 843 322 330 325 115 226 178 136 631 111 71
internal_value=0 0.1543 -0.156043 0.0889817 0.187577 -0.175479 -0.0870587 0.202626 -0.187553 0.0512187 -0.201945 -0.211607 0.225621 0.235892 -0.0503792 0.165324 0.0412166 0.161587 0.141067 -0.146111 -0.16252 0.11038 0.249208 0.272864 0.239102 0.183448 0.191718 -0.106997 0.2311 -0.220222
internal_weight=0 6625 6551 2236 4389 5111 1440 3673 4345 1496 3225 2579 2354 1926 969 740 1385 1319 810 1120 471 716 1536 666 341 390 224 766 870 149
internal_count=13176 6625 6551 2236 4389 5111 1440 3673 4345 1496 3225 2579 2354 1926 969 740 1385 1319 810 1120 471 716 1536 666 341 390 224 766 870 149
is_linear=0
shrinkage=0.02


Tree=6
num_leaves=31
num_cat=0
split_feature=3 3 3 5 4 17 17 6 27 26 4 5 20 4 5 25 26 27 27 5 6 27 22 8 7 4 27 16 6 26
split_gain=761707 34615 21194.1 19164.5 14366.4 7914.08 7497.32 6326.69 5518.68 4965.12 4238.05 4047.84 3116.86 2816.03 2490.68 2451.56 2162.46 2059.96 1908.3 1782.76 1766.29 1748.88 2332.27 1644.42 1607.07 1584.4 1482.97 1891.67 1450.04 1401.69
threshold=1.0000000180025095e-35 5.6688297571879414 -4.2633973035887545 3.989021486710262 -4.9705191004614724 1.0000000180025095e-35 -1.0000000180025095e-35 11.048627031413378 7.6332737177779793 -10.142049131627788 1.5791293501888259 -0.31810431364663322 0.69521338149972867 10.590223110311575 -6.8170176179356021 10.616092787065606 9.690210982387546 -6.8883297876032854 3.2298779792650616 14.607988568766718 7.2239330202016125 -7.3245336652264674 -1.0000000180025095e-35 -4.7565986159676692 0.63244537792388 19.358473635953974 2.8955205344120949 -0.58983671958904282 -3.6709921477106549 6.3648791694770788
decision_type=2 2 2 2 2 2 2 2 2 2 2 2 2 2 2 2 2 2 2 2 2 2 2 2 2 2 2 2 2 2
left_child=2 3 6 10 14 -3 9 13 12 -1 -2 17 -7 19 -4 24 -9 -6 -17 26 -12 -11 28 -19 -14 29 27 -5 -23 -10
right_child=1 5 4 7 11 8 -8 16 25 21 20 -13 15 -15 -16 18 -18 23 -20 -21 -22 22 -24 -25 -26 -27 -28 -29 -30 -31
leaf_value=-0.14771904040424091 0.015027791143297315 0.11072864805774155 -0.19601865433462051 0.069263996856650287 -0.053292035426110232 0.17165444078241909 -0.12001783424283226 0.24845089541635482 0.19087124083117143 -0.17444116570276244 0.06431165203285176 -0.017734034853364458 0.41453424280340023 0.17798481940151623 -0.13432845584910832 0.24182553484221783 0.15808293435854071 -0.16126660621333672 0.14814366794737852 0.17271730331856694 0.13207827598070415 -0.23489352950732595 -0.17464397403073656 -0.090881846653281056 0.24222898665978013 0.22158865750293555 0.054743729762326589 0.16667078229505569 -0.18595514205561298 0.13824334650867731
leaf_weight=736 715 422 509 159 391 410 663 281 302 540 583 453 22 279 539 147 170 188 213 122 209 1332 452 452 1369 173 275 160 296 614
leaf_count=736 715 422 509 159 391 410 663 281 302 540 583 453 22 279 539 147 170 188 213 122 209 1332 452 452 1369 173 275 160 296 614
internal_value=0 0.151214 -0.152922 0.100236 -0.1076 0.192211 -0.181476 0.15225 0.202791 -0.193617 0.0503271 -0.0675656 0.221292 0.124085 -0.164291 0.232915 0.214388 -0.0894606 0.186397 0.103081 0.0821945 -0.206511 -0.214837 -0.111557 0.244954 0.166078 0.0887792 0.11812 -0.225996 0.155594
internal_weight=0 6625 6551 2953 2532 3672 4019 1446 3250 3356 1507 1484 2161 995 1048 1751 451 1031 360 716 792 2620 2080 640 1391 1089 594 319 1628 916
internal_count=13176 6625 6551 2953 2532 3672 4019 1446 3250 3356 1507 1484 2161 995 1048 1751 451 1031 360 716 792 2620 2080 640 1391 1089 594 319 1628 916
is_linear=0
shrinkage=0.02


Tree=7
num_leaves=31
num_cat=0
split_feature=3 3 4 4 18 3 27 17 26 5 20 25 27 6 5 23 12 4 6 8 12 24 17 11 5 27 7 4 27 6
split_gain=731544 33315.2 20467.7 14971.8 11793.4 10770.5 8156.15 6516.02 6950.24 4368.13 3948.2 3485.1 2861.06 2454.16 2436.16 2435.69 2163.21 1923.77 1661.75 1651.43 1742.56 1690.59 1584.99 1580.25 1541.79 1518.04 1504.5 1490.62 1486.34 1379.49
threshold=1.0000000180025095e-35 3.9008000391212518 -2.67602613943586 5.9490215012819112 -0.077078319114880528 -4.6468558942768636 3.8202634999947711 -1.0000000180025095e-35 -9.5388661289351813 5.253742023188237 0.80283202279743116 10.42046108897445 -7.3245336652264674 11.215821704975601 -0.40709852295374482 1.0000000180025095e-35 -0.75891771713707135 -23.64778701348332 9.7905555251807765 24.748534853825742 10.671600483416482 10.025391091122595 15.85371532046535 1.0000000180025095e-35 13.744359108131064 -3.3403143362699486 -3.9579028841587882 -1.0000000180025095e-35 13.916409705181643 -13.213384160283557
decision_type=2 2 2 2 2 2 2 2 2 2 2 2 2 2 2 2 2 2 2 2 2 2 2 2 2 2 2 2 2 2
left_child=2 3 7 9 23 16 10 8 17 27 -6 28 -10 -5 25 -14 -4 -1 -13 20 -12 -22 -21 -3 -11 -7 -27 -2 -8 -19
right_child=1 4 5 13 6 14 11 -9 12 24 19 18 15 -15 -16 -17 -18 29 -20 22 21 -23 -24 -25 -26 26 -28 -29 -30 -31
leaf_value=-0.24323815516063146 -0.011471390427474528 0.060742090960783472 -0.17771670041282753 0.13268616210914064 0.17328630383803958 -0.044411048370623776 0.20581098553008861 -0.11785899152783313 -0.16070574399450749 0.086052279665617515 0.21504787231873324 0.10884303998668812 -0.21963718725273002 0.20947045663541017 -0.016036479235191473 -0.17362135440441773 -0.092998840672814331 -0.17040258974285241 0.16448626955732773 0.34645015184241951 0.28228240231636131 0.19222653187598501 0.16248737122701562 0.12547691239021719 0.18227552833882246 -0.17023804854343433 -0.079569241234164381 0.042434404625600435 0.1536762242196428 -0.11514890601608709
leaf_weight=63 269 216 480 487 433 310 743 770 686 274 694 437 1699 253 428 631 161 242 422 101 405 105 23 500 88 101 266 865 310 714
leaf_count=63 269 216 480 487 433 310 743 770 686 274 694 437 1699 253 428 631 161 242 422 101 405 105 23 500 88 101 266 865 310 714
internal_value=0 0.14819 -0.149864 0.0853545 0.180202 -0.0912184 0.194677 -0.171174 -0.181348 0.0489562 0.225731 0.166075 -0.196606 0.158938 -0.0533851 -0.207175 -0.156438 -0.13619 0.136179 0.242831 0.235674 0.263741 0.312328 0.105948 0.109444 -0.0769969 -0.104522 0.0296472 0.190463 -0.129136
internal_weight=0 6625 6551 2236 4389 1746 3673 4805 4035 1496 1761 1912 3016 740 1105 2330 641 1019 859 1328 1204 510 124 716 362 677 367 1134 1053 956
internal_count=13176 6625 6551 2236 4389 1746 3673 4805 4035 1496 1761 1912 3016 740 1105 2330 641 1019 859 1328 1204 510 124 716 362 677 367 1134 1053 956
is_linear=0
shrinkage=0.02


Tree=8
num_leaves=31
num_cat=0
split_feature=4 3 3 4 18 5 15 27 26 5 20 25 27 22 3 6 4 26 4 6 12 21 8 24 24 26 8 6 21 14
split_gain=702632 33966.9 22656.3 14423.2 10769.1 8846.64 7700.76 7539.86 5688.33 4440.39 3836.13 3214 2637.15 2913.72 2600.18 2458.89 2236.06 1918.75 1771.03 1744.67 1623.25 1598.72 1518.48 1528.6 1505.74 1658.11 1679.82 1487.86 1398.06 1388.81
threshold=1.0000000180025095e-35 3.9008000391212518 -2.1704258858517123 5.9490215012819112 -0.077078319114880528 -4.9705191004614724 1.0000000180025095e-35 3.8202634999947711 -8.9722526827684845 11.877732560877531 0.80283202279743116 10.42046108897445 -8.518434364696736 -1.0000000180025095e-35 0.62787407432362452 11.215821704975601 -6.3015999063913428 -3.7288435641711435 -23.64778701348332 -9.516253034674758 10.671600483416482 5.6601945394052242 16.983184397549067 -0.59512145648505632 -0.68729550133154549 13.636672039454821 24.748534853825742 15.612397587265152 -7.9064335407035591 -0.31726885596708582
decision_type=2 2 2 2 2 2 2 2 2 2 2 2 2 2 2 2 2 2 2 2 2 2 2 2 2 2 2 2 2 2
left_child=2 3 6 9 29 17 8 10 18 14 -6 -9 -10 28 -2 -5 -7 -4 -1 -19 24 22 23 -22 -12 26 -26 -13 -14 -3
right_child=1 4 5 15 7 16 -8 11 12 -11 20 27 13 -15 -16 -17 -18 19 -20 -21 21 -23 -24 -25 25 -27 -28 -29 -30 -31
leaf_value=-0.2387804614007473 0.004619729214046203 0.07614399410142729 -0.10892062428479012 0.12860916937805095 0.16982057655466759 -0.11700706077053359 -0.10588237303620467 0.18744325344256341 -0.15094075243275587 0.16854189912655523 0.14656865351729922 0.11838270605662976 -0.18800901808376824 -0.16548745049156227 0.059941622662995381 0.20528104786757426 -0.033957014476453204 -0.27090432121329111 -0.13196536692012215 -0.15441156041348117 0.42785384405742999 0.23012383608659728 0.37536579761150718 0.25170665506884538 0.22844263412499682 0.11824238535396907 0.34156064499041128 0.17703200382419115 -0.2241657655093427 0.1327522333820893
leaf_weight=66 568 331 234 494 433 152 703 1049 552 112 99 607 644 748 846 253 883 73 1048 174 22 280 74 189 555 49 58 242 1274 364
leaf_count=66 568 331 234 494 433 152 703 1049 552 112 99 607 644 748 846 253 883 73 1048 174 22 280 74 189 555 49 58 242 1274 364
internal_value=0 0.145232 -0.146873 0.0825694 0.17796 -0.0790898 -0.167282 0.191676 -0.177246 0.0473206 0.221506 0.16403 -0.19073 -0.198968 0.037719 0.154577 -0.0461537 -0.149961 -0.138294 -0.188841 0.238384 0.264066 0.297412 0.270073 0.219317 0.230196 0.239145 0.1351 -0.212026 0.105792
internal_weight=0 6625 6551 2273 4352 1516 5035 3657 4332 1526 1759 1898 3218 2666 1414 747 1035 481 1114 247 1326 565 285 211 761 662 613 849 1918 695
internal_count=13176 6625 6551 2273 4352 1516 5035 3657 4332 1526 1759 1898 3218 2666 1414 747 1035 481 1114 247 1326 565 285 211 761 662 613 849 1918 695
is_linear=0
shrinkage=0.02


Tree=9
num_leaves=31
num_cat=0
split_feature=3 5 6 3 5 3 6 3 5 20 27 4 5 3 27 11 26 6 25 4 7 17 27 12 27 11 22 25 24 16
split_gain=675165 30976.1 19182.5 11651.4 9432.48 8366.05 6182.83 5515.51 4069.43 3799.4 3880.57 3385.17 3322.08 3069.01 2732.5 2903.25 2432.58 2410.74 1900.97 1782.51 1780.57 1773.54 1995.49 1766.55 1580.97 1684.18 1556.37 1512.23 1506.22 1779.12
threshold=1.0000000180025095e-35 3.190965311822588 -3.6709921477106549 5.2638044225266265 -0.86836177482409915 8.6803289066948981 9.9771212900921089 -8.558175711101228 -6.8170176179356021 0.60739899228299798 3.2298779792650616 1.8699445935656145 12.348631784896041 -2.8527445720915483 2.598263345044459 0.89876677261895455 9.690210982387546 4.8362035145107312 -2.7837316957468259 -6.6858297004319516 -10.471089097766624 -1.0000000180025095e-35 -8.518434364696736 23.776985626036652 -1.7772298815074594 -0.93515084407579541 25.15629230279605 -3.4138434289962136 -6.8262550682089413 -1.1235292454381198
decision_type=2 2 2 2 2 2 2 2 2 2 2 2 2 2 2 2 2 2 2 2 2 2 2 2 2 2 2 2 2 2
left_child=2 3 7 11 13 6 12 21 28 -7 -11 -2 14 20 15 -3 18 -5 -8 -10 -4 22 -1 -14 -15 -26 -20 -21 -9 -30
right_child=1 5 4 17 -6 9 16 8 19 10 -12 -13 23 24 -16 -17 -18 -19 26 27 -22 -23 -24 -25 25 -27 -28 -29 29 -31
leaf_value=-0.15781281723509316 0.010851919470781495 0.075835687486226766 -0.17930303130220546 0.098465490651500662 -0.03112168748389128 0.13846287983720892 0.11740690126402738 -0.14533206030538889 -0.15136815139862708 0.24165898758931645 0.18452368021737919 0.076126183995301133 0.15461424627875739 -0.039830415945449851 0.064540485502902881 0.16523890256787799 0.14266075348662546 0.17382243823241536 0.23705727191098119 -0.073778983757678926 -0.12445368780740008 -0.12570046198459855 -0.21102094553993336 0.29801443621516227 -0.17710617967972567 -0.077071058395391592 0.092538359872996814 -0.13323089774623051 -0.20624859066944579 -0.12640509257051985
leaf_weight=354 703 245 333 294 626 367 73 437 500 822 1128 580 359 213 471 357 319 402 435 364 819 138 1385 38 102 198 32 323 623 136
leaf_count=354 703 245 333 294 626 367 73 437 500 822 1128 580 359 213 471 357 319 402 435 364 819 138 1385 38 102 198 32 323 623 136
internal_value=0 0.142365 -0.143973 0.0761029 -0.0973053 0.17059 0.143822 -0.169071 -0.148874 0.197498 0.208608 0.0403602 0.118911 -0.122189 0.100623 0.128854 0.18645 0.141991 0.212318 -0.12264 -0.140309 -0.194713 -0.20019 0.16834 -0.0814986 -0.111083 0.227154 -0.101731 -0.174911 -0.191942
internal_weight=0 6625 6551 1979 2291 4646 2329 4260 2383 2317 1950 1283 1470 1665 1073 602 859 696 540 1187 1152 1877 1739 397 513 300 467 687 1196 759
internal_count=13176 6625 6551 1979 2291 4646 2329 4260 2383 2317 1950 1283 1470 1665 1073 602 859 696 540 1187 1152 1877 1739 397 513 300 467 687 1196 759
is_linear=0
shrinkage=0.02


Tree=10
num_leaves=31
num_cat=0
split_feature=4 3 3 18 4 27 5 15 26 5 26 20 27 22 25 5 4 6 26 11 8 4 25 7 26 6 6 12 20 24
split_gain=648648 31358.9 20910.9 11970.5 11368.4 8466.94 8197.18 7172.42 5388.02 3708.22 2540.91 2880.59 2465.25 2749.26 2293.72 2124.6 2054.33 1951.25 1831.02 1804.48 1708.57 1682.68 1668 1756.72 1651.09 1625.48 1541.78 1440.77 1766.25 1651.92
threshold=1.0000000180025095e-35 2.8413331220286895 -2.1704258858517123 -0.077078319114880528 7.2408004938968533 7.2588292861510633 -4.9705191004614724 1.0000000180025095e-35 -8.9722526827684845 10.152601490605138 12.775800504440417 0.69521338149972867 -8.518434364696736 -1.0000000180025095e-35 1.3374394911655962 12.348631784896041 -6.3015999063913428 0.4499392687642621 -9.5388661289351813 1.0000000180025095e-35 9.6250953854630907 -23.64778701348332 10.616092787065606 0.63244537792388 6.0722750144883264 5.9370388593187657 -9.3375749036879245 10.671600483416482 4.7068478284789004 -0.68729550133154549
decision_type=2 2 2 2 2 2 2 2 2 2 2 2 2 2 2 2 2 2 2 2 2 2 2 2 2 2 2 2 2 2
left_child=2 4 7 19 9 10 18 8 21 14 11 -5 -10 -14 17 20 -8 -2 -4 -3 -7 -1 23 -13 -22 -6 -20 29 -29 -25
right_child=1 3 6 5 25 15 16 -9 12 -11 -12 22 13 -15 -16 -17 -18 -19 26 -21 24 -23 -24 27 -26 -27 -28 28 -30 -31
leaf_value=-0.23037930728811204 0.022763214782090719 0.053815810400634434 -0.080435150114975804 0.16612332143807662 0.10812314086451251 0.097122352879339902 -0.11220694708723673 -0.10146920012964591 -0.14499388418521436 0.14040551270094156 0.14736985164561442 0.41280468986147922 -0.20411314374222436 -0.15890747198934624 0.0014134842756093546 0.17462487492508683 -0.032603362437341854 0.092426711325259772 -0.22583803723481569 0.11729200089368938 0.20508853738426003 -0.12626264225261444 0.17896079544358109 0.13841696038842202 0.12574148462547449 0.18679319044649603 -0.13757791393779129 0.29354023992160305 0.22384093864562196 0.22233570582826029
leaf_weight=66 339 260 131 460 170 458 152 703 552 134 287 21 1918 748 597 538 883 306 121 576 154 1048 294 108 329 275 229 244 360 715
leaf_count=66 339 260 131 460 170 458 152 703 552 134 287 21 1918 748 597 538 883 306 121 576 154 1048 294 108 329 275 229 244 360 715
internal_value=0 0.139542 -0.141118 0.166331 0.0688669 0.180822 -0.075998 -0.160725 -0.170341 0.0404488 0.203343 0.210638 -0.183464 -0.19143 0.0296644 0.142923 -0.0442939 0.0558129 -0.144218 0.0975506 0.124798 -0.132431 0.222393 0.231212 0.151041 0.156739 -0.168091 0.228539 0.251998 0.211323
internal_weight=0 6625 6551 4804 1821 3968 1516 5035 4332 1376 2489 2202 3218 2666 1242 1479 1035 645 481 836 941 1114 1742 1448 483 445 350 1427 604 823
internal_count=13176 6625 6551 4804 1821 3968 1516 5035 4332 1376 2489 2202 3218 2666 1242 1479 1035 645 481 836 941 1114 1742 1448 483 445 350 1427 604 823
is_linear=0
shrinkage=0.02


Tree=11
num_leaves=31
num_cat=0
split_feature=3 4 6 18 3 25 3 3 5 26 7 25 5 27 4 8 5 11 9 17 27 4 26 9 3 17 27 25 26 20
split_gain=623182 28711.9 17824.8 10481.4 10479 9716.32 8686.96 5178.44 3804.64 3621.55 3289.01 2926.35 2625.75 2511.9 2367.14 2343.96 1915.05 1821.68 1694.48 1665.84 1850.11 1652.28 1611.59 1588 1547.08 1462.73 1588.19 1444.08 1439.11 1648.87
threshold=1.0000000180025095e-35 2.8473635943160982 -3.6709921477106549 -0.077078319114880528 5.9431943190190148 10.616092787065606 -2.1704258858517123 -8.558175711101228 -6.8170176179356021 8.9570351898978924 -1.7365948971677885 -0.50343689428752836 2.4331368884160649 3.8202634999947711 9.4442585650811068 35.110752132320989 -2.1704258858517123 0.32360243234643155 5.3369489187646417 -1.0000000180025095e-35 -8.518434364696736 -6.6858297004319516 -8.5792305460940401 5.7277179137572416 8.86335923225427 5.214371905367857 12.571579948657407 -3.4138434289962136 -5.6799981500349892 -0.94527062740037449
decision_type=2 2 2 2 2 2 2 2 2 2 2 2 2 2 2 2 2 2 2 2 2 2 2 2 2 2 2 2 2 2
left_child=2 4 7 -3 12 9 10 19 28 11 22 -5 -2 15 -7 18 -8 -6 -13 20 -1 -10 -4 -20 -11 26 -15 -23 -9 -30
right_child=1 3 6 5 17 14 16 8 21 24 -12 13 -14 25 -16 -17 -18 -19 23 -21 -22 27 -24 -25 -26 -27 -28 -29 29 -31
leaf_value=-0.15186294930466152 0.015443893613055331 0.094733327042079499 -0.097178738579683593 0.16845376451160943 0.054209318071990822 0.098910704602352073 -0.084199350899051548 -0.14056348109782416 -0.14523558192782104 0.12691199325637315 -0.074302150034879486 0.1931697781713741 0.074169698335801157 0.28975509178638459 0.15480251826195635 0.44668928471478553 -0.019460865234298238 0.15950022957040896 0.4212844536521218 -0.12047471852892119 -0.20309618025664442 -0.07013118778451366 -0.15486562390082051 0.24855591890142495 0.18685645284249344 0.17602837445909217 0.12590882775283629 -0.12822798455128268 -0.20635601371857856 -0.14220526938448477
leaf_weight=354 789 771 255 547 77 585 275 464 500 359 410 249 496 100 629 22 545 449 22 138 1385 364 806 660 331 508 31 323 495 237
leaf_count=354 789 771 255 547 77 585 275 464 500 359 410 249 496 100 629 22 545 449 22 138 1385 364 806 660 331 508 31 323 495 237
internal_value=0 0.136775 -0.13832 0.162312 0.0688918 0.175199 -0.0933335 -0.162513 -0.142943 0.19551 -0.122411 0.208362 0.0381116 0.222075 0.127869 0.242646 -0.0411719 0.144087 0.237824 -0.187359 -0.192667 -0.117576 -0.141001 0.254128 0.155668 0.191395 0.250982 -0.097446 -0.168119 -0.185586
internal_weight=0 6625 6551 4814 1811 4043 2291 4260 2383 2829 1471 2139 1285 1592 1214 953 820 526 931 1877 1739 1187 1061 682 690 639 131 687 1196 732
internal_count=13176 6625 6551 4814 1811 4043 2291 4260 2383 2829 1471 2139 1285 1592 1214 953 820 526 931 1877 1739 1187 1061 682 690 639 131 687 1196 732
is_linear=0
shrinkage=0.02


Tree=12
num_leaves=31
num_cat=0
split_feature=4 3 3 4 17 4 15 26 26 5 20 27 27 22 3 25 6 8 5 12 5 24 4 8 23 25 21 8 24 20
split_gain=598846 29047.2 19248.1 12404.3 9266.07 7612.73 6715.81 6328.45 5041.66 3856.79 2475.94 4122.68 2314.16 2586.52 2310.21 2275.87 2210.53 2094.59 1898.7 1844.66 1800.34 1759.32 1622.44 1459.85 1440.71 1422.12 1410.67 1915.02 2155.93 1523.47
threshold=1.0000000180025095e-35 3.9008000391212518 -2.1704258858517123 5.9490215012819112 1.0000000180025095e-35 -4.6468558942768636 1.0000000180025095e-35 9.8564939150232469 -8.9722526827684845 11.877732560877531 0.69521338149972867 4.8096455976919374 -8.518434364696736 -1.0000000180025095e-35 8.86335923225427 3.7130331185662144 11.215821704975601 0.46855878118716665 -5.3507477943032091 10.671600483416482 -13.213723774122611 -1.1428572122272111 -12.233509809379401 7.6207046013980166 8.3781186736949298 -1.3246767715402161 5.2481433069623113 16.983184397549067 6.8787214134373631 6.4096208969695816
decision_type=2 2 2 2 2 2 2 2 2 2 2 2 2 2 2 2 2 2 2 2 2 2 2 2 2 2 2 2 2 2
left_child=2 3 6 9 -3 18 8 10 22 15 -6 19 -10 -14 -9 17 -5 -2 -4 21 -7 -12 -1 -13 -25 -22 27 -21 -29 -28
right_child=1 4 5 16 7 20 -8 14 12 -11 11 23 13 -15 -16 -17 -18 -19 -20 26 25 -23 -24 24 -26 -27 29 28 -30 -31
leaf_value=-0.16899350732564927 0.02880654012553488 0.093866701861905377 -0.17132880578037873 0.1182867752487662 0.15214680694276944 -0.17639131555431767 -0.097065168445251593 0.099148123734532953 -0.13913020492473996 0.15641621221721705 0.12157161560157935 0.13046993106332128 -0.19642291428954406 -0.15257560740508896 0.15949797112176767 0.0045941989897196559 0.19098347087872949 0.093472303275821053 -0.093526405958671191 0.25330718192550328 -0.012472088550489552 0.2157168047741409 -0.11315241092271924 0.22035762337185305 0.15804105032651808 -0.060896350718546363 0.27320306655813437 0.30085782920827675 0.53918133648959077 0.17774379205134874
leaf_weight=277 476 637 279 494 489 38 703 429 552 112 90 277 1918 748 621 592 253 346 228 194 498 674 837 269 331 473 122 49 22 148
leaf_count=277 476 637 279 494 489 38 703 429 552 112 90 277 1918 748 621 592 253 346 228 194 498 674 837 269 331 473 122 49 22 148
internal_value=0 0.134078 -0.135592 0.0761303 0.164343 -0.0731152 -0.154404 0.176427 -0.163709 0.0434415 0.192812 0.201951 -0.176403 -0.184121 0.134841 0.034493 0.142908 0.0560259 -0.136341 0.22457 -0.0413458 0.204626 -0.127037 0.168447 0.18598 -0.0360608 0.253051 0.285833 0.374705 0.220877
internal_weight=0 6625 6551 2273 4352 1516 5035 3715 4332 1526 2665 2176 3218 2666 1050 1414 747 822 507 1299 1009 764 1114 877 600 971 535 265 71 270
internal_count=13176 6625 6551 2273 4352 1516 5035 3715 4332 1526 2665 2176 3218 2666 1050 1414 747 822 507 1299 1009 764 1114 877 600 971 535 265 71 270
is_linear=0
shrinkage=0.02


Tree=13
num_leaves=31
num_cat=0
split_feature=3 5 4 3 3 3 6 17 26 26 20 27 4 18 27 6 23 5 27 13 3 12 4 8 22 12 11 4 25 8
split_gain=575275 26832.1 16627.3 9965.96 8654.58 7170.35 5521.2 5315.08 5753.71 3461.47 3341.28 3578.46 2810.2 2648.46 2319.67 2129.69 2105.79 1977.41 2055.21 2434.14 1910.48 1809.88 1690.47 1558.73 1501.94 1604.83 1457.62 1408.18 1366.15 1315.99
threshold=1.0000000180025095e-35 3.190965311822588 -2.67602613943586 5.2638044225266265 -4.6468558942768636 8.6803289066948981 6.7343397265943219 -1.0000000180025095e-35 -9.5388661289351813 9.690210982387546 0.69521338149972867 3.2298779792650616 1.8699445935656145 -0.077078319114880528 -7.3245336652264674 6.5481391267176408 1.0000000180025095e-35 14.607988568766718 2.598263345044459 2.1939324191620639 -1.3165463724941315 -0.75891771713707135 -10.914547531813971 17.432273940927171 25.15629230279605 23.776985626036652 6.0202942744481316 8.6706880737048291 10.42046108897445 16.314689530509536
decision_type=2 2 2 2 2 2 2 2 2 2 2 2 2 2 2 2 2 2 2 2 2 2 2 2 2 2 2 2 2 2
left_child=2 3 7 12 21 6 17 8 22 13 -7 29 -2 -8 -10 23 -16 18 19 -3 -6 -4 -1 -5 25 -15 -27 -11 -13 -12
right_child=1 5 4 15 20 10 9 -9 14 27 11 28 -14 24 16 -17 -18 -19 -20 -21 -22 -23 -24 -25 -26 26 -28 -29 -30 -31
leaf_value=-0.15652850348130962 0.0097991882997053598 0.080389183050421073 -0.15796550245753799 0.087286350238901772 -0.070783969014091105 0.12828213243379127 0.094127432635320085 -0.10395198914900954 -0.14284957897523554 0.084893172531151043 0.2101421080589605 0.18768305946141481 0.069272224283391803 0.19887311074032549 -0.19627937753991787 0.16731010028183552 -0.15349309656403004 0.15774432820253936 0.052722829870019215 0.16890074733382643 -0.018079407652434706 -0.080474647833323629 -0.10193656730742377 0.26891005727648737 0.07995637000611934 0.44627010631561276 0.23960199454149536 0.15687958576010935 0.14248962915295765 0.26821195425015487
leaf_weight=341 703 331 480 344 588 379 105 770 686 241 600 690 580 574 1699 332 631 199 381 199 517 161 678 20 38 20 43 198 437 211
leaf_count=341 703 331 480 344 588 379 105 770 686 241 600 690 580 574 1699 332 631 199 381 199 517 161 678 20 38 20 43 198 437 211
internal_value=0 0.131412 -0.132897 0.0697415 -0.0800389 0.157682 0.1329 -0.152104 -0.161293 0.162284 0.182592 0.193213 0.0366849 0.187568 -0.175175 0.130678 -0.184692 0.100629 0.0881531 0.113623 -0.0461249 -0.138502 -0.120205 0.0972657 0.202103 0.20939 0.305211 0.117361 0.170159 0.22525
internal_weight=0 6625 6551 1979 1746 4646 2329 4805 4035 1219 2317 1938 1283 780 3016 696 2330 1110 911 530 1105 641 1019 364 675 637 63 439 1127 811
internal_count=13176 6625 6551 1979 1746 4646 2329 4805 4035 1219 2317 1938 1283 780 3016 696 2330 1110 911 530 1105 641 1019 364 675 637 63 439 1127 811
is_linear=0
shrinkage=0.02


Tree=14
num_leaves=31
num_cat=0
split_feature=4 3 3 14 4 5 27 15 26 5 25 27 26 22 25 26 5 6 6 25 3 8 27 3 4 4 12 9 17 8
split_gain=552826 26872.3 17795.5 10386.5 9902.17 7120.79 6336 6234.23 4731.44 4008.02 3770.6 3015.77 2815.99 2266.48 2134.86 2069.3 2008.6 1853.32 1748.86 1485.72 1462.5 1446.1 1391.32 1341.55 1306.41 1291.85 1290.98 1650.82 1854.93 1300.89
threshold=1.0000000180025095e-35 2.8413331220286895 -2.1704258858517123 0.092820774992502034 9.055641620128311 -4.2633973035887545 7.2588292861510633 1.0000000180025095e-35 -12.536304703121578 10.788748092180082 -2.3971368607553036 -7.2002773470929666 11.055295089947981 -1.0000000180025095e-35 2.7935430622112452 -3.7288435641711435 7.8825651370872487 -9.516253034674758 0.4499392687642621 -9.9016329469872648 19.358473635953974 11.072657336434711 2.0777576752971343 -4.390941484151015 -6.3015999063913428 -10.914547531813971 10.671600483416482 2.1559905447619925 11.235352916945919 22.90168413095622
decision_type=2 2 2 2 2 2 2 2 2 2 2 2 2 2 2 2 2 2 2 2 2 2 2 2 2 2 2 2 2 2
left_child=2 4 7 -3 9 15 10 8 25 14 -5 23 26 19 18 -4 21 -17 -2 -13 -14 -8 -22 -10 -7 -1 29 -28 -29 -12
right_child=1 3 5 6 -6 24 16 -9 11 -11 12 13 20 -15 -16 17 -18 -19 -20 -21 22 -23 -24 -25 -26 -27 27 28 -30 -31
leaf_value=-0.15426311212905389 0.020572210424433329 0.072170272283020712 -0.0874417958426012 0.13548775493088755 0.15901115095640667 -0.096423957327395005 0.077762375522282101 -0.093121381339538914 -0.14831755348103437 0.13615712899690979 0.1821176655063716 -0.15094936409699064 0.12454873125154814 -0.14713938905941035 0.0013435370889613031 -0.24696223273128273 0.15084550983237183 -0.13338153408913345 0.083102409998183968 -0.19594518028626695 0.34886590947707496 0.13924551385638276 0.16361128740981223 -0.090325359511320327 -0.0285130216081236 -0.094484212047284882 0.12782365787545075 0.25632717017161466 0.1861212522880773 0.24996603718827828
leaf_weight=199 350 554 262 557 350 131 364 703 636 157 967 357 304 747 598 80 844 204 366 1651 24 264 50 213 839 529 65 459 224 128
leaf_count=199 350 554 262 557 350 131 364 703 636 157 967 357 304 747 598 80 844 204 366 1651 24 264 50 213 839 529 65 459 224 128
internal_value=0 0.128823 -0.130278 0.153622 0.0633991 -0.0702048 0.16424 -0.148366 -0.157331 0.0406498 0.182016 -0.166725 0.193685 -0.176881 0.0292383 -0.127979 0.130693 -0.165376 0.052536 -0.187945 0.143958 0.103609 0.223694 -0.133768 -0.0376845 -0.110825 0.203884 0.224136 0.233302 0.190049
internal_weight=0 6625 6551 4804 1821 1516 4250 5035 4332 1471 2778 3604 2221 2755 1314 546 1472 284 716 2008 378 628 74 849 970 728 1843 748 683 1095
internal_count=13176 6625 6551 4804 1821 1516 4250 5035 4332 1471 2778 3604 2221 2755 1314 546 1472 284 716 2008 378 628 74 849 970 728 1843 748 683 1095
is_linear=0
shrinkage=0.02


Tree=15
num_leaves=31
num_cat=0
split_feature=3 6 6 3 5 27 18 5 3 5 4 5 23 12 7 5 3 26 26 27 17 26 6 27 17 27 4 24 16 3
split_gain=530997 25026.4 15611 11685.8 7480.5 5398 6355.43 5284.61 4608.75 3423.22 3212.32 2650.83 2157.9 2235.55 2133.06 1972.48 1827.33 1675.07 1629.7 1864.46 1631.89 1607.37 1949.65 1483.72 1479.77 1617.69 1421.06 1371.96 1607.4 1358.71
threshold=1.0000000180025095e-35 4.717511840074903 -3.6709921477106549 7.8918131125745994 -0.86836177482409915 7.4241396271333091 -0.028725949832512001 3.989021486710262 -8.558175711101228 -6.8170176179356021 9.4442585650811068 -10.116586086287098 13.267763377793877 4.8211343153157875 8.7029748080067222 15.612397587265152 -6.3015999063913428 -3.0532999023371836 0.152386517032917 1.709028438556216 5.0735013238811071 1.1669241016299179 0.4499392687642621 2.1651341164543476 -1.0000000180025095e-35 -8.518434364696736 -6.6858297004319516 -6.8262550682089413 -1.1235292454381198 9.4635771676801177
decision_type=2 2 2 2 2 2 2 2 2 2 2 2 2 2 2 2 2 2 2 2 2 2 2 2 2 2 2 2 2 2
left_child=2 3 8 7 11 6 -3 21 24 27 15 -4 13 -8 -5 29 -13 -18 -15 -20 -21 22 -2 -14 25 -1 -11 -10 -29 -7
right_child=1 5 4 14 -6 10 12 -9 9 26 -12 16 23 18 -16 -17 17 -19 19 20 -22 -23 -24 -25 -26 -27 -28 28 -30 -31
leaf_value=-0.14060837442328952 0.016684187605446186 0.098213197976887309 -0.15321585898963516 0.1166688917293606 -0.026640967614547064 0.064259896291842034 0.16304772915815757 0.097025533520535612 -0.12750939031286074 -0.13344836004465818 0.1609872344706115 -0.12433022638615451 0.21399852140160167 0.17674052006110011 0.18544860824382045 0.16075911922279948 -0.036215661603826707 -0.096882015257038545 0.26385454736139374 0.26436330264380226 0.18576633397250245 -0.0085298299623503427 0.076878578979223178 0.11751211811529072 -0.11072233250229686 -0.18851554353142472 -0.089128581454839803 -0.18559214933998106 -0.1096996560042231 0.12912790826659223
leaf_weight=354 507 368 392 415 626 439 562 690 437 500 605 484 85 394 319 167 285 504 325 138 451 348 374 255 138 1385 687 623 136 183
leaf_count=354 507 368 392 415 626 439 562 690 437 500 605 484 85 394 319 167 285 504 325 138 451 348 374 255 138 1385 687 623 136 183
internal_value=0 0.126254 -0.12768 0.0786907 -0.08558 0.158023 0.175168 0.052731 -0.150321 -0.131859 0.126316 -0.10774 0.187982 0.196409 0.146561 0.0997304 -0.0937359 -0.0749683 0.210743 0.2254 0.204181 0.0278626 0.0422378 0.141634 -0.173761 -0.178763 -0.107797 -0.15574 -0.171993 0.0833449
internal_weight=0 6625 6551 2653 2291 3972 2578 1919 4260 2383 1394 1665 2210 1870 734 789 1273 789 1308 914 589 1229 881 340 1877 1739 1187 1196 759 622
internal_count=13176 6625 6551 2653 2291 3972 2578 1919 4260 2383 1394 1665 2210 1870 734 789 1273 789 1308 914 589 1229 881 340 1877 1739 1187 1196 759 622
is_linear=0
shrinkage=0.02


Tree=16
num_leaves=31
num_cat=0
split_feature=4 3 3 14 4 5 27 15 26 5 25 27 26 22 25 5 4 26 6 25 3 8 27 6 3 25 8 27 25 8
split_gain=510399 24846.2 16450.9 9690.48 9193.78 6605.4 5889.05 5800.72 4480.92 3721.86 3507.31 2828.82 2666.46 2135.23 2019.37 1871.91 1744.93 1617.3 1602.97 1412.46 1385.79 1367.67 1326.28 1312.62 1266.76 1261.15 1273.09 1249.48 1237.88 1230.63
threshold=1.0000000180025095e-35 2.8413331220286895 -2.1704258858517123 0.092820774992502034 9.055641620128311 -5.3507477943032091 7.2588292861510633 1.0000000180025095e-35 -12.536304703121578 10.788748092180082 -2.3971368607553036 -7.2002773470929666 11.055295089947981 -1.0000000180025095e-35 2.7935430622112452 7.8825651370872487 -6.4129331590114544 -9.5388661289351813 0.4499392687642621 -9.9016329469872648 19.358473635953974 11.246080774505456 2.0777576752971343 -9.3375749036879245 -4.390941484151015 9.699144183029885 11.456011510592111 -1.4993480097394918 22.636522653507747 15.976131312706531
decision_type=2 2 2 2 2 2 2 2 2 2 2 2 2 2 2 2 2 2 2 2 2 2 2 2 2 2 2 2 2 2
left_child=2 4 7 -3 9 17 10 8 -1 14 -5 24 29 19 18 21 -7 -4 -2 -13 -14 -8 -22 -19 -10 26 -11 -18 -17 -12
right_child=1 3 5 6 -6 16 15 -9 11 25 12 13 20 -15 -16 28 27 23 -20 -21 22 -23 -24 -25 -26 -27 -28 -29 -30 -31
leaf_value=-0.10595979530097223 0.020012028716025611 0.068951615226028037 -0.067795942919328805 0.13014605924948597 0.15300045390831574 -0.10148286805428849 0.074829212693432276 -0.089281070311666377 -0.14257892445861742 0.1270834975589567 0.18608991699885027 -0.14486293961771396 0.1189925064369546 -0.14132847051379313 0.00082511228976465988 0.15336371342792357 -0.0054421798519752587 -0.20638757217302917 0.079877342027675644 -0.18873545046136186 0.33771384596824644 0.13485615216224575 0.15684117474108936 -0.12402318881818206 -0.08622648621389005 0.058912972559531526 0.28384790007273358 -0.052549020949679497 0.074888224842958151 0.22262049906014228
leaf_weight=728 350 554 120 557 350 157 371 703 636 67 1333 357 304 747 598 754 446 120 366 1651 24 257 50 218 213 60 30 455 90 510
leaf_count=728 350 554 120 557 350 157 371 703 636 67 1333 357 304 747 598 754 446 120 366 1651 24 257 50 218 213 60 30 455 90 510
internal_value=0 0.123781 -0.125179 0.147627 0.0608719 -0.0674201 0.157883 -0.14257 -0.151218 0.0389514 0.17502 -0.16036 0.186274 -0.170196 0.0279549 0.125541 -0.0399526 -0.130871 0.0506136 -0.180935 0.137886 0.0993944 0.215503 -0.153265 -0.128441 0.130986 0.175567 -0.0292309 0.144995 0.196199
internal_weight=0 6625 6551 4804 1821 1516 4250 5035 4332 1471 2778 3604 2221 2755 1314 1472 1058 458 716 2008 378 628 74 338 849 157 97 901 844 1843
internal_count=13176 6625 6551 4804 1821 1516 4250 5035 4332 1471 2778 3604 2221 2755 1314 1472 1058 458 716 2008 378 628 74 338 849 157 97 901 844 1843
is_linear=0
shrinkage=0.02


Tree=17
num_leaves=31
num_cat=0
split_feature=4 3 3 4 14 4 15 26 26 5 20 27 4 25 3 6 12 8 22 27 5 24 27 7 6 23 21 8 24 20
split_gain=490188 23890.6 15799.4 10371 7785.03 6363.04 5571.01 5156.8 4339.92 3217.39 2831.62 3470.92 2056.9 2000.56 1960.1 1947.63 1900.34 1826.28 1692.22 2159.32 1661.12 1610.75 1609.67 1708.54 1414.61 1353.27 1327.73 1726.76 2054.59 1490.23
threshold=1.0000000180025095e-35 3.9008000391212518 -2.1704258858517123 5.9490215012819112 0.19934377935219466 -4.6468558942768636 1.0000000180025095e-35 9.8564939150232469 -6.3915455693621395 11.877732560877531 0.69521338149972867 4.8096455976919374 -10.914547531813971 3.7130331185662144 8.86335923225427 11.215821704975601 10.671600483416482 0.46855878118716665 -1.0000000180025095e-35 -6.2229992249667765 -5.3507477943032091 -0.68729550133154549 -1.4993480097394918 -3.1407409047534425 -6.0112753602711519 8.3781186736949298 5.2481433069623113 16.983184397549067 6.8787214134373631 6.4096208969695816
decision_type=2 2 2 2 2 2 2 2 2 2 2 2 2 2 2 2 2 2 2 2 2 2 2 2 2 2 2 2 2 2
left_child=2 3 6 9 -3 20 8 10 12 13 -6 16 -1 17 -9 -5 21 -2 19 -10 -4 -12 -7 -24 -14 -13 27 -18 -29 -28
right_child=1 4 5 15 7 22 -8 14 18 -11 11 25 24 -15 -16 -17 26 -19 -20 -21 -22 -23 23 -25 -26 -27 29 28 -30 -31
leaf_value=-0.15564536894907421 0.025462137506218206 0.073913813322219565 -0.15660110706363314 0.10670162660767313 0.13549000826945698 -0.012820185635696138 -0.087495448991553953 0.08747344367101649 -0.13880571322469207 0.14204876205218692 0.11660421464281777 0.18022923561273768 -0.1241919036549242 0.0026576426362058753 0.14319291006958254 0.17493868504853352 0.23385182252638817 0.08584414382524401 -0.13723331417964058 -0.18476566141983775 -0.083829084593361539 0.19632765980759725 -0.15182148691367459 -0.047388211137519509 -0.076654566881781933 0.13003506660453712 0.25399909142171967 0.2771984423544942 0.50985318443991923 0.15901224263671304
leaf_weight=470 476 493 279 494 642 526 703 428 562 112 120 387 629 592 616 253 192 346 754 1501 228 653 74 409 416 483 120 49 22 147
leaf_count=470 476 493 279 494 642 526 703 428 562 112 120 387 629 592 616 253 192 346 754 1501 228 653 74 409 416 483 120 49 22 147
internal_value=0 0.121305 -0.122676 0.0687527 0.148753 -0.0660717 -0.139719 0.158314 -0.148194 0.0388629 0.172394 0.183297 -0.120897 0.0306898 0.12035 0.129813 0.203951 0.0508784 -0.162874 -0.172245 -0.123875 0.183951 -0.0370267 -0.0633883 -0.105268 0.152363 0.23312 0.265015 0.349289 0.201703
internal_weight=0 6625 6551 2273 4352 1516 5035 3859 4332 1526 2815 2173 1515 1414 1044 747 1303 822 2817 2063 507 773 1009 483 1045 870 530 263 71 267
internal_count=13176 6625 6551 2273 4352 1516 5035 3859 4332 1526 2815 2173 1515 1414 1044 747 1303 822 2817 2063 507 773 1009 483 1045 870 530 263 71 267
is_linear=0
shrinkage=0.02


Tree=18
num_leaves=31
num_cat=0
split_feature=3 6 6 3 3 27 18 5 3 8 4 5 23 12 17 7 27 20 26 12 3 27 25 27 7 27 5 26 5 7
split_gain=471056 22514.1 14064 10433.1 6993.88 4828.92 5760.73 4707.6 3861.75 3074.59 2953.38 2565.97 2002.14 2093.84 2225.92 1976.61 1945.14 1715.54 1590.28 2201.01 1551.28 1488.45 1407.75 1392.72 1389.97 1277.03 1271.53 1269.79 1265.93 1262.47
threshold=1.0000000180025095e-35 4.717511840074903 -4.3891811650427561 7.8918131125745994 -1.6311183050859481 7.4241396271333091 -0.028725949832512001 5.1000922708196361 -8.558175711101228 -1.9185598936088122 6.7547200968639043 -6.8170176179356021 13.267763377793877 10.671600483416482 16.530425689150356 8.7029748080067222 -2.1370471877492876 0.88182115647463821 0.87968871953851957 0.47751997379539596 9.4635771676801177 5.6327606897193201 -2.1119334721807244 2.1651341164543476 -11.370094434058847 17.962590520981909 -4.9705191004614724 -5.6799981500349892 15.612397587265152 -17.014583938047775
decision_type=2 2 2 2 2 2 2 2 2 2 2 2 2 2 2 2 2 2 2 2 2 2 2 2 2 2 2 2 2 2
left_child=2 3 8 7 9 6 -3 18 -1 16 20 27 13 22 17 -5 24 -15 19 -2 28 -19 -8 -14 -4 -12 -6 29 -7 -10
right_child=1 5 4 15 26 10 12 -9 11 -11 25 -13 23 14 -16 -17 -18 21 -20 -21 -22 -23 -24 -25 -26 -27 -28 -29 -30 -31
leaf_value=-0.16626004570123112 0.030424446941857135 0.091997045072241004 -0.13754510490561642 0.10915641074591731 -0.093789129077314265 0.048808389307141986 0.12519842277879412 0.098380975683463046 -0.19085370551390821 -0.068102641983139811 0.16039788704932811 -0.10385934782734044 0.20292881309986116 0.12953376639301756 0.13416632726388283 0.17536566479730076 -0.14562734633606894 0.25285427404455196 -0.0042931359616647426 0.11471643812673753 0.13176775485201536 0.15391702497324775 0.18006398379101671 0.10944828669040227 -0.074544644738224322 0.10391815965051342 -0.020205683687491472 -0.16471929195497287 0.14901732615242572 -0.10404752426882458
leaf_weight=1763 819 368 215 415 111 347 235 555 83 624 568 1045 85 63 121 319 675 464 399 146 197 70 917 255 402 223 611 674 59 348
leaf_count=1763 819 368 215 415 111 347 235 555 83 624 568 1045 85 63 121 319 675 464 399 146 197 70 917 255 402 223 611 674 59 348
internal_value=0 0.118915 -0.120258 0.0738018 -0.0845678 0.149047 0.165263 0.0492729 -0.144319 -0.104558 0.119058 -0.126327 0.177462 0.185579 0.212386 0.137931 -0.122165 0.22824 0.0292912 0.0431774 0.0857161 0.239885 0.168872 0.132818 -0.0964978 0.144475 -0.0315184 -0.147575 0.0633708 -0.120764
internal_weight=0 6625 6551 2653 2638 3972 2578 1919 3913 1916 1394 2150 2210 1870 718 734 1292 597 1364 965 603 534 1152 340 617 791 722 1105 406 431
internal_count=13176 6625 6551 2653 2638 3972 2578 1919 3913 1916 1394 2150 2210 1870 718 734 1292 597 1364 965 603 534 1152 340 617 791 722 1105 406 431
is_linear=0
shrinkage=0.02


Tree=19
num_leaves=31
num_cat=0
split_feature=4 3 3 14 4 5 17 26 26 5 20 27 6 3 26 25 12 24 6 21 8 24 27 23 8 4 17 6 5 24
split_gain=452622 22123 14546.1 8700.72 8269.63 5917.1 5250.99 5082.82 4298.06 3328.54 3151.7 3573.88 2063.66 1987.14 1873.72 1856.08 1781.72 1887.11 1674.34 1578.46 1550.81 2009.05 1518.29 2238.05 1500.89 1473.8 1470.05 1458 1380.46 1355.28
threshold=1.0000000180025095e-35 2.8413331220286895 -2.1704258858517123 1.0000000180025095e-35 9.055641620128311 -4.2633973035887545 -1.0000000180025095e-35 9.8564939150232469 -5.9933017745082688 10.788748092180082 0.80283202279743116 4.8096455976919374 -11.925980775155443 8.86335923225427 -3.7288435641711435 2.7935430622112452 10.671600483416482 -0.68729550133154549 -9.516253034674758 5.2481433069623113 16.983184397549067 6.8787214134373631 -6.2229992249667765 1.0000000180025095e-35 7.6207046013980166 -10.914547531813971 18.133675082604913 0.4499392687642621 -1.5423392125406403 -0.59512145648505632
decision_type=2 2 2 2 2 2 2 2 2 2 2 2 2 2 2 2 2 2 2 2 2 2 2 2 2 2 2 2 2 2
left_child=2 4 6 -3 9 14 8 10 12 15 -5 16 -1 -9 -4 27 17 -12 -16 20 29 -22 -10 -24 -13 -14 -21 -2 -25 -18
right_child=1 3 5 7 -6 -7 -8 13 22 -11 11 24 25 -15 18 -17 19 -19 -20 26 21 -23 23 28 -26 -27 -28 -29 -30 -31
leaf_value=-0.153066572837573 0.018552573942140278 0.060534696248424523 -0.077660312779702756 0.12768879628004692 0.14457874908064094 -0.033924415494070492 -0.09143657000330567 0.086361673268835731 -0.12977798933912627 0.12344950674322677 0.10321611178471002 0.10731874203005064 -0.14024979745824037 0.13800607440019125 -0.22936663665506057 4.48878708117981e-06 0.37550249370661648 0.18835509933909847 -0.12140968625593529 0.20831104403192346 0.26620005018424753 0.49486022298986265 -0.18236212861097673 -0.1277900998077558 0.16125285352268828 -0.0887267624920096 0.082637241489507934 0.075646636431809022 -0.23446205757698924 0.20910843039036131
leaf_weight=472 350 505 262 804 350 970 934 573 522 157 123 306 308 621 80 598 22 679 204 242 51 22 1375 575 634 796 44 366 53 178
leaf_count=472 350 505 262 804 350 970 934 573 522 157 123 306 308 621 80 598 22 679 204 242 51 22 1375 575 634 796 44 366 53 178
internal_value=0 0.116565 -0.117881 0.139066 0.0572031 -0.063569 -0.134234 0.148291 -0.143982 0.0364135 0.161777 0.173688 -0.118065 0.113222 -0.116234 0.0260143 0.194402 0.175298 -0.15182 0.221812 0.256211 0.335111 -0.160158 -0.168075 0.143696 -0.103101 0.188977 0.0477375 -0.136793 0.227412
internal_weight=0 6625 6551 4804 1821 1516 5035 4299 4101 1471 3105 2301 1576 1194 546 1314 1361 802 284 559 273 73 2525 2003 940 1104 286 716 628 200
internal_count=13176 6625 6551 4804 1821 1516 5035 4299 4101 1471 3105 2301 1576 1194 546 1314 1361 802 284 559 273 73 2525 2003 940 1104 286 716 628 200
is_linear=0
shrinkage=0.02


Tree=20
num_leaves=31
num_cat=0
split_feature=3 6 6 3 5 27 18 5 3 4 4 5 7 23 12 5 26 27 17 26 6 24 4 27 4 25 16 4 16 25
split_gain=434850 20919.1 13075.4 9651.77 6444.19 4495.24 5385.16 4352.64 3612.81 3585.08 2788.25 2413.13 1863.76 1863.75 1960.1 1714.75 1556.91 1683.27 1492.87 1442.43 1627.11 1438.38 1361.51 1321.32 1295.62 1271.8 1269.95 1232.04 1286.36 1209.56
threshold=1.0000000180025095e-35 4.717511840074903 -4.3891811650427561 7.8918131125745994 -4.9705191004614724 7.4241396271333091 -0.077078319114880528 3.989021486710262 -8.558175711101228 -1.2216458669210506 9.4442585650811068 -8.9444764968326123 8.7029748080067222 13.267763377793877 4.8211343153157875 15.612397587265152 0.152386517032917 1.709028438556216 5.0735013238811071 0.87968871953851957 0.4499392687642621 -7.2547800960202151 -15.543223026429089 2.1651341164543476 -6.4129331590114544 13.866970821262933 -1.2296340633860352 -16.235112285848377 -10.127862430636579 -3.7356944196967699
decision_type=2 2 2 2 2 2 2 2 2 2 2 2 2 2 2 2 2 2 2 2 2 2 2 2 2 2 2 2 2 2
left_child=2 3 8 7 -4 6 -3 19 27 22 15 21 -5 14 -8 -7 -16 -18 -19 20 -2 -10 -6 -15 -13 -17 -23 28 -1 -26
right_child=1 5 4 12 9 10 13 -9 11 -11 -12 24 -14 23 16 25 17 18 -20 -21 -22 26 -24 -25 29 -27 -28 -29 -30 -31
leaf_value=-0.24266759300391183 0.014915449041601589 0.086845232607060924 -0.11894189783178069 0.10450775162857699 -0.1741847947605982 0.074317853318596971 0.14739854362523341 0.087374673155878768 -0.11204273131015179 -0.018784193393787469 0.14666583225038671 -0.12498396329446522 0.16879929250199641 0.19572995406739854 0.15867657151732262 0.18622803532670845 0.24269128442956853 0.24355308022404065 0.1683785405201825 -0.0097309999602181573 0.069971297241206806 -0.17835217962072414 -0.074110056979851166 0.10467700768919552 -0.059040020268410445 0.069825149280460255 -0.092307587288320059 -0.15126095234672884 -0.16502734923592713 -0.11275130129733082
leaf_weight=131 506 357 1071 415 58 622 571 690 303 638 605 613 319 85 396 110 325 138 451 350 373 482 871 255 350 57 80 1387 245 322
leaf_count=131 506 357 1071 415 58 622 571 690 303 638 605 613 319 85 396 110 325 138 451 350 373 482 871 255 350 57 80 1387 245 322
internal_value=0 0.114253 -0.115544 0.0707678 -0.081131 0.143298 0.158944 0.0471752 -0.138744 -0.0552884 0.114364 -0.121342 0.132449 0.170533 0.178322 0.0895955 0.191801 0.206153 0.185992 0.0246059 0.0382782 -0.147167 -0.080358 0.12744 -0.103957 0.146498 -0.166104 -0.159966 -0.192078 -0.0847767
internal_weight=0 6625 6551 2653 2638 3972 2578 1919 3913 1567 1394 2150 734 2221 1881 789 1310 914 589 1229 879 865 929 340 1285 167 562 1763 376 672
internal_count=13176 6625 6551 2653 2638 3972 2578 1919 3913 1567 1394 2150 734 2221 1881 789 1310 914 589 1229 879 865 929 340 1285 167 562 1763 376 672
is_linear=0
shrinkage=0.02


Tree=21
num_leaves=31
num_cat=0
split_feature=4 3 3 14 4 4 15 26 26 5 25 27 27 23 3 22 25 25 27 7 8 5 6 25 8 5 7 4 9 23
split_gain=417793 20494.8 13477.9 8119.8 7691.05 5588.77 4931.45 4795.43 3989.82 3096.27 2954.22 3244.83 2523.03 1929.56 1850.61 1771.37 1765.1 1764.04 1525.58 1513.94 1503.71 1457.97 1338.86 1192.29 1203.5 1144.77 1114.37 1110.2 1098.21 1199.05
threshold=1.0000000180025095e-35 2.8413331220286895 -2.1704258858517123 1.0000000180025095e-35 9.055641620128311 -4.6468558942768636 1.0000000180025095e-35 9.8564939150232469 -12.536304703121578 10.788748092180082 -2.3971368607553036 4.8096455976919374 -9.2925428139296962 1.7977669828412717 8.86335923225427 -1.0000000180025095e-35 -9.9016329469872648 2.7935430622112452 -1.4993480097394918 -3.1407409047534425 7.6207046013980166 -5.3507477943032091 0.4499392687642621 9.699144183029885 11.456011510592111 22.331216185419262 -10.913171267172322 -10.914547531813971 1.7805571795443165 12.304551728675065
decision_type=2 2 2 2 2 2 2 2 2 2 2 2 2 2 2 2 2 2 2 2 2 2 2 2 2 2 2 2 2 2
left_child=2 4 6 -3 9 21 8 10 27 17 -5 13 -10 -12 25 16 -14 22 -7 -20 -13 26 -2 24 -11 -9 -4 -1 -15 -30
right_child=1 3 5 7 -6 18 -8 14 12 23 11 20 15 28 -16 -17 -18 -19 19 -21 -22 -23 -24 -25 -26 -27 -28 -29 29 -31
leaf_value=-0.13453243058436928 0.017986362133587577 0.057783160732727094 -0.20722996976047037 0.11533847969499732 0.13911827621332237 -0.010188458019707303 -0.079862085189773002 0.074624479167486088 -0.10985560011561317 0.11495691481810898 0.15739540041829955 0.1009855142412156 -0.12611073979891319 0.1050951471586119 0.13241362281020688 -0.12690251989466214 -0.17127402718317394 -0.00058099435277931069 -0.14266276270956607 -0.04435662369132224 0.15393297691620783 -0.077629870088860853 0.072697978947474498 0.04867173358394454 0.26737641660372413 0.18309076128438825 -0.11979628674457876 -0.079115458311678558 0.21828891731462413 0.15396444457469227
leaf_weight=199 350 505 83 589 350 526 703 531 648 67 667 321 430 44 621 751 1775 598 74 409 647 228 366 60 30 42 196 529 698 139
leaf_count=199 350 505 83 589 350 526 703 531 648 67 667 321 430 44 621 751 1775 598 74 409 647 228 366 60 30 42 196 529 698 139
internal_value=0 0.11199 -0.113255 0.133648 0.0548547 -0.0609748 -0.128996 0.142559 -0.13697 0.0348055 0.155658 0.165097 -0.145596 0.183058 0.108496 -0.153431 -0.162467 0.0247757 -0.0337542 -0.059418 0.136375 -0.115147 0.0459535 0.11875 0.162097 0.0825749 -0.145807 -0.0942638 0.202487 0.207607
internal_weight=0 6625 6551 4804 1821 1516 5035 4299 4332 1471 3105 2516 3604 1548 1194 2956 2205 1314 1009 483 968 507 716 157 97 573 279 728 881 837
internal_count=13176 6625 6551 4804 1821 1516 5035 4299 4332 1471 3105 2516 3604 1548 1194 2956 2205 1314 1009 483 968 507 716 157 97 573 279 728 881 837
is_linear=0
shrinkage=0.02


Tree=22
num_leaves=31
num_cat=0
split_feature=3 5 6 3 5 14 26 3 5 23 22 5 7 25 4 6 3 7 22 7 8 8 27 14 5 18 27 27 15 3
split_gain=401366 19520.5 12185.6 6983.88 5761.51 5154.48 5803.23 3673.52 2759.24 2353.61 3586.51 2182.49 2049.06 2015.59 1991.92 1809.85 1822.11 1713.19 1627.27 1574.9 1554.44 1538.98 1451.7 1796.32 1384.79 1384.47 1592.03 1344.47 1691.72 1389.8
threshold=1.0000000180025095e-35 3.190965311822588 -3.6709921477106549 5.2638044225266265 -0.86836177482409915 0.19934377935219466 9.3662179026766967 -8.558175711101228 -6.8170176179356021 11.3865249559056 0.42404308913000244 -10.116586086287098 16.983184397549067 24.252165049997618 1.8699445935656145 20.487753484611133 5.4400470901421967 14.671734486521201 25.15629230279605 -13.829176930744177 10.604466208561629 15.976131312706531 -0.19066107602266646 -1.9185598936088122 -0.67177097854616197 0.41894667937410851 -9.4852287248240064 3.571551703238208 12.324482975871929 18.397499906464489
decision_type=2 2 2 2 2 2 2 2 2 2 2 2 2 2 2 2 2 2 2 2 2 2 2 2 2 2 2 2 2 2
left_child=2 3 7 14 11 -3 9 24 -9 10 -7 -4 -11 18 -2 16 -8 20 21 -13 -5 -12 -21 -24 25 26 -1 28 -23 -30
right_child=1 5 4 17 -6 6 15 8 -10 12 13 19 -14 -15 -16 -17 -18 -19 -20 22 -22 27 23 -25 -26 -27 -28 -29 29 -31
leaf_value=-0.11185993013745098 0.0068568594658026637 0.065869251475581994 -0.13452200157938191 0.072124921332928929 -0.022084957273117604 0.12825173753684035 0.064356406172737482 -0.13596674405358791 -0.092924382670838593 0.097306849765356904 0.17609748435644249 -0.14333279211677508 0.18429773681590128 0.055167890975669938 0.056927984034779062 0.15958333822340695 0.11583525768686449 0.17098855366595359 0.078755417382175272 -0.04324361822598851 0.14728600920122487 0.21961142512440432 -0.1632381464989312 -0.076277099977418245 -0.23673163199142833 -0.083685874076393565 -0.16236777628259227 0.18256055489334524 0.26593390886376544 0.45285754277155954
leaf_weight=305 703 426 392 406 626 757 468 1196 1187 437 1010 142 144 49 580 202 667 139 55 421 151 168 113 597 74 123 1375 196 41 26
leaf_count=305 703 426 392 406 626 757 468 1196 1187 437 1010 142 144 49 580 202 667 139 55 421 151 168 113 597 74 123 1375 196 41 26
internal_value=0 0.109766 -0.111006 0.0571647 -0.0738105 0.132172 0.138866 -0.13101 -0.114527 0.154837 0.163916 -0.0932581 0.118867 0.18139 0.0294923 0.104425 0.0946087 0.108176 0.185524 -0.0805516 0.0925007 0.189599 -0.0726692 -0.0901174 -0.151936 -0.148456 -0.153198 0.221239 0.253499 0.338471
internal_weight=0 6625 6551 1979 2291 4646 4220 4260 2383 2883 2302 1665 581 1545 1283 1337 1135 696 1496 1273 557 1441 1131 710 1877 1803 1680 431 235 67
internal_count=13176 6625 6551 1979 2291 4646 4220 4260 2383 2883 2302 1665 581 1545 1283 1337 1135 696 1496 1273 557 1441 1131 710 1877 1803 1680 431 235 67
is_linear=0
shrinkage=0.02


Tree=23
num_leaves=31
num_cat=0
split_feature=4 3 3 18 4 27 4 12 26 5 25 23 27 23 25 6 25 26 27 3 7 7 11 23 4 8 13 4 13 9
split_gain=385691 18916.2 12480.9 7519.34 7191.74 5713.95 5213.64 4618.96 3464.35 2868.9 2517.39 2500.55 1963.97 2911.08 2000.18 1845.77 1684.27 1627.71 1470.41 1445.72 1415.68 1389.36 1344.05 1337.04 1282.48 1259.16 1213.38 1150.48 1195.57 1132.36
threshold=1.0000000180025095e-35 2.8413331220286895 -2.1704258858517123 -0.077078319114880528 9.055641620128311 3.8202634999947711 -4.6468558942768636 -0.075409340081255785 -12.536304703121578 10.788748092180082 10.42046108897445 1.5022812892530244 -9.2925428139296962 0.099020964927104924 -9.9016329469872648 32.308349458753575 2.7935430622112452 8.9570351898978924 -1.4993480097394918 16.95503174943445 -1.2195972598639921 -10.913171267172322 1.0000000180025095e-35 -24.842913329371445 3.5164118654188008 0.46855878118716665 -0.25835029756166705 -20.625456525216915 -22.587715278479831 21.006755312962898
decision_type=2 2 2 2 2 2 2 2 2 2 2 2 2 2 2 2 2 2 2 2 2 2 2 2 2 2 2 2 2 2
left_child=2 4 7 22 9 11 21 8 -1 16 24 -5 -10 14 -14 29 25 -13 -8 -19 -20 -4 -3 -16 -7 -2 27 28 -25 -12
right_child=1 3 6 5 -6 10 18 -9 12 -11 15 17 13 -15 23 -17 -18 19 20 -21 -22 -23 -24 26 -26 -27 -28 -29 -30 -31
leaf_value=-0.089926063991761396 0.02310758070622938 0.036150503377716706 -0.17127732166916962 0.14028183949890666 0.13419312394495522 0.09021445763292528 -0.0090807252750154804 -0.065491881984291733 -0.10591596092819852 0.11412650762374993 0.079327975317911928 0.20024485904457695 -0.11911844906785214 -0.1168314815812596 -0.034938028217603764 0.27045407896456508 -0.0011081577861840435 0.10722352681157644 -0.11324698553434714 0.22165430272700357 -0.036414258966270166 -0.092696667234007366 0.090933044878555747 -0.33612445959678061 0.14688242802143756 0.077458311545396494 -0.270946365646694 -0.16003908770495806 -0.19203805172281102 0.13849463391577405
leaf_weight=718 436 260 117 857 350 192 526 488 643 157 783 786 432 1043 30 23 598 160 132 61 351 390 576 26 951 280 46 1407 202 155
leaf_count=718 436 260 117 857 350 192 526 488 643 157 783 786 432 1043 30 23 598 160 132 61 351 390 576 26 951 280 46 1407 202 155
internal_value=0 0.107602 -0.108817 0.128409 0.0527106 0.139894 -0.0585077 -0.123965 -0.13024 0.0333232 0.117304 0.165392 -0.1378 -0.144235 -0.157572 0.0934453 0.0236686 0.186762 -0.0322165 0.138808 -0.057412 -0.110831 0.0738954 -0.167281 0.137363 0.0443621 -0.169643 -0.166793 -0.208469 0.089105
internal_weight=0 6625 6551 4804 1821 3968 1516 5035 4547 1471 2104 1864 3829 3186 2143 961 1314 1007 1009 221 483 507 836 1711 1143 716 1681 1635 228 938
internal_count=13176 6625 6551 4804 1821 3968 1516 5035 4547 1471 2104 1864 3829 3186 2143 961 1314 1007 1009 221 483 507 836 1711 1143 716 1681 1635 228 938
is_linear=0
shrinkage=0.02


Tree=24
num_leaves=31
num_cat=0
split_feature=3 6 4 3 3 6 4 27 18 5 4 5 8 7 23 12 17 20 26 26 12 9 25 18 12 27 8 5 27 25
split_gain=370443 18259.4 11427.6 8340.38 5860.11 4074.25 4012.9 3937.99 4730.9 3733.99 2520.91 1973.01 1700.89 1691.24 1648.59 1831.42 2017.98 1645.68 1604.25 1455.31 1863.93 1445.42 1348.77 1314.8 1311.78 1307.17 1259.41 1252.91 1287.83 1240.42
threshold=1.0000000180025095e-35 4.717511840074903 -2.67602613943586 7.8918131125745994 -4.6468558942768636 -9.3375749036879245 -23.64778701348332 7.4241396271333091 -0.077078319114880528 5.1000922708196361 6.7547200968639043 -12.496670381025453 -12.232959228974879 8.7029748080067222 13.267763377793877 10.671600483416482 16.530425689150356 0.88182115647463821 -6.3915455693621395 0.87968871953851957 0.47751997379539596 11.091923482297664 -4.1260905005858772 5.5437441576346034 -0.75891771713707135 5.6327606897193201 -1.1143378280791227 1.0000000180025095e-35 -3.3403143362699486 12.754845170493756
decision_type=2 2 2 2 2 2 2 2 2 2 2 2 2 2 2 2 2 2 2 2 2 2 2 2 2 2 2 2 2 2
left_child=2 3 5 9 24 26 -7 8 -3 19 21 -8 22 -5 15 23 17 -17 -14 20 -2 -9 -13 -10 -4 -19 -1 28 -6 -25
right_child=1 7 4 13 27 6 11 10 14 -11 -12 12 18 -15 -16 16 -18 25 -20 -21 -22 -23 -24 29 -26 -27 -28 -29 -30 -31
leaf_value=-0.14155673400115334 0.026646834352786881 0.079655668085247947 -0.12750134368209304 0.095547401180692826 -0.019113179468955889 -0.20508959179092198 -0.13426652392320923 0.04765323290655836 0.13121310703206535 0.086630831286051063 0.12899038930855664 -0.093874998216270863 -0.050942382989408376 0.15679116899416223 0.11756605240505408 0.10974409769289195 0.11602188614158591 0.22922097630212726 -0.095420827786832113 -0.0070286127180327895 0.10421623747821336 0.11014916151376633 -0.16407935043978017 0.18718342127287091 -0.061529937203719014 0.13650416201565946 -0.21448556925356388 -0.00088891203116948968 -0.070515592170575264 0.099054143151144192
leaf_weight=1793 819 357 480 415 344 160 596 342 656 555 791 223 434 319 340 64 121 464 1284 399 146 261 215 431 161 70 100 311 450 75
leaf_count=1793 819 357 480 415 344 160 596 342 656 555 791 223 434 319 340 64 121 464 1284 399 146 261 215 431 161 70 100 311 450 75
internal_value=0 0.105453 -0.106644 0.0648261 -0.0628238 -0.122568 -0.107719 0.132589 0.147233 0.0428947 0.105508 -0.102058 -0.0931542 0.122164 0.158095 0.165421 0.190509 0.205581 -0.0841847 0.0250989 0.0383827 0.0747037 -0.128336 0.149898 -0.110931 0.217067 -0.145409 -0.0349171 -0.0482455 0.174121
internal_weight=0 6625 6551 2653 1746 4805 2912 3972 2578 1919 1394 2752 2156 734 2221 1881 719 598 1718 1364 965 603 438 1162 641 534 1893 1105 794 506
internal_count=13176 6625 6551 2653 1746 4805 2912 3972 2578 1919 1394 2752 2156 734 2221 1881 719 598 1718 1364 965 603 438 1162 641 534 1893 1105 794 506
is_linear=0
shrinkage=0.02


Tree=25
num_leaves=31
num_cat=0
split_feature=4 3 3 4 17 5 26 15 26 5 27 22 23 20 25 6 25 3 9 25 17 8 26 7 6 3 8 27 5 9
split_gain=356043 17552.4 11552.1 7859.46 5907.98 4843.86 4398.91 4380.79 3361.39 2510.37 2005.49 2279.75 1864.2 2091.65 1860.92 1606.23 1598.55 1567.19 1509.88 1495.17 1473 1388.87 1374.9 1326.6 1271.16 1260.71 1221.3 1187.34 1120.58 1047.37
threshold=1.0000000180025095e-35 3.9008000391212518 -2.1704258858517123 5.9490215012819112 1.0000000180025095e-35 -4.9705191004614724 9.8564939150232469 0.93601549141651386 -12.536304703121578 13.744359108131064 -9.2925428139296962 -1.0000000180025095e-35 21.294863971619488 0.69521338149972867 16.77049952270686 11.215821704975601 -9.9016329469872648 8.86335923225427 7.2674170310307495 3.7130331185662144 1.3193478441095037 0.46855878118716665 -3.7288435641711435 0.53817013237534062 -9.516253034674758 -1.114841296014961 10.006645734728215 -2.449543204934459 22.331216185419262 11.091923482297664
decision_type=2 2 2 2 2 2 2 2 2 2 2 2 2 2 2 2 2 2 2 2 2 2 2 2 2 2 2 2 2 2
left_child=2 3 7 9 26 22 12 8 -1 19 -10 16 13 -6 18 -5 -12 28 20 21 -15 -2 -4 -20 25 -24 -3 -7 -8 -21
right_child=1 4 5 15 6 27 17 -9 10 -11 11 -13 -14 14 -16 -17 -18 -19 23 29 -22 -23 24 -25 -26 -27 -28 -29 -30 -31
leaf_value=-0.086127122429757286 0.021029831232197833 0.064697046772055386 -0.073850804136142645 0.090504891527967465 0.1174164723807279 -0.0087889826398830778 0.062855664891342103 -0.064387870159529806 -0.1010264311965417 0.13601324308917603 -0.11615468318587127 -0.11341529585176739 0.086929118218992282 0.23194888366305311 0.10304848075793732 0.15247337773052069 -0.15913444190318107 0.12219595744192072 0.33345257624335906 -0.010305980038049915 0.13402355073238997 0.073256704478885645 -0.13394692298311453 0.1800717795147937 -0.1121151267754278 -0.30056717018213341 0.19978716254234313 -0.05173873627556249 0.1809415781753404 0.057908841245723042
leaf_weight=728 476 609 234 494 486 481 394 524 648 88 430 930 174 69 184 253 1775 621 23 496 561 356 39 1168 174 34 28 554 35 110
leaf_count=728 476 609 234 494 486 481 394 524 648 88 430 930 174 69 184 253 1775 621 23 496 561 356 39 1168 174 34 28 554 35 110
internal_value=0 0.103383 -0.104551 0.0583379 0.12691 -0.0561498 0.136559 -0.119124 -0.125483 0.0323178 -0.133056 -0.139677 0.15022 0.154641 0.163664 0.111493 -0.150753 0.101887 0.169789 0.025972 0.144749 0.0433769 -0.108591 0.183034 -0.141503 -0.211551 0.0706351 -0.0317785 0.0724897 0.00207625
internal_weight=0 6625 6551 2273 4352 1516 3715 5035 4511 1526 3783 3135 2665 2491 2005 747 2205 1050 1821 1438 630 832 481 1191 247 73 637 1035 429 606
internal_count=13176 6625 6551 2273 4352 1516 3715 5035 4511 1526 3783 3135 2665 2491 2005 747 2205 1050 1821 1438 630 832 481 1191 247 73 637 1035 429 606
is_linear=0
shrinkage=0.02


Tree=26
num_leaves=31
num_cat=0
split_feature=3 6 7 3 26 6 27 25 5 6 4 4 23 3 25 4 7 5 12 12 3 26 12 9 13 27 27 25 18 4
split_gain=341947 16955.4 10738.6 7698.63 4416.69 3780.37 3703.77 4445.68 3461.66 2696.21 3037.32 2371.21 1861.65 1651.58 2369.13 1616.4 1595.44 1499.58 1461.27 1445.2 1442.75 1379.03 1748.57 1312.28 1251.32 1309.28 1230.79 1179.76 1135.42 1121.3
threshold=1.0000000180025095e-35 4.717511840074903 -2.2577456716633661 7.8918131125745994 -12.536304703121578 -3.1407409047534425 7.4241396271333091 -2.1119334721807244 5.1000922708196361 -9.3375749036879245 -23.64778701348332 9.4442585650811068 13.267763377793877 -4.6468558942768636 -2.7079094187443071 -4.2633973035887545 11.251630313950619 15.612397587265152 12.249736371567421 4.8211343153157875 -19.802329011494908 0.87968871953851957 0.47751997379539596 1.8807800938896715 -19.802329011494908 -9.2925428139296962 2.1651341164543476 13.866970821262933 18.640594370842013 -6.0128217033399736
decision_type=2 2 2 2 2 2 2 2 2 2 2 2 2 2 2 2 2 2 2 2 2 2 2 2 2 2 2 2 2 2
left_child=2 3 4 8 15 20 7 18 21 24 -11 17 19 -12 -15 -1 -5 -8 -3 -9 -4 22 -2 -21 25 -6 -14 -19 -13 -22
right_child=1 6 5 16 9 -7 11 12 -10 10 13 28 26 14 -16 -17 -18 27 -20 23 29 -23 -24 -25 -26 -27 -28 -29 -30 -31
leaf_value=-0.097534124336695685 0.025525260451994609 0.085872578976750644 -0.20445045777824192 0.096447022645525182 -0.11039095760538029 -0.033782275927304289 0.064072930693620411 0.13443463466180269 0.083206731292813474 -0.20752651326886312 -0.11992859634473187 0.11511848232916518 0.17893273115859312 -0.048128164217584229 -0.11611052223620937 -0.039847314338138484 0.15904003779648146 0.16983807876706122 0.24859930473825206 0.093775238720317414 -0.11413279818652708 -0.0073131317567817844 0.1006557724430953 0.18127091046637198 -0.1394267073012064 -0.22926569907297922 0.091054542171312328 0.057726391731647023 0.17828920111599331 -0.060975779278256072
leaf_weight=497 819 548 45 490 52 991 622 465 555 127 1441 453 85 384 440 319 244 110 23 73 314 399 146 1129 1491 129 255 57 152 321
leaf_count=497 819 548 45 490 52 991 622 465 555 127 1441 453 85 384 440 319 244 110 23 73 314 399 146 1129 1491 129 255 57 152 321
internal_value=0 0.101316 -0.102461 0.0621664 -0.117445 -0.058701 0.127465 0.141667 0.0410957 -0.12597 -0.112351 0.101201 0.155676 -0.107014 -0.0844294 -0.0749825 0.117255 0.0783599 0.0924272 0.164375 -0.0950165 0.0239611 0.0368922 0.175957 -0.145455 -0.195114 0.113024 0.131572 0.130989 -0.0872613
internal_weight=0 6625 6551 2653 4880 1671 3972 2578 1919 4064 2392 1394 2007 2265 824 816 734 789 571 1667 680 1364 965 1202 1672 181 340 167 605 635
internal_count=13176 6625 6551 2653 4880 1671 3972 2578 1919 4064 2392 1394 2007 2265 824 816 734 789 571 1667 680 1364 965 1202 1672 181 340 167 605 635
is_linear=0
shrinkage=0.02


Tree=27
num_leaves=31
num_cat=0
split_feature=4 3 3 14 4 12 25 4 26 25 27 5 23 27 4 25 6 26 8 13 6 7 12 9 13 5 7 4 14 25
split_gain=328783 16257.5 10726.6 6621.03 6266.16 4651.06 4131.9 3865.67 3686.78 2524.39 2560.84 2484.26 2104.16 2329.92 2026.92 1536.02 1529.86 1476.81 1537.33 1381.09 1365.05 1345.22 1234.97 1204.8 1200.49 1149.88 1123.73 1217.18 1167.94 1109.72
threshold=1.0000000180025095e-35 2.8413331220286895 -1.4616546352908022 -0.075409340081255785 9.055641620128311 -0.075409340081255785 10.616092787065606 -6.0128217033399736 -6.3915455693621395 -2.3971368607553036 13.916409705181643 10.788748092180082 0.099020964927104924 -6.2229992249667765 -10.914547531813971 1.3374394911655962 9.7905555251807765 12.775800504440417 19.884383969060131 1.0000000180025095e-35 -11.925980775155443 -13.495030650788776 5.0735013238811071 1.7805571795443165 1.8316158037887302 -15.543223026429089 -22.587715278479831 -20.625456525216915 -13.829176930744177 9.699144183029885
decision_type=2 2 2 2 2 2 2 2 2 2 2 2 2 2 2 2 2 2 2 2 2 2 2 2 2 2 2 2 2 2
left_child=2 4 5 -3 11 8 9 25 14 -5 17 15 13 -10 -1 19 -8 18 22 -2 -16 -22 -11 -24 -20 -4 28 -28 -15 -13
right_child=1 3 7 6 -6 -7 16 -9 12 10 -12 29 -14 26 20 -17 -18 -19 24 -21 21 -23 23 -25 -26 -27 27 -29 -30 -31
leaf_value=-0.12823747475623903 0.02725708221824066 0.048488890974828593 -0.22302982308647848 0.10171529059579579 0.12451802186242171 -0.059307673724013278 0.071746748300062807 -0.024495119669585761 -0.10990405067737333 0.12566352142806927 0.096724092338619561 0.14737358924923177 -0.10877542522222992 -0.31258885606246833 -0.11804181061216074 -0.00084600030118089421 0.11752888717990453 0.11255641826559645 0.34331815340302207 0.096401530438782398 -0.11467705763235529 -0.053921028699391478 0.087118870449749142 0.17010285935172345 0.19042576629656455 -0.096536760674497221 -0.20104093621534533 -0.14365796477532697 -0.17739944827498744 0.037946242844065031
leaf_weight=488 527 484 33 606 350 593 591 876 608 461 348 97 1104 34 278 639 577 284 22 148 186 674 75 1046 310 223 169 1182 103 60
leaf_count=488 527 484 33 606 350 593 591 876 608 461 348 97 1104 34 278 639 577 284 22 148 186 674 75 1046 310 223 169 1182 103 60
internal_value=0 0.0993468 -0.100469 0.118636 0.0484594 -0.112166 0.126495 -0.0444747 -0.118661 0.138402 0.147134 0.0303626 -0.131122 -0.142892 -0.0941379 0.0213785 0.0943634 0.155115 0.16143 0.0424176 -0.0795152 -0.0670613 0.153219 0.164551 0.200557 -0.112843 -0.156371 -0.150836 -0.21095 0.105554
internal_weight=0 6625 6551 4804 1821 5419 4320 1132 4826 3152 2546 1471 3200 2096 1626 1314 1168 2198 1914 675 1138 860 1582 1121 332 256 1488 1351 137 157
internal_count=13176 6625 6551 4804 1821 5419 4320 1132 4826 3152 2546 1471 3200 2096 1626 1314 1168 2198 1914 675 1138 860 1582 1121 332 256 1488 1351 137 157
is_linear=0
shrinkage=0.02


Tree=28
num_leaves=31
num_cat=0
split_feature=4 3 3 4 14 12 26 4 26 5 8 23 27 4 3 5 27 22 15 13 26 25 6 27 6 25 24 6 7 13
split_gain=315763 15635.7 10301.8 7038.78 5333.31 4466.88 3802.94 3712.59 3540.78 2259.91 2096.75 2020.84 2237.65 1946.65 1545.94 1586.5 1523.97 2013.63 1611.78 1484.07 2272.26 1377.02 1369.06 1357.16 1346.7 1324.98 1465.13 1311 1291.95 1110.63
threshold=1.0000000180025095e-35 3.9008000391212518 -1.4616546352908022 5.9490215012819112 0.19934377935219466 -0.075409340081255785 9.8564939150232469 -6.0128217033399736 -6.3915455693621395 13.744359108131064 16.314689530509536 0.099020964927104924 -6.2229992249667765 -10.914547531813971 16.271876425606056 26.08069597442994 2.6896457517558909 1.5022812892530244 16.133799125244266 2.2951715472001788 2.598263345044459 3.4553121085573841 13.437005736548508 1.8937158021889846 10.318304689577785 16.77049952270686 -3.5554882259028955 -11.925980775155443 -13.495030650788776 -0.25835029756166705
decision_type=2 2 2 2 2 2 2 2 2 2 2 2 2 2 2 2 2 2 2 2 2 2 2 2 2 2 2 2 2 2
left_child=2 3 5 9 -3 8 10 -4 13 21 25 12 -10 -1 15 -8 17 -12 -19 -5 -21 24 -22 -16 -2 26 -6 -15 -29 -14
right_child=1 4 7 19 6 -7 14 -9 11 -11 16 -13 29 27 23 -17 -18 18 -20 20 22 -23 -24 -25 -26 -27 -28 28 -30 -31
leaf_value=-0.12567272532761831 0.034942187790997531 0.057621072046685415 -0.11058565696132064 0.05547926787286997 0.093929385506969082 -0.058121520335458976 0.074455446148609467 -0.024005217288210656 -0.10770596996629855 0.12860767783766444 0.12856866075787493 -0.10659991679139069 -0.15029862979613762 -0.11568097481987222 0.26946134094681062 0.19936798791206162 0.14477761309793816 0.20916462137180122 0.34371240727444913 0.18004604924657494 0.069450399592957068 0.0016558642423573073 0.1520158918437205 0.12170011268664353 0.14632625804161248 0.075832715059819047 0.1417675090821611 -0.11238351703796695 -0.052842608424271853 -0.25462815188226245
leaf_weight=488 774 493 256 182 303 593 751 876 608 88 93 1104 1446 278 28 43 403 147 47 179 272 618 114 222 46 168 1654 186 674 42
leaf_count=488 774 493 256 182 303 593 751 876 608 88 93 1104 1446 278 28 43 403 147 47 179 272 618 114 222 46 168 1654 186 674 42
internal_value=0 0.0973599 -0.0984596 0.0548451 0.119565 -0.109923 0.127478 -0.0435852 -0.116288 0.0302209 0.139569 -0.128499 -0.140034 -0.0922551 0.0948766 0.0812202 0.169861 0.205082 0.241761 0.105148 0.121148 0.0242 0.093835 0.138249 0.0411906 0.129734 0.134361 -0.0779249 -0.0657201 -0.153243
internal_weight=0 6625 6551 2273 4352 5419 3859 1132 4826 1526 2815 3200 2096 1626 1044 794 690 287 194 747 565 1438 386 250 820 2125 1957 1138 860 1488
internal_count=13176 6625 6551 2273 4352 5419 3859 1132 4826 1526 2815 3200 2096 1626 1044 794 690 287 194 747 565 1438 386 250 820 2125 1957 1138 860 1488
is_linear=0
shrinkage=0.02


Tree=29
num_leaves=31
num_cat=0
split_feature=5 4 3 3 18 25 4 6 4 25 27 7 8 12 26 15 12 6 5 5 26 24 9 3 9 5 4 3 16 23
split_gain=303547 15813.6 9991.19 5749.98 5317.42 6273.81 3936.07 3636.75 3610.53 2380.73 2262.51 2212.22 1886.92 1843.54 1755.59 2316.98 1598.28 1583.06 1543.63 1349.61 1238.05 1224.29 1191.78 1152.14 1110.12 1077.95 1065.34 1008.2 1005.83 1257.9
threshold=1.0000000180025095e-35 2.8473635943160982 -1.4616546352908022 7.0971630490681834 -0.077078319114880528 10.42046108897445 -16.235112285848377 -9.516253034674758 -5.3507477943032091 0.80283202279743116 12.571579948657407 -13.213384160283557 19.884383969060131 5.9193219544907505 -6.1616907199479893 0.93601549141651386 0.037643822671061054 9.6048168641781917 14.607988568766718 13.439089708649025 -1.0348710191805051 16.005883764380467 11.274557993329081 -7.7244610489060799 0.54066663251980251 -6.8170176179356021 21.6205158620491 24.66513798426228 10.177314997024004 5.8069425616125772
decision_type=2 2 2 2 2 2 2 2 2 2 2 2 2 2 2 2 2 2 2 2 2 2 2 2 2 2 2 2 2 2
left_child=2 3 6 9 -3 10 -1 23 25 16 12 -9 13 -6 -13 -16 -2 22 -11 -12 -10 24 -7 -8 -15 -4 -24 -5 29 -19
right_child=1 4 8 27 5 17 7 11 20 18 19 14 -14 21 15 -17 -18 28 -20 -21 -22 -23 26 -25 -26 -27 -28 -29 -30 -31
leaf_value=-0.14773007947411521 0.031871641010705234 0.065367597633685243 -0.15264967843183669 0.097666730116494002 0.11456615773032157 0.039703271535495764 -0.13970182494967526 -0.12374225945427907 -0.0051352901028007729 -0.0062960081130382277 0.073831564376667394 -0.052228357121838549 0.18889788564887011 0.026052893189092478 -0.10572115494018734 -0.056226049601924122 0.1004224838271728 0.21819329002091001 0.11091404985015592 0.15315061823026208 -0.054645788996753632 0.095968264981817736 0.081323413672083511 -0.10514571136073489 0.16349423118297116 -0.072254133750298988 0.20785452379782995 0.19751667732662626 0.088115791755237732 0.11373839712013593
leaf_weight=839 421 745 116 400 736 358 914 552 557 706 295 684 371 24 1193 554 201 62 48 121 317 130 236 668 1144 157 30 45 372 180
leaf_count=839 421 745 116 400 736 358 914 552 557 706 295 684 371 24 1193 554 201 62 48 121 317 130 236 668 1144 157 30 45 372 180
internal_value=0 0.095458 -0.0965363 0.04527 0.114482 0.123497 -0.107915 -0.100598 -0.0429244 0.0250594 0.139969 -0.0875979 0.147418 0.139852 -0.0793907 -0.0900255 0.0540239 0.0859626 0.00116564 0.0969027 -0.0230928 0.15419 0.0635284 -0.12511 0.16067 -0.106415 0.0955938 0.107764 0.108762 0.1405
internal_weight=0 6625 6551 1821 4804 4059 5404 4565 1147 1376 2821 2983 2405 2034 2431 1747 622 1238 754 416 874 1298 624 1582 1168 273 266 445 614 242
internal_count=13176 6625 6551 1821 4804 4059 5404 4565 1147 1376 2821 2983 2405 2034 2431 1747 622 1238 754 416 874 1298 624 1582 1168 273 266 445 614 242
is_linear=0
shrinkage=0.02


Tree=30
num_leaves=31
num_cat=0
split_feature=3 5 6 3 5 6 3 3 4 5 20 26 25 26 22 4 7 12 27 13 8 24 27 23 26 8 16 18 26 5
split_gain=291556 14786.8 9400.76 5079.52 4490.53 4088.01 3575.54 2735.01 2441.68 1927.21 1818.05 3083.62 1667.59 2024.08 1612.38 1446.53 1442.93 1428.54 1448.88 1698.02 1291.57 1270.25 1247.79 1172.4 1166.53 1206.91 1159.7 1122.9 1272.7 1081.74
threshold=1.0000000180025095e-35 3.190965311822588 -4.3891811650427561 5.2638044225266265 -4.9705191004614724 9.9771212900921089 5.8132467887069872 -8.558175711101228 -1.2216458669210506 -8.9444764968326123 0.80283202279743116 5.637732589287503 -2.1119334721807244 9.3662179026766967 25.15629230279605 1.8699445935656145 14.671734486521201 26.185334376635506 2.598263345044459 2.2951715472001788 10.604466208561629 -7.2547800960202151 1.8937158021889846 21.294863971619488 -7.2417143679021487 -2.4648971974922751 -1.2296340633860352 19.577607938566107 -2.7719708256842726 -0.67177097854616197
decision_type=2 2 2 2 2 2 2 2 2 2 2 2 2 2 2 2 2 2 2 2 2 2 2 2 2 2 2 2 2 2
left_child=2 3 7 15 -4 6 17 29 24 21 -8 -12 -7 14 23 -2 20 18 19 -3 -5 -9 -15 -14 -6 -26 -23 28 -22 -1
right_child=1 5 4 16 8 12 10 9 -10 -11 11 -13 13 22 -16 -17 -18 -19 -20 -21 27 26 -24 -25 25 -27 -28 -29 -30 -31
leaf_value=-0.12965735403222126 0.0048827522172384596 0.056615686244150532 -0.096994235800952247 0.058316929040687721 -0.019451498641308559 0.071386943615925236 0.081572811203012616 -0.089212314034059104 -0.01373275342834223 -0.083604987739110612 0.16311763239775648 0.095603903850896149 0.16464201859201852 0.21793955690413713 0.057710969795783357 0.047552030541002752 0.14892149604374555 0.1743269269624535 0.038861872048559169 0.12804018873713158 0.25166681671142577 -0.15172029421711147 0.10246011865888546 0.086729720615478886 -0.10567407729510123 -0.05407703080374799 -0.069495612341212112 0.26252668778101607 0.078224854022264478 -0.21218612531482273
leaf_weight=1697 703 322 1071 406 184 156 431 303 638 1285 554 529 1116 40 66 580 139 49 491 227 20 482 582 83 312 433 80 21 110 66
leaf_count=1697 703 322 1071 406 184 156 431 303 638 1285 554 529 1116 40 66 580 139 49 491 227 20 482 582 83 312 433 80 21 110 66
internal_value=0 0.0935536 -0.0946104 0.0477719 -0.065431 0.113055 0.0964341 -0.114282 -0.0438585 -0.0991407 0.116314 0.13014 0.134231 0.139426 0.153951 0.0241721 0.0912757 0.0687958 0.0638236 0.0861482 0.0768901 -0.12222 0.109886 0.159249 -0.0645476 -0.0756855 -0.140016 0.126829 0.104908 -0.132747
internal_weight=0 6625 6551 1979 2638 4646 2603 3913 1567 2150 1514 1083 2043 1887 1265 1283 696 1089 1040 549 557 865 622 1199 929 745 562 151 130 1763
internal_count=13176 6625 6551 1979 2638 4646 2603 3913 1567 2150 1514 1083 2043 1887 1265 1283 696 1089 1040 549 557 865 622 1199 929 745 562 151 130 1763
is_linear=0
shrinkage=0.02


Tree=31
num_leaves=31
num_cat=0
split_feature=5 4 3 3 18 25 4 6 6 27 7 23 3 4 26 15 27 23 26 5 5 4 27 17 12 8 7 14 7 7
split_gain=280256 14637.6 9232.16 5311.24 4941.79 5932.15 3730.33 3396.63 3365.62 2273.84 2092.11 1899.07 1867.91 1774.44 1673.41 2162.82 1663.63 1554.03 1547.38 1546.33 1537.88 1510.24 1483.29 1395.6 1346.33 1515.83 1756.75 1218.84 1159.65 1072.19
threshold=1.0000000180025095e-35 2.8473635943160982 -1.4616546352908022 2.1459572092922161 -0.077078319114880528 9.5378783892862469 -16.235112285848377 -9.516253034674758 -9.3375749036879245 12.571579948657407 -13.213384160283557 0.88182115647463821 8.6803289066948981 9.4442585650811068 -6.1616907199479893 0.93601549141651386 1.8937158021889846 17.854106616767535 0.42404308913000244 -15.178579526119199 13.439089708649025 3.4018008282304262 0.98912777793106188 11.235352916945919 10.47166737160782 24.748534853825742 11.079802757318555 10.125454081436212 9.3123563040863626 1.6907265692778426
decision_type=2 2 2 2 2 2 2 2 2 2 2 2 2 2 2 2 2 2 2 2 2 2 2 2 2 2 2 2 2 2
left_child=2 3 6 18 -3 9 -1 -8 19 11 -9 21 -5 -7 -12 -16 27 23 -2 -4 -11 -6 -10 24 25 -13 -27 -15 -19 -26
right_child=1 4 8 12 5 13 7 10 22 20 14 17 -14 16 15 -17 -18 28 -20 -21 -22 -23 -24 -25 29 26 -28 -29 -30 -31
leaf_value=-0.14245726256097388 0.042608839940061309 0.062677729385036157 -0.2526679152647654 0.053933973780884922 0.28017519712448119 0.061221723202276507 -0.12026294881274263 -0.11915933923289666 -0.0084834371656890856 0.062415619355004302 -0.049509642076411703 0.14141304128673521 0.11119785694400305 0.29896176715349332 -0.10157605514557189 -0.053755785540815462 0.096887447321168468 0.02306542246991938 -0.013644751247350326 -0.094922705463936621 0.15143167429869731 0.11193773606123886 -0.060219400490236559 0.13622482687805476 0.34202304471106759 0.39730007818766999 0.14681845441460609 0.12775294591218997 0.13504192666801731 0.19560269231316568
leaf_weight=839 307 745 30 612 22 655 1582 552 630 253 684 409 363 29 1193 554 662 55 539 145 112 715 342 507 21 21 24 39 113 422
leaf_count=839 307 745 30 612 22 655 1582 552 630 253 684 409 363 29 1193 554 662 55 539 145 112 715 342 507 21 21 24 39 113 422
internal_value=0 0.0917226 -0.0927587 0.043437 0.110026 0.118716 -0.103697 -0.0965734 -0.0412236 0.136117 -0.0840099 0.14345 0.0752538 0.0851206 -0.0760286 -0.0864115 0.106564 0.155869 0.00676879 -0.121965 0.0897301 0.11696 -0.0266868 0.162748 0.177739 0.153535 0.26371 0.200768 0.098383 0.202544
internal_weight=0 6625 6551 1821 4804 4059 5404 4565 1147 2674 2983 2309 975 1385 2431 1747 730 1572 846 175 365 737 972 1404 897 454 45 68 168 443
internal_count=13176 6625 6551 1821 4804 4059 5404 4565 1147 2674 2983 2309 975 1385 2431 1747 730 1572 846 175 365 737 972 1404 897 454 45 68 168 443
is_linear=0
shrinkage=0.02


Tree=32
num_leaves=31
num_cat=0
split_feature=4 6 3 3 5 17 27 27 18 5 25 4 26 27 25 12 17 23 7 7 5 14 25 16 9 6 19 8 7 9
split_gain=269210 13575.7 8774.3 6310.97 3919.82 3549.92 3216.22 3133.38 3066.26 2728.19 2500.9 1847.33 1857.47 1768.31 1665.45 1540.31 1965.21 1399.28 1369.63 1293.56 1350.99 1219.97 1218.44 1214.53 1204.16 1198.13 1193.02 1127.07 1114.15 1093.55
threshold=1.0000000180025095e-35 4.717511840074903 -2.1704258858517123 7.8918131125745994 -5.3507477943032091 -1.0000000180025095e-35 12.571579948657407 -9.2925428139296962 -0.077078319114880528 3.190965311822588 9.3838719913022093 -20.625456525216915 -12.536304703121578 1.709028438556216 3.4553121085573841 10.47166737160782 13.098786194996441 -6.9989484475936274 11.251630313950619 18.990688781956937 22.893569847311742 10.125454081436212 -2.9892218482575976 -1.0359922278061211 8.9123217271387425 22.331216185419262 -7.6032226931010429 6.1322258406239412 -22.587715278479831 12.655754733022617
decision_type=2 2 2 2 2 2 2 2 2 2 2 2 2 2 2 2 2 2 2 2 2 2 2 2 2 2 2 2 2 2
left_child=2 3 5 9 22 7 8 -1 -3 14 15 17 -13 21 27 -10 24 26 -5 20 -8 -12 -4 -24 -17 29 -9 -2 -14 -15
right_child=1 6 4 18 -6 -7 19 11 10 -11 13 12 28 25 -16 16 -18 -19 -20 -21 -22 -23 23 -25 -26 -27 -28 -29 -30 -31
leaf_value=-0.080303552752184759 0.026719905423683871 0.066936992488655395 -0.065831637246336075 0.085226670836631227 -0.027570382102881381 -0.068423840318640947 0.057992116589714024 -0.15533011823271711 0.1264403155226248 0.062957852774886164 0.27286339054505032 -0.073202532803718481 -0.16790318200697918 0.052323840102695071 -0.020827155888768625 0.14974677773747053 0.11405766258146537 -0.13725198766263594 0.14330046977084437 0.13221110625586038 0.17149624159601001 0.1231041909347881 -0.17093919945837452 -0.076418166085285066 0.20733077383663026 0.14497500492274762 -0.28596311117040701 0.14997357959949204 -0.11816402065495711 0.1071415289460253
leaf_weight=974 695 357 235 486 1058 934 618 54 1194 821 36 355 196 326 356 262 243 238 244 142 45 55 129 94 326 125 58 31 2226 263
leaf_count=974 695 357 235 486 1058 934 618 54 1194 821 36 355 196 326 356 262 243 238 244 142 45 55 129 94 326 125 58 31 2226 263
internal_value=0 0.0898968 -0.0909123 0.0546445 -0.0487298 -0.103613 0.113148 -0.111627 0.12217 0.0354669 0.129138 -0.121384 -0.115927 0.0993186 0.0146073 0.140992 0.161901 -0.164685 0.104638 0.0774291 0.065696 0.18235 -0.0976089 -0.131096 0.181673 0.0887362 -0.222979 0.0319828 -0.122189 0.076801
internal_weight=0 6625 6551 2633 1516 5035 3992 4101 3187 1903 2830 3127 2777 805 1082 2025 831 350 730 805 663 91 458 223 588 714 112 726 2422 589
internal_count=13176 6625 6551 2633 1516 5035 3992 4101 3187 1903 2830 3127 2777 805 1082 2025 831 350 730 805 663 91 458 223 588 714 112 726 2422 589
is_linear=0
shrinkage=0.02


Tree=33
num_leaves=31
num_cat=0
split_feature=5 4 4 3 18 25 3 6 4 27 8 27 12 3 5 26 26 6 8 5 8 8 9 4 4 23 20 13 16 23
split_gain=258772 13596.7 8531.78 4920.14 4581.73 5544.64 4497.77 3063.86 3308.64 1974.22 1960.33 1769.1 1779.93 1730.17 1604.18 1493.39 1469.08 1431.58 1427.12 1382.86 1318.14 1189.46 1102.23 997.102 984.929 994.279 1227.38 1132.98 967.309 1182.22
threshold=1.0000000180025095e-35 2.8473635943160982 -2.67602613943586 2.1459572092922161 -0.077078319114880528 10.42046108897445 -4.6468558942768636 -9.3375749036879245 -23.64778701348332 -0.26123228271507976 19.884383969060131 6.9824404552762998 5.9193219544907505 8.6803289066948981 -12.496670381025453 -9.5388661289351813 0.42404308913000244 9.6048168641781917 -12.232959228974879 12.598222164483458 -4.1520495805399547 -1.1143378280791227 11.274557993329081 21.6205158620491 22.331216185419262 0.88182115647463821 15.901193756147521 5.6641264578155388 10.177314997024004 5.8069425616125772
decision_type=2 2 2 2 2 2 2 2 2 2 2 2 2 2 2 2 2 2 2 2 2 2 2 2 2 2 2 2 2 2
left_child=2 3 7 16 -3 10 -4 21 -9 -8 11 12 -6 -5 -10 -16 -2 22 -17 -13 -11 -1 -7 -24 25 -14 27 -27 29 -19
right_child=1 4 6 13 5 17 9 8 14 20 -12 19 24 -15 15 18 -18 28 -20 -21 -22 -23 23 -25 -26 26 -28 -29 -30 -31
leaf_value=-0.11900462245282592 0.041228707824994472 0.060186684298085283 -0.094721077538493695 0.051703927961571507 0.10782371194842788 0.034613003978432894 -0.0053385764002539205 -0.17843529704771935 -0.11388682416919149 -0.14987684700105872 0.1680011452925724 0.074234489073378471 0.12496283175174411 0.10681603991808807 -0.044723561754032685 -0.12394715983444339 -0.013583054770896962 0.20698478164451739 -0.076674910428324528 0.13578772823129773 -0.046635235709551158 -0.18987801760639997 0.074556722431680419 0.19696872248252234 0.10583038118949464 0.23171210753917695 0.10677120600087742 0.16575525290705265 0.080293524687113343 0.1057208132027752
leaf_weight=1794 307 745 622 612 675 358 658 160 596 56 448 442 254 363 457 314 539 62 1370 218 424 100 236 30 172 145 97 370 372 180
leaf_count=1794 307 745 622 612 675 358 658 160 596 56 448 442 254 363 457 314 539 62 1370 218 424 100 236 30 172 145 97 370 372 180
internal_value=0 0.0881369 -0.0891325 0.0415997 0.105777 0.114145 -0.0514749 -0.102966 -0.0900341 -0.0278376 0.12963 0.122386 0.133105 0.0722226 -0.0848664 -0.0767878 0.00630727 0.0788594 -0.0854893 0.0945657 -0.0586801 -0.122747 0.0575255 0.0883626 0.149545 0.158228 0.172034 0.184326 0.100541 0.131664
internal_weight=0 6625 6551 1821 4804 4059 1760 4791 2897 1138 2821 2373 1713 975 2737 2141 846 1238 1684 660 480 1894 624 266 1038 866 612 515 614 242
internal_count=13176 6625 6551 1821 4804 4059 1760 4791 2897 1138 2821 2373 1713 975 2737 2141 846 1238 1684 660 480 1894 624 266 1038 866 612 515 614 242
is_linear=0
shrinkage=0.02


Tree=34
num_leaves=31
num_cat=0
split_feature=3 5 7 6 26 14 26 6 6 6 4 25 27 3 26 8 5 25 3 20 23 23 27 4 3 4 13 27 9 4
split_gain=248571 12816.3 8268.65 4355.92 3622.67 3618.22 4330.44 2771.41 2687.43 2126.93 2553.32 2105.66 1961.63 1734.66 1432.11 1942.18 1425.19 1375.63 2077.86 1799.66 1321.61 2479.24 1499.26 1319.64 1295.66 1209.96 1180.07 1204.21 1159.87 1059.63
threshold=1.0000000180025095e-35 3.190965311822588 -2.2577456716633661 4.8362035145107312 -12.536304703121578 0.19934377935219466 5.637732589287503 -3.1407409047534425 7.737548783095372 -9.3375749036879245 -23.64778701348332 -4.3616778638108249 1.8937158021889846 18.397499906464489 0.87968871953851957 2.5672854778249419 22.331216185419262 -2.8902467138614987 -4.6468558942768636 -0.50343689428752836 11.3865249559056 2.6086507532538623 3.9340248305968255 -10.914547531813971 -19.802329011494908 16.660025489841722 -19.802329011494908 -9.2925428139296962 1.4963312134417233 11.050873524957076
decision_type=2 2 2 2 2 2 2 2 2 2 2 2 2 2 2 2 2 2 2 2 2 2 2 2 2 2 2 2 2 2
left_child=2 3 4 14 23 -3 11 24 29 26 -11 -7 13 -10 15 -2 -14 18 -12 -19 21 -13 28 -1 -4 -5 27 -6 -23 -8
right_child=1 5 7 25 9 6 8 -9 12 10 17 20 16 -15 -16 -17 -18 19 -20 -21 -22 22 -24 -25 -26 -27 -28 -29 -30 -31
leaf_value=-0.10668635895885528 0.022044746404703278 0.04898672154623613 -0.18375851549042596 0.073214793849204277 -0.092505763774880997 0.077593346707918759 0.041960903175865871 -0.027623533951182024 0.13635469622271401 -0.18339498543950516 -0.096477051994892357 0.12155198035957641 0.089553489270596004 0.31606295983637533 -0.012578883829884598 0.098251231690139884 0.15830299959970373 -0.13349281572235666 -0.036542330317258516 -0.08533663311742809 0.10022503929314265 0.052084352482448928 0.13548106201723017 -0.047557831440852689 -0.072704040786882085 0.14647037690209452 -0.11967951605628643 -0.20651060459803242 0.20105803389581187 0.091372441306682026
leaf_weight=200 791 426 45 574 52 287 507 991 70 127 599 959 871 31 346 161 140 521 377 768 353 22 296 616 635 107 1491 129 420 264
