tree
version=v3
num_class=1
num_tree_per_iteration=1
label_index=0
max_feature_idx=27
feature_names=group subgroup item sales_lag1 sales_lag2 sales_lag3 sales_lag4 sales_lag5 sales_lag6 sales_lag7 hour sales_lag8 sales_lag9 sales_lag10 sales_lag11 sales_lag12 sales_lag13 sales_lag14 sales_lag15 sales_lag16 sales_lag17 sales_lag18 sales_lag19 sales_lag20 sales_lag21 sales_lag22 sales_lag23 sales_lag24
feature_infos=-1:0:1:2 -1:0:1:2:3:4:5 -1:0:1:2:3:4:5:6:7:8:9:10:11 [-53.549210556795124:60.904035765348816] [-53.549210556795124:60.904035765348816] [-53.549210556795124:60.904035765348816] [-53.549210556795124:60.904035765348816] [-53.549210556795124:60.904035765348816] [-53.549210556795124:60.904035765348816] [-53.549210556795124:60.904035765348816] none [-53.549210556795124:60.904035765348816] [-53.549210556795124:60.904035765348816] [-53.549210556795124:60.904035765348816] [-53.549210556795124:60.904035765348816] [-53.549210556795124:60.904035765348816] [-53.549210556795124:60.904035765348816] [-53.549210556795124:60.904035765348816] [-53.549210556795124:60.904035765348816] [-53.549210556795124:60.904035765348816] [-53.549210556795124:60.904035765348816] [-53.549210556795124:60.904035765348816] [-53.549210556795124:60.904035765348816] [-53.549210556795124:60.904035765348816] [-53.549210556795124:60.904035765348816] [-53.549210556795124:60.904035765348816] [-53.549210556795124:60.904035765348816] [-53.549210556795124:67.580845630864744]
tree_sizes=2807 2803 2812 2805 2801 2812 2807 2814 2816 2821 2811 2818 2809 2819 2809 2823 2817 2816 2831 2834 2817 2821 2815 2834 2814 2812 2825 2820 2819 2818 2823 2818 2825 2834 2834 2831 2833 2827 2829 2830 2838 2831 2838 2829 2836 2825 2838 2847 2843 2838 2832 2843 2814 2827 2832 2829 2817 2849 2850 2827 2812 2839 2829 2828 2852 2822 2847 2810 2846 2838 2830 2844 2833 2826 2860 2843 2808 2827 2823 2837 2833 2828 2820 2817 2836 2834 2838 2844 2821 2834 2856 2843 2829 2826 2820 2836 2805 2829 2812 2827 2837 2825 2839 2821 2807 2819 2827 2831 2816 2861 2836 2833 2832 2837 2858 2809 2856 2842 2834 2860 2830 2837 2808 2862 2845 2837 2828 2853 2842 2814 2805 2840 2819 2823 2841 2836 2817 2826 2837 2802 2834 2826 2838 2806 2833 2845 2824 2815 2845 2827 2837 2814 2833 2840 2833 2823 2828 2838 2838 2839 2836 2835 2865 2820 2853 2827 2850 2839 2811 2868 2845 2837 2809 2833 2809 2813 2852 2862 2831 2836 2798 2852 2865 2843 2830 2826 2839 2838 2835 2791

Tree=0
num_leaves=31
num_cat=0
split_feature=3 3 3 5 4 18 15 27 26 4 6 5 20 26 27 22 4 4 5 7 27 16 5 4 27 26 9 25 22 26
split_gain=970656 43239.1 26669.1 23066.4 13838.8 10979.8 10625.6 8160.07 7392.97 5794.75 5383.71 3376.18 3279.91 2748.14 2721.33 3735.47 2687.67 2489.25 2436.36 1837.95 1742.91 2366.45 1709.3 1546.05 1494.57 1479.25 1435.18 1425.75 1507.3 1377.86
threshold=1.0000000180025095e-35 5.2638044225266265 -2.8527445720915483 4.7199613118681691 -4.5113508145657946 -0.12466000319823736 1.0000000180025095e-35 7.2588292861510633 -8.9722526827684845 1.5791293501888259 9.9771212900921089 -0.67177097854616197 0.69521338149972867 10.035820473306448 -8.8793993204578303 -1.0000000180025095e-35 9.9858108891123045 10.590223110311575 -6.8170176179356021 0.63244537792388 2.7883489960443124 -0.58983671958904282 12.348631784896041 -12.233509809379401 -6.8883297876032854 9.690210982387546 -0.12455443144228392 -0.93930499950711299 14.095942339892567 6.0722750144883264
decision_type=2 2 2 2 2 2 2 2 2 2 2 2 2 2 2 2 2 2 2 2 2 2 2 2 2 2 2 2 2 2
left_child=2 3 6 9 18 -3 8 12 23 -2 17 24 -7 19 -10 -16 -11 20 -4 -14 21 -5 29 -1 -6 27 -8 -12 -29 -9
right_child=1 5 4 10 11 7 26 22 14 16 25 -13 13 -15 15 -17 -18 -19 -20 -21 -22 -23 -24 -25 -26 -27 -28 28 -30 -31
leaf_value=-0.19466822084657934 0.029730379297137181 0.13870514621474955 -0.2050730557544384 0.09886683154208907 -0.044725254309840159 0.20913782424608712 -0.13680465010351114 0.22086932016084762 -0.17056991272811423 0.090089423741547603 0.19137810215144091 -0.010886579958095794 0.47142761775425507 0.22278548821396588 -0.23703127965147211 -0.18287303438970817 0.18270639564476759 0.21091837568018171 -0.13048718626789274 0.28292457605497401 0.096349066580561082 0.21766703390147327 0.22629434364851908 -0.13829862882103652 -0.10726624507139126 0.19454491360443674 -0.076849076165075317 0.31987369561059908 0.18386378006637094 0.15908212159325924
leaf_weight=259 723 505 328 116 258 387 379 202 485 693 71 467 21 345 1864 701 153 225 376 1401 275 159 458 783 375 169 276 176 40 506
leaf_count=259 723 505 328 116 258 387 379 202 485 693 71 467 21 345 1864 701 153 225 376 1401 275 159 458 783 375 169 276 176 40 506
internal_value=0 0.181872 -0.161454 0.122153 -0.0959951 0.225588 -0.186331 0.238804 -0.198302 0.0713073 0.186961 -0.05168 0.261873 0.273423 -0.214015 -0.22223 0.106839 0.154878 -0.165237 0.285708 0.131952 0.167555 0.196187 -0.15231 -0.0817756 0.241487 -0.111541 0.26913 0.294687 0.176711
internal_weight=0 6625 6551 2800 1804 3825 4747 3320 4092 1569 1231 1100 2154 1767 3050 2565 846 775 704 1422 550 275 1166 1042 633 456 655 287 216 708
internal_count=13176 6625 6551 2800 1804 3825 4747 3320 4092 1569 1231 1100 2154 1767 3050 2565 846 775 704 1422 550 275 1166 1042 633 456 655 287 216 708
is_linear=0
shrinkage=0.02


Tree=1
num_leaves=31
num_cat=0
split_feature=3 3 3 5 4 18 17 27 26 4 6 5 20 27 26 4 22 4 5 9 7 27 16 5 4 25 8 26 25 22
split_gain=932487 41641.1 25686.1 22223.3 13341.7 10555 10244.2 7888.22 7554.35 5557.94 5222.7 3361.43 3172.44 2990.71 2656 2594.31 2577.87 2405.5 2375.49 1967.57 1790.98 1700.47 2288.25 1658.27 1486.36 1473.21 2080.44 1435.19 1385.25 1471.29
threshold=1.0000000180025095e-35 5.2638044225266265 -2.8527445720915483 4.7199613118681691 -4.6468558942768636 -0.12466000319823736 -1.0000000180025095e-35 7.2588292861510633 -8.9722526827684845 1.5791293501888259 9.9771212900921089 -1.5423392125406403 0.69521338149972867 -8.1421440642180922 10.035820473306448 9.9858108891123045 -1.0000000180025095e-35 10.590223110311575 -6.8170176179356021 -0.12455443144228392 0.63244537792388 2.7883489960443124 -0.58983671958904282 12.348631784896041 -12.233509809379401 -2.9892218482575976 -4.9698457253291801 9.690210982387546 -0.93930499950711299 14.095942339892567
decision_type=2 2 2 2 2 2 2 2 2 2 2 2 2 2 2 2 2 2 2 2 2 2 2 2 2 2 2 2 2 2
left_child=2 3 6 9 18 -3 8 12 24 -2 17 25 -7 -10 20 -11 -15 21 -4 -8 -14 22 -5 -9 -1 -6 -27 28 -12 -30
right_child=1 5 4 10 11 7 19 23 13 15 27 -13 14 16 -16 -17 -18 -19 -20 -21 -22 -23 -24 -25 -26 26 -28 -29 29 -31
leaf_value=-0.19192061047044362 0.029027241034907281 0.13597383773858004 -0.20313270580698736 0.09675277823774979 -0.056611320891175619 0.20493461992697504 -0.14181241471812409 0.17303258054354359 -0.17050630614555851 0.088087720798132305 0.1875591832315418 -0.018411318328077936 0.46356617064703082 -0.23448939023023344 0.21837641670868016 0.17908197717728958 -0.18370882704129249 0.20675626474486458 -0.12862488438661271 -0.077916450733577627 0.27748744672106823 0.093962841411205852 0.21357368430064161 0.22187060824518121 -0.13641793461241308 -0.23329956572252772 -0.092862805133984649 0.19073317307339618 0.31427440846846866 0.17989919090643525
leaf_weight=257 723 505 320 116 281 387 583 708 529 693 71 588 21 1801 345 153 514 225 368 288 1401 275 159 458 775 54 193 169 176 40
leaf_count=257 723 505 320 116 281 387 583 708 529 693 71 588 21 1801 345 153 514 225 368 288 1401 275 159 458 775 54 193 169 176 40
internal_value=0 0.178259 -0.15825 0.119654 -0.0940082 0.221159 -0.182664 0.234117 -0.196591 0.0697457 0.183266 -0.0513032 0.256799 -0.213411 0.268158 0.104544 -0.223215 0.151666 -0.16328 -0.120685 0.280235 0.12913 0.164297 0.192216 -0.15024 -0.0879327 -0.123566 0.236971 0.264198 0.28939
internal_weight=0 6625 6551 2800 1804 3825 4747 3320 3876 1569 1231 1116 2154 2844 1767 846 2315 775 688 871 1422 550 275 1166 1032 528 247 456 287 216
internal_count=13176 6625 6551 2800 1804 3825 4747 3320 3876 1569 1231 1116 2154 2844 1767 846 2315 775 688 871 1422 550 275 1166 1032 528 247 456 287 216
is_linear=0
shrinkage=0.02


Tree=2
num_leaves=31
num_cat=0
split_feature=3 3 3 4 4 18 15 27 5 26 6 5 20 5 26 27 22 5 4 7 5 5 4 27 26 9 25 25 25 8
split_gain=895814 40106.1 24737.1 21471 12859 10146.8 9861.81 7626.71 7048.53 6965.01 3607.91 3217.36 3068.93 2846.27 2581.87 2565.66 3485.62 2305.68 1853.1 1756.87 1696.68 1609.08 1465.92 1448.04 1330.1 1326.88 1289.15 1266.5 1180.24 1232.05
threshold=1.0000000180025095e-35 5.2638044225266265 -2.8527445720915483 5.9490215012819112 -4.6468558942768636 -0.12466000319823736 1.0000000180025095e-35 7.2588292861510633 4.1241624103554608 -8.9722526827684845 10.152601490605138 -0.93671481924469402 0.69521338149972867 13.439089708649025 13.885760213781914 -8.8793993204578303 -1.0000000180025095e-35 -6.8170176179356021 0.46243090600267006 0.63244537792388 6.5481391267176408 12.348631784896041 -12.233509809379401 -6.4715990172723066 6.0722750144883264 -0.12455443144228392 11.646343355146007 -9.9016329469872648 2.2805379666298946 0.46855878118716665
decision_type=2 2 2 2 2 2 2 2 2 2 2 2 2 2 2 2 2 2 2 2 2 2 2 2 2 2 2 2 2 2
left_child=2 3 6 8 17 -3 9 12 18 22 20 23 -7 -10 19 -11 27 -4 -2 -14 -5 24 -1 -6 -9 -8 -21 -17 29 -20
right_child=1 5 4 10 11 7 25 21 13 15 -12 -13 14 -15 -16 16 -18 -19 28 26 -22 -23 -24 -25 -26 -27 -28 -29 -30 -31
leaf_value=-0.18720455293719834 0.015555400144506482 0.13329692745385782 -0.19933443082123994 0.12545850786234752 -0.04481825242714664 0.20081548150657683 -0.1313065423048777 0.21281307845348771 0.10856627153466014 -0.16366684031663173 0.23715663590604813 -0.012309941840133662 0.44502764079881751 0.2148275912529789 0.19435697887608638 -0.19121442762738272 -0.17580959706903354 -0.12592957039404173 0.059349688985502677 0.27638002644663295 0.19216188564285497 0.2175346854055813 -0.1323150997836319 -0.10679937382142583 0.15210630639533515 -0.073657576984935108 0.22421104399731795 -0.23548841281084432 0.03302961163955051 0.12579178543014322
leaf_weight=259 457 505 320 294 261 387 379 202 475 485 403 498 23 128 195 310 701 368 277 1328 317 458 783 357 506 276 221 1554 262 187
leaf_count=259 457 505 320 294 261 387 379 202 475 485 403 498 23 128 195 310 701 368 277 1328 317 458 783 357 506 276 221 1554 262 187
internal_value=0 0.174717 -0.155108 0.117202 -0.0920645 0.216819 -0.179067 0.229524 0.0754717 -0.1906 0.190704 -0.0501391 0.251826 0.131123 0.262999 -0.205851 -0.213828 -0.160071 0.0471052 0.271513 0.160066 0.188323 -0.145958 -0.0806229 0.169427 -0.107015 0.268937 -0.228125 0.0669651 0.086127
internal_weight=0 6625 6551 2800 1804 3825 4747 3320 1786 4092 1014 1116 2154 603 1767 3050 2565 688 1183 1572 611 1166 1042 618 708 655 1549 1864 726 464
internal_count=13176 6625 6551 2800 1804 3825 4747 3320 1786 4092 1014 1116 2154 603 1767 3050 2565 688 1183 1572 611 1166 1042 618 708 655 1549 1864 726 464
is_linear=0
shrinkage=0.02


Tree=3
num_leaves=31
num_cat=0
split_feature=3 3 3 4 4 18 17 27 26 5 6 5 20 27 5 26 22 5 9 4 7 5 5 25 8 4 26 27 8 25
split_gain=860556 38635.1 23829.2 20694.2 12399.2 9759.83 9522.89 7382.61 7099 6769.47 3502.14 3084.85 2969.07 2809.73 2762.85 2502.46 2415.47 2238.53 1815.55 1773.34 1712.24 1640.1 1561.28 1411.11 1996.58 1408.59 1294.29 1267.43 1362.28 1342.42
threshold=1.0000000180025095e-35 5.2638044225266265 -2.8527445720915483 5.9490215012819112 -4.6468558942768636 -0.12466000319823736 -1.0000000180025095e-35 7.2588292861510633 -8.9722526827684845 4.1241624103554608 10.152601490605138 -1.5423392125406403 0.69521338149972867 -8.1421440642180922 13.439089708649025 13.885760213781914 -1.0000000180025095e-35 -6.8170176179356021 -0.12455443144228392 1.5791293501888259 0.63244537792388 6.5481391267176408 12.348631784896041 -2.9892218482575976 -4.9698457253291801 -12.233509809379401 6.0722750144883264 3.8202634999947711 16.314689530509536 10.42046108897445
decision_type=2 2 2 2 2 2 2 2 2 2 2 2 2 2 2 2 2 2 2 2 2 2 2 2 2 2 2 2 2 2
left_child=2 3 6 9 17 -3 8 12 25 19 21 23 -7 -10 -11 20 -15 -4 -8 -2 -14 -5 26 -6 -25 -1 -9 28 -22 -29
right_child=1 5 4 10 11 7 18 22 13 14 -12 -13 15 16 -16 -17 -18 -19 -20 -21 27 -23 -24 24 -26 -27 -28 29 -30 -31
leaf_value=-0.18461274269721853 0.025790973864078449 0.13065180428554812 -0.19561776323243976 0.12274147029624789 -0.053417548368820837 0.19679437255674553 -0.13607931903434045 0.20867448835716684 -0.16368835586269292 0.10613883027651005 0.23271918969399877 -0.01747181823639497 0.43763636132945188 -0.22569085742403305 0.21083135232518543 0.19037970413917152 -0.17653586802710616 -0.12328973085052618 -0.0747012545389589 0.075658775734637557 0.2616492828273802 0.18832310091160614 0.21326415988490571 -0.22644500598863321 -0.088867853953083248 -0.13058148816780699 0.14879043087701907 0.2585870018876596 0.31144646007729615 0.18191766542285237
leaf_weight=257 703 505 320 294 281 387 583 202 529 475 403 588 23 1801 128 195 514 368 288 480 829 317 458 54 193 775 506 287 299 134
leaf_count=257 703 505 320 294 281 387 583 202 529 475 403 588 23 1801 128 195 514 368 288 480 829 317 458 54 193 775 506 287 299 134
internal_value=0 0.171243 -0.152027 0.114793 -0.0901505 0.212566 -0.175541 0.225026 -0.18897 0.073824 0.186953 -0.0489814 0.246969 -0.205274 0.128362 0.257957 -0.214777 -0.156931 -0.115784 0.0460247 0.26634 0.156767 0.18449 -0.0840717 -0.118945 -0.144037 0.165876 0.263797 0.274849 0.234184
internal_weight=0 6625 6551 2800 1804 3825 4747 3320 3876 1786 1014 1116 2154 2844 603 1767 2315 688 871 1183 1572 611 1166 528 247 1032 708 1549 1128 421
internal_count=13176 6625 6551 2800 1804 3825 4747 3320 3876 1786 1014 1116 2154 2844 603 1767 2315 688 871 1183 1572 611 1166 528 247 1032 708 1549 1128 421
is_linear=0
shrinkage=0.02


Tree=4
num_leaves=31
num_cat=0
split_feature=3 3 3 4 18 4 17 27 26 5 27 5 20 26 6 5 4 22 5 9 11 25 7 6 4 3 23 27 26 25
split_gain=826704 37244.7 22950 17207.3 13387.1 11958.4 9160.05 9063.14 6882.44 4953.26 2721.9 2610.06 2607.15 3091.9 2484.6 2474.05 2411.29 2342.05 2143.37 1747.5 1678.62 1456.5 1613.29 1380.05 1371.43 1371.19 1304.22 1319.22 1286.04 1268.26
threshold=1.0000000180025095e-35 3.9008000391212518 -2.8527445720915483 6.1176131164943 -0.077078319114880528 -3.6712254827938282 -1.0000000180025095e-35 7.4241396271333091 -8.9722526827684845 12.127534153766257 -8.1421440642180922 -6.8170176179356021 0.69521338149972867 10.035820473306448 10.152601490605138 -4.9705191004614724 1.3316874371394121 -1.0000000180025095e-35 5.8069425616125772 -0.12455443144228392 1.0000000180025095e-35 12.754845170493756 0.63244537792388 11.434945646266703 -12.233509809379401 18.968901727936391 3.3583526029189366 1.500530469599701 -0.87215314433138313 22.636522653507747
decision_type=2 2 2 2 2 2 2 2 2 2 2 2 2 2 2 2 2 2 2 2 2 2 2 2 2 2 2 2 2 2
left_child=2 3 6 9 20 11 8 12 24 16 -10 -4 -6 21 -5 28 -2 -12 25 -8 -3 22 -14 -15 -1 -9 -24 -28 -7 -20
right_child=1 4 5 14 7 15 19 18 10 -11 17 -13 13 23 -16 -17 -18 -19 29 -21 -22 -23 26 -25 -26 -27 27 -29 -30 -31
leaf_value=-0.18104962722090318 0.026194749806839047 0.075982993117499134 -0.18588251083719373 0.1508432862547136 0.19597601252259844 -0.065091745623919575 -0.133388224920333 0.12339128222443459 -0.16037802631380513 0.19271101962569931 -0.22140850931800063 -0.11359536474949682 0.44834060287475586 0.16560572322012232 0.22614514214499873 -0.026573799146277124 0.078711842613089222 -0.17300633669551826 0.20065976823545079 -0.073171448444902337 0.14270211214624345 0.20679257577547996 0.24765293636546096 0.24110495537519455 -0.12773596370473744 0.23421635398677751 0.32357570018155507 0.26575212834273271 -0.1729796944089132 0.12581200950870328
leaf_weight=257 692 216 355 434 428 112 583 359 529 109 1801 457 20 211 294 807 707 514 807 288 500 163 673 179 775 51 249 431 73 102
leaf_count=257 692 216 355 434 428 112 583 359 529 109 1801 457 20 211 294 807 707 514 807 288 500 163 673 179 775 51 249 431 73 102
internal_value=0 0.16784 -0.149008 0.101402 0.201687 -0.0882839 -0.172085 0.217109 -0.185255 0.0628525 -0.201309 -0.145199 0.240625 0.250548 0.181254 -0.0416964 0.0527348 -0.210662 0.175139 -0.113477 0.122575 0.263316 0.270027 0.200258 -0.141013 0.137177 0.267391 0.286926 -0.107664 0.192261
internal_weight=0 6625 6551 2236 4389 1804 4747 3673 3876 1508 2844 812 2354 1926 728 992 1399 2315 1319 871 716 1536 1373 390 1032 410 1353 680 185 909
internal_count=13176 6625 6551 2236 4389 1804 4747 3673 3876 1508 2844 812 2354 1926 728 992 1399 2315 1319 871 716 1536 1373 390 1032 410 1353 680 185 909
is_linear=0
shrinkage=0.02


Tree=5
num_leaves=31
num_cat=0
split_feature=3 3 3 4 4 18 27 17 26 5 5 20 26 6 5 5 5 27 7 14 22 27 25 7 8 25 6 25 26 20
split_gain=794204 35863.4 22141.9 16590.4 14732.7 12867.6 8761.7 7321.51 5252.01 4788.37 4095.05 2518.73 2993.68 2411.88 2323.74 2191.78 2076 2027.1 1738.36 1621.02 1556.11 2140.37 1452.42 1503.03 1344.67 1236.81 1222.54 1177.06 1162.33 1324.47
threshold=1.0000000180025095e-35 3.9008000391212518 -4.2633973035887545 6.1176131164943 -4.9705191004614724 -0.077078319114880528 7.4241396271333091 -1.0000000180025095e-35 -8.9722526827684845 12.127534153766257 -0.25851734330320292 0.69521338149972867 11.055295089947981 10.152601490605138 2.3415468752836932 -6.8170176179356021 5.8069425616125772 -6.4715990172723066 -1.5418377185011778 -0.075409340081255785 -1.0000000180025095e-35 -9.0541439653400122 12.754845170493756 0.63244537792388 8.1219074487085425 22.636522653507747 11.434945646266703 3.4553121085573841 0.152386517032917 3.7219317640833789
decision_type=2 2 2 2 2 2 2 2 2 2 2 2 2 2 2 2 2 2 2 2 2 2 2 2 2 2 2 2 2 2
left_child=2 3 7 9 15 19 11 8 -1 14 17 -7 22 -5 -2 -4 24 -6 -19 -3 21 -10 23 -13 -8 -18 -14 -16 -25 -30
right_child=1 5 4 13 10 6 16 -9 20 -11 -12 12 26 -15 27 -17 25 18 -20 -21 -22 -23 -24 28 -26 -27 -28 -29 29 -31
leaf_value=-0.14437542242477328 0.030075078510607232 0.092332783838169452 -0.18689842728725936 0.14775715385271829 -0.045565700352789812 0.19207576644406696 0.09465977464966914 -0.11450263969297486 -0.16581511260785989 0.18913852980104062 -0.0076760164958664103 0.43197111038934616 0.15686889121277289 0.22194880676715553 0.1097280842558391 -0.12902806154623325 0.19671816505487119 -0.13166226544597531 -0.065364655530829235 0.15270393945908908 -0.16842829092127976 -0.21890471294267783 0.20355402449239568 0.23370911977936826 0.16738022723696674 0.12280406753222148 0.23324393581260336 0.052268906600113504 0.31373822365001758 0.25993143367770427
leaf_weight=853 827 386 509 434 405 428 187 663 371 109 436 21 184 294 301 539 807 362 281 330 456 1676 179 420 223 102 154 271 245 723
leaf_count=853 827 386 509 434 405 428 187 663 371 109 436 21 184 294 301 539 807 362 281 330 456 1676 179 420 223 102 154 271 245 723
internal_value=0 0.164506 -0.146051 0.0993116 -0.0997265 0.19772 0.212839 -0.175236 -0.187234 0.0614597 -0.0591847 0.235962 0.245714 0.177719 0.0515119 -0.157135 0.171573 -0.0806139 -0.102689 0.120157 -0.20184 -0.209283 0.257218 0.264035 0.134213 0.188424 0.191667 0.0825053 0.261494 0.27355
internal_weight=0 6625 6551 2236 2532 4389 3673 4019 3356 1508 1484 2354 1926 728 1399 1048 1319 1048 643 716 2503 2047 1588 1409 410 909 338 572 1388 968
internal_count=13176 6625 6551 2236 2532 4389 3673 4019 3356 1508 1484 2354 1926 728 1399 1048 1319 1048 643 716 2503 2047 1588 1409 410 909 338 572 1388 968
is_linear=0
shrinkage=0.02


Tree=6
num_leaves=31
num_cat=0
split_feature=3 4 3 3 4 17 5 18 27 26 5 23 25 14 5 5 27 27 3 6 26 8 7 22 27 25 16 15 27 25
split_gain=762961 34618.4 21339.6 19403.7 14209.3 7053.46 6944 6826.46 6734.2 5097.86 3918.96 3328.27 3268.76 2964.18 2469.57 2129.81 2095.8 1975.48 1905.79 1683.65 1682.22 1699.44 1673.24 1505.98 2075.77 1429.39 1379.91 1160.5 1126.18 1111.81
threshold=1.0000000180025095e-35 5.8160173875775749 -4.2633973035887545 6.7519946805319488 -4.9705191004614724 -1.0000000180025095e-35 4.1241624103554608 -0.028725949832512001 3.8202634999947711 -8.9722526827684845 -0.25851734330320292 0.88182115647463821 9.5378783892862469 1.1067598255937101 13.439089708649025 -6.8170176179356021 9.4306148364544065 -6.4715990172723066 1.3316874371394121 9.7905555251807765 9.3662179026766967 15.976131312706531 -1.5418377185011778 -1.0000000180025095e-35 -9.0541439653400122 4.2048281895789241 -0.6751848338633335 16.485227460739825 13.916409705181643 16.77049952270686
decision_type=2 2 2 2 2 2 2 2 2 2 2 2 2 2 2 2 2 2 2 2 2 2 2 2 2 2 2 2 2 2
left_child=2 3 5 6 15 9 18 -3 11 -1 17 -9 28 -5 25 -4 -15 -6 -2 -14 21 29 -19 24 -11 26 -8 -23 -10 -13
right_child=1 7 4 13 10 -7 14 8 12 23 -12 20 19 16 -16 -17 -18 22 -20 -21 -22 27 -24 -25 -26 -27 -28 -29 -30 -31
leaf_value=-0.14135347310833607 0.019625099129246332 0.12537750375182102 -0.18339227607696956 0.11762566229870075 -0.044222486077294752 -0.1121908530333328 0.089137236523113672 0.20439929463501488 0.22694567093373305 -0.16248370518420907 -0.0074691594890884871 0.26602664896434264 0.12857897788322289 0.22187142590607964 0.19453687546656856 -0.12634599462886034 0.15299793497637937 -0.12903920642980143 0.068773301307088058 0.18492858092907236 0.21094006025815731 0.30016764546545704 -0.063995158582249675 -0.16509934902885567 -0.21476600141400085 0.069927837196663914 0.17605757672871863 0.40837938070297242 0.17409736555240571 0.13668153665959834
leaf_weight=853 574 403 509 227 405 663 139 560 620 371 436 525 413 543 158 539 262 362 701 436 182 178 281 456 1676 253 154 51 218 28
leaf_count=853 574 403 509 227 405 663 139 560 620 371 436 525 413 543 158 539 262 362 701 436 182 178 281 456 1676 253 154 51 218 28
internal_value=0 0.161236 -0.143151 0.111149 -0.0976732 -0.171802 0.0744853 0.202967 0.212705 -0.183578 -0.0578581 0.243178 0.185176 0.181456 0.124903 -0.154053 0.199455 -0.0788215 0.046647 0.157517 0.265705 0.27845 -0.100614 -0.197968 -0.20529 0.104752 0.134822 0.324267 0.213198 0.259478
internal_weight=0 6625 6551 3011 2532 4019 1979 3614 3211 3356 1484 1524 1687 1032 704 1048 805 1048 1275 849 964 782 643 2503 2047 546 293 229 838 553
internal_count=13176 6625 6551 3011 2532 4019 1979 3614 3211 3356 1484 1524 1687 1032 704 1048 805 1048 1275 849 964 782 643 2503 2047 546 293 229 838 553
is_linear=0
shrinkage=0.02


Tree=7
num_leaves=31
num_cat=0
split_feature=3 6 3 4 5 4 17 3 26 5 3 5 4 18 27 25 5 27 25 12 5 7 11 22 27 25 27 20 26 17
split_gain=732938 33464.1 20567.5 13705.6 13097 7808.21 6795.21 5525.51 4948.27 4183.92 4073.74 3750.65 2738.67 2671.33 3384.31 2486.38 2069.64 1925.25 1643.32 1641.47 1629.96 1610.64 1529 1457.49 2013.12 1321.39 1460.76 1235.75 2071.51 1207.85
threshold=1.0000000180025095e-35 3.8785810387198896 -4.2633973035887545 -4.9705191004614724 3.0967058927235955 8.1054553042173154 -1.0000000180025095e-35 9.8061956498516736 -8.9722526827684845 12.127534153766257 8.86335923225427 -0.25851734330320292 1.954660385925022 -0.028725949832512001 7.9234395734681158 5.6420483416003995 -6.8170176179356021 -6.4715990172723066 9.5378783892862469 4.8211343153157875 8.4724903273396688 -1.5418377185011778 0.89876677261895455 -1.0000000180025095e-35 -9.0541439653400122 -2.3971368607553036 7.4241396271333091 1.0740399506032172 1.9794164813399109 11.235352916945919
decision_type=2 2 2 2 2 2 2 2 2 2 2 2 2 2 2 2 2 2 2 2 2 2 2 2 2 2 2 2 2 2
left_child=2 4 6 16 12 7 8 9 -1 15 20 17 -2 -7 19 22 -4 -5 -11 -15 -6 -19 -3 24 -10 -9 -27 -12 -29 -21
right_child=1 5 3 11 10 13 -8 25 23 18 27 -13 -14 14 -16 -17 -18 21 -20 29 -22 -23 -24 -25 -26 26 -28 28 -30 -31
leaf_value=-0.13839336312642367 0.023736090930750641 0.083860948657093107 -0.17995344138859767 -0.042908938523034144 0.092864003382389843 0.12500430750047289 -0.10992569868686029 0.14404080326831531 -0.15921886003001359 0.23470820445664892 0.14407711716161836 -0.0072619022991681275 0.085961318992419336 0.20134460675324264 0.18381080252826432 0.076502795862068373 -0.12371866610087801 -0.12646733874074331 0.14002301430314026 0.26392945954203606 0.15368406236275736 -0.062651670274467233 0.1641960552914502 -0.16183595791622474 -0.21070614698282966 0.23771433244185147 0.17569694995323651 0.30543124309182168 0.18466248945390085 0.22041060042586952
leaf_weight=853 685 128 509 405 447 123 663 126 371 191 126 436 482 380 684 406 539 362 119 760 291 281 365 456 1676 411 241 80 196 384
leaf_count=853 685 128 509 405 447 123 663 126 371 191 126 436 482 380 684 406 539 362 119 760 291 281 365 456 1676 411 241 80 196 384
internal_value=0 0.158031 -0.140307 -0.0956601 0.0965353 0.190886 -0.168435 0.161757 -0.179994 0.135002 0.144749 -0.056557 0.0494367 0.215717 0.220771 0.113155 -0.151031 -0.0770653 0.198361 0.237359 0.116846 -0.098579 0.143338 -0.194171 -0.201375 0.203333 0.214791 0.195975 0.219668 0.249322
internal_weight=0 6625 6551 2532 2307 4318 4019 1987 3356 1209 1140 1484 1167 2331 2208 899 1048 1048 310 1524 738 643 493 2503 2047 778 652 402 276 1144
internal_count=13176 6625 6551 2532 2307 4318 4019 1987 3356 1209 1140 1484 1167 2331 2208 899 1048 1048 310 1524 738 643 493 2503 2047 778 652 402 276 1144
is_linear=0
shrinkage=0.02


Tree=8
num_leaves=31
num_cat=0
split_feature=3 3 3 4 18 4 15 27 26 5 5 20 26 6 27 22 4 5 5 11 25 7 4 3 4 25 6 25 25 26
split_gain=704124 32258.5 19827.2 14906.5 11462.7 10366.7 7990.23 7959.77 5890.19 4342.8 2560.63 2333.2 2777.58 2238.34 2183.62 2768.25 2072.8 1958.34 1930.86 1486.03 1344.58 1452.65 1315.57 1295.99 1196.82 1177.68 1156.92 1146.37 1116.59 1115.14
threshold=1.0000000180025095e-35 3.9008000391212518 -2.8527445720915483 6.1176131164943 -0.077078319114880528 -4.6468558942768636 1.0000000180025095e-35 7.4241396271333091 -8.9722526827684845 12.127534153766257 -4.9705191004614724 0.69521338149972867 11.055295089947981 10.152601490605138 -8.8793993204578303 -1.0000000180025095e-35 1.3316874371394121 -6.8170176179356021 5.8069425616125772 1.0000000180025095e-35 12.754845170493756 0.63244537792388 -12.233509809379401 19.358473635953974 -0.93671481924469402 22.636522653507747 11.434945646266703 -9.9016329469872648 3.8248712273231784 0.34079833665881104
decision_type=2 2 2 2 2 2 2 2 2 2 2 2 2 2 2 2 2 2 2 2 2 2 2 2 2 2 2 2 2 2
left_child=2 3 6 9 19 17 8 11 22 16 -7 -6 20 -5 -10 27 -2 -4 23 -3 21 -13 -1 -9 -12 -20 -14 -16 -18 -23
right_child=1 4 5 13 7 10 -8 18 14 -11 24 12 26 -15 15 -17 28 -19 25 -21 -22 29 -24 -25 -26 -27 -28 -29 -30 -31
leaf_value=-0.16737466312973656 0.023100908722599289 0.069349011307478781 -0.17832846783287823 0.13851888864468526 0.18046287405609249 -0.10241335711222094 -0.094116881926650645 0.11265884309914986 -0.14446185837317374 0.17877482644325002 -0.053994644652966342 0.41482526052565805 0.14617680529537408 0.20999154693694139 -0.16836257651352113 -0.15685686462493706 0.092145727144628417 -0.11067818041081014 0.18567491067261835 0.13212423016130923 0.19153542284151365 0.22241626362386746 -0.11537620798752456 0.22532478130382039 -0.0071181989793014542 0.11354940436634364 0.2204735565911253 -0.21048452684091237 0.040754019718567305 0.2601811502785667
leaf_weight=259 692 216 320 434 428 233 655 364 485 109 391 21 184 294 310 701 427 368 807 500 179 476 783 46 492 102 154 1554 280 912
leaf_count=259 692 216 320 434 428 233 655 364 485 109 391 21 184 294 310 701 427 368 807 500 179 476 783 46 492 102 154 1554 280 912
internal_value=0 0.154892 -0.137523 0.093061 0.186392 -0.0810815 -0.158972 0.200663 -0.169354 0.0571815 -0.0434376 0.222701 0.232088 0.167383 -0.183379 -0.190738 0.0477078 -0.142143 0.16133 0.113186 0.243168 0.249728 -0.128301 0.125299 -0.0278755 0.177582 0.180028 -0.203479 0.0717926 0.24723
internal_weight=0 6625 6551 2236 4389 1804 4747 3673 4092 1508 1116 2354 1926 728 3050 2565 1399 688 1319 716 1588 1409 1042 410 883 909 338 1864 707 1388
internal_count=13176 6625 6551 2236 4389 1804 4747 3673 4092 1508 1116 2354 1926 728 3050 2565 1399 688 1319 716 1588 1409 1042 410 883 909 338 1864 707 1388
is_linear=0
shrinkage=0.02


Tree=9
num_leaves=31
num_cat=0
split_feature=3 6 3 4 3 4 17 3 26 5 5 5 7 18 27 25 5 27 25 12 8 11 25 6 22 27 25 27 17 23
split_gain=676417 31156.5 19150.9 12774.6 12226.5 7305.77 6333.48 5156.69 4654.1 3999.3 3937.6 3450.6 2606.38 2512.38 3169.92 2386.82 1957.4 1867.43 1589.61 1586.64 1523.85 1439.44 1415.83 1761.59 1365.36 1882.7 1248.9 1371.03 1163.75 1269.96
threshold=1.0000000180025095e-35 3.8785810387198896 -4.2633973035887545 -4.9705191004614724 5.5520566278145971 8.1054553042173154 -1.0000000180025095e-35 9.8061956498516736 -8.9722526827684845 4.7199613118681691 12.127534153766257 -0.25851734330320292 8.7029748080067222 -0.028725949832512001 7.9234395734681158 5.6420483416003995 -6.8170176179356021 -6.4715990172723066 9.5378783892862469 4.8211343153157875 -4.7565986159676692 0.89876677261895455 1.3374394911655962 0.61821599469778543 -1.0000000180025095e-35 -9.0541439653400122 -2.3971368607553036 7.4241396271333091 11.235352916945919 1.9861438796545945
decision_type=2 2 2 2 2 2 2 2 2 2 2 2 2 2 2 2 2 2 2 2 2 2 2 2 2 2 2 2 2 2
left_child=2 4 6 16 9 7 8 10 -1 22 15 17 -6 -7 19 21 -4 -5 -12 -15 -19 -3 23 -2 25 -10 -9 -28 29 -21
right_child=1 5 3 11 12 13 -8 26 24 -11 18 -13 -14 14 -16 -17 -18 20 -20 28 -22 -23 -24 -25 -26 -27 27 -29 -30 -31
leaf_value=-0.13274746425797049 0.031983334647545339 0.08016149742528797 -0.17329357489438504 -0.039988890069433389 0.1264746733503978 0.11956116394056537 -0.10544667700860443 0.13786013618821191 -0.15304654859106817 0.11319236193233254 0.22670582588196425 -0.0066753624025475957 0.20012518292523568 0.19308115101115483 0.17666454348609681 0.072386865510875961 -0.11860487214102997 -0.14307767832671764 0.13358080225832322 0.21884105693106448 -0.075174151740446518 0.15810831566956149 0.0018552356215831417 0.094764012601087577 -0.15554524563841129 -0.20283814396646968 0.22885045020539685 0.16876795364281016 0.21187171339988708 0.27328638780809839
leaf_weight=853 537 128 509 405 493 123 663 126 371 396 191 436 315 380 684 406 539 186 119 261 457 365 298 268 456 1676 411 241 384 499
leaf_count=853 537 128 509 405 493 123 663 126 371 396 191 436 315 380 684 406 539 186 119 261 457 365 298 268 456 1676 411 241 384 499
internal_value=0 0.151813 -0.134791 -0.0917091 0.0924752 0.183515 -0.161933 0.155338 -0.173093 0.0586717 0.129492 -0.0539575 0.155187 0.207534 0.212435 0.108297 -0.145166 -0.0736284 0.190958 0.228489 -0.0948165 0.137871 0.0390976 0.0528842 -0.186842 -0.193814 0.195503 0.206642 0.24025 0.254589
internal_weight=0 6625 6551 2532 2307 4318 4019 1987 3356 1499 1209 1484 808 2331 2208 899 1048 1048 310 1524 643 493 1103 805 2503 2047 778 652 1144 760
internal_count=13176 6625 6551 2532 2307 4318 4019 1987 3356 1499 1209 1484 808 2331 2208 899 1048 1048 310 1524 643 493 1103 805 2503 2047 778 652 1144 760
is_linear=0
shrinkage=0.02


Tree=10
num_leaves=31
num_cat=0
split_feature=3 4 3 3 4 17 5 18 27 26 5 23 25 14 5 27 5 27 3 26 8 6 8 25 22 27 24 16 15 25
split_gain=649818 30086.8 18457.1 16846.5 12322.5 6098.58 5991.68 5932.39 6000.07 4517.79 3300.7 3165.16 3019.01 2630.73 2203.24 1902.55 1901.79 1818.18 1659.57 1547.96 1648.64 1545.86 1472.37 1343.19 1321.3 1829.3 1330.04 1300.5 1127.98 1078.09
threshold=1.0000000180025095e-35 5.8160173875775749 -4.2633973035887545 6.7519946805319488 -4.9705191004614724 -1.0000000180025095e-35 4.1241624103554608 -0.077078319114880528 3.8202634999947711 -8.9722526827684845 -0.25851734330320292 0.88182115647463821 9.5378783892862469 1.1067598255937101 13.439089708649025 9.4306148364544065 -6.8170176179356021 -6.4715990172723066 1.3316874371394121 9.3662179026766967 15.976131312706531 9.7905555251807765 -4.7565986159676692 3.7130331185662144 -1.0000000180025095e-35 -6.2229992249667765 -1.3405132604494234 -0.6751848338633335 16.485227460739825 -7.4125454430937792
decision_type=2 2 2 2 2 2 2 2 2 2 2 2 2 2 2 2 2 2 2 2 2 2 2 2 2 2 2 2 2 2
left_child=2 3 5 6 16 9 18 -3 11 -1 17 -9 -10 -5 23 -15 -4 -6 -2 20 -13 -14 29 27 25 26 -11 -8 -22 -19
right_child=1 7 4 13 10 -7 14 8 12 24 -12 19 21 15 -16 -17 -18 22 -20 -21 28 -23 -24 -25 -26 -27 -28 -29 -30 -31
leaf_value=-0.12996201512434902 0.016864898175184488 0.11434139435186641 -0.17004881867644886 0.10747998228526391 -0.038789544607035494 -0.10333238485240452 0.081248154557651747 0.18791532442885403 0.1975507463379941 -0.15190694988488712 -0.0064998179960807949 0.24090644362329541 0.11631096958706481 0.20592739740074451 0.18054501128913483 0.14030595870006063 -0.11614261240466864 -0.064051872140394067 0.062728539428310998 0.19483327993038263 0.28096085245019936 0.17030559245642241 -0.073581635852403432 0.062474974960103229 -0.15247090352542408 -0.20203371352926153 -0.27141396558284764 0.1661624867611875 0.38764584207067304 -0.17072404529367174
leaf_weight=853 574 393 509 227 405 663 139 570 838 542 436 553 413 543 158 262 539 53 701 182 178 436 457 257 456 1465 40 150 51 133
leaf_count=853 574 393 509 227 405 663 139 570 838 542 436 553 413 543 158 262 539 53 701 182 178 436 457 257 456 1465 40 150 51 133
internal_value=0 0.148797 -0.132116 0.102102 -0.0898212 -0.158762 0.06794 0.1877 0.19665 -0.169712 -0.0527436 0.225276 0.170621 0.167613 0.114773 0.18457 -0.142324 -0.0719825 0.0420809 0.247367 0.259594 0.14404 -0.0928894 0.0957398 -0.183259 -0.190117 -0.16012 0.125321 0.30472 -0.140328
internal_weight=0 6625 6551 3011 2532 4019 1979 3614 3221 3356 1484 1534 1687 1032 704 805 1048 1048 1275 964 782 849 643 546 2503 2047 582 289 229 186
internal_count=13176 6625 6551 3011 2532 4019 1979 3614 3221 3356 1484 1534 1687 1032 704 805 1048 1048 1275 964 782 849 643 546 2503 2047 582 289 229 186
is_linear=0
shrinkage=0.02


Tree=11
num_leaves=31
num_cat=0
split_feature=4 3 3 4 18 27 4 15 26 5 27 22 26 20 5 25 5 25 5 14 8 4 6 26 12 21 6 26 25 21
split_gain=624274 30796.6 20399.7 11588.2 11530.2 8510.45 7561.84 6945.03 5804.08 3212.09 2377.44 2492.21 2363.43 2736.69 2014.59 1988.02 1703.45 1616.43 1613.9 1585.44 1537.34 1502.33 1462.49 1328.63 1322.67 1337.81 1314.38 1221.56 1184.37 1107.27
threshold=1.0000000180025095e-35 2.8413331220286895 -2.1704258858517123 6.7547200968639043 -0.077078319114880528 7.2588292861510633 -4.5113508145657946 1.0000000180025095e-35 -8.9722526827684845 12.598222164483458 -8.8793993204578303 -1.0000000180025095e-35 13.636672039454821 0.69521338149972867 12.348631784896041 2.7935430622112452 -11.930833713956494 11.646343355146007 -6.8170176179356021 -0.028725949832512001 9.6250953854630907 -12.233509809379401 5.6556413503637257 6.0722750144883264 10.671600483416482 1.408887076824201 0.4499392687642621 -2.8722687175526582 15.108604572084278 -7.9064335407035591
decision_type=2 2 2 2 2 2 2 2 2 2 2 2 2 2 2 2 2 2 2 2 2 2 2 2 2 2 2 2 2 2
left_child=2 3 7 9 19 12 18 8 21 15 -10 29 13 -6 20 26 -8 24 -4 -3 -7 -1 -5 -22 25 -15 -2 -18 -16 -12
right_child=1 4 6 22 5 14 16 -9 10 -11 11 -13 -14 17 28 -17 27 -19 -20 -21 23 -23 -24 -25 -26 -27 -28 -29 -30 -31
leaf_value=-0.15934977047656418 0.032523496764141228 0.080875119372535706 -0.16594768874792973 0.1147279845243627 0.17242182837167513 0.10471359271706615 -0.1531406816509035 -0.090551642719179315 -0.13314183421574083 0.16363437215256138 -0.17042480415876921 -0.14856992409011233 0.15237078226875259 0.1759166497589531 0.19819227457162622 0.0096327874556341227 -0.0037924659070356389 0.18102982790371167 -0.095123846535603476 0.13647933315207092 0.20434236054973945 -0.10561529017906979 0.18645618331560207 0.13316413061914109 0.25669299543984692 0.23334690825448806 0.088053528314942495 -0.049150872898986092 0.13241304061966006 -0.20233602734899625
leaf_weight=277 341 475 234 182 460 458 45 703 528 86 658 749 262 217 385 568 460 259 286 361 154 837 303 329 648 643 341 491 153 1283
leaf_count=277 341 475 234 182 460 458 45 703 528 86 658 749 262 217 385 568 460 259 286 361 154 837 303 329 648 643 341 491 153 1283
internal_value=0 0.145841 -0.129494 0.0758031 0.17239 0.186612 -0.0651755 -0.14886 -0.158323 0.0454047 -0.171944 -0.17956 0.20919 0.215875 0.148615 0.0372706 -0.0329005 0.227187 -0.126995 0.104886 0.130966 -0.118977 0.15954 0.155859 0.235115 0.218856 0.0602885 -0.0272109 0.179486 -0.191518
internal_weight=0 6625 6551 1821 4804 3968 1516 5035 4332 1336 3218 2690 2489 2227 1479 1250 996 1767 520 836 941 1114 485 483 1508 860 682 951 538 1941
internal_count=13176 6625 6551 1821 4804 3968 1516 5035 4332 1336 3218 2690 2489 2227 1479 1250 996 1767 520 836 941 1114 485 483 1508 860 682 951 538 1941
is_linear=0
shrinkage=0.02


Tree=12
num_leaves=31
num_cat=0
split_feature=3 6 6 3 3 4 27 3 16 5 5 26 4 7 18 27 25 7 23 25 25 25 22 25 6 11 4 26 26 25
split_gain=599988 28040.9 17259.7 10933.9 8573.84 6602.27 4763.52 4657.69 4293.56 3599.47 3548.21 3191.91 2475.87 2413.9 2289.47 2911 2243.31 2155.34 2029.64 1648.47 1566.8 1515.57 1406.44 1376.73 1600.88 1326.02 1281.6 1232.02 1197.21 1165.43
threshold=1.0000000180025095e-35 3.8785810387198896 -3.6709921477106549 5.5520566278145971 -3.2603950695793027 8.1054553042173154 -9.4852287248240064 9.8061956498516736 -0.40709852295374482 12.127534153766257 4.7199613118681691 -10.951712376520854 -2.5521504679535636 8.7029748080067222 -0.028725949832512001 3.8202634999947711 5.6420483416003995 -2.2577456716633661 1.408887076824201 -9.9016329469872648 10.42046108897445 9.5378783892862469 -1.0000000180025095e-35 1.3374394911655962 0.61821599469778543 0.89876677261895455 -2.3694777949298111 -8.4020451591703296 9.3662179026766967 -2.3971368607553036
decision_type=2 2 2 2 2 2 2 2 2 2 2 2 2 2 2 2 2 2 2 2 2 2 2 2 2 2 2 2 2 2
left_child=2 3 6 10 17 7 26 9 11 16 23 -8 -6 -5 -7 18 25 27 -16 -13 -17 -11 -21 24 -2 -3 -1 -4 -20 -9
right_child=1 5 4 13 12 14 8 29 -10 21 -12 19 -14 -15 15 20 -18 -19 28 22 -22 -23 -24 -25 -26 -27 -28 -29 -30 -31
leaf_value=-0.12189481118414314 0.0299470394188226 0.074716195428045473 -0.09343174631072991 0.11835318279148478 -0.08181922015769276 0.1119024575604656 -0.12179343646793546 0.12875148272467038 -0.11021322137333243 0.21537201745035764 0.10606788764237379 -0.14236817601906215 -0.01825809970525864 0.18923203095084146 0.18963737764056907 0.19877267298292967 0.0666205776916826 -0.077980026584526851 0.25910471523904 -0.1976977075814717 0.15140204482802713 0.12444164720403046 -0.15769267391388994 -0.00044769998056964086 0.089795450419882558 0.1495292810837496 -0.060428886116005297 -0.14940578771763632 0.18965152473967586 0.19519532079836982
leaf_weight=786 537 128 207 493 383 123 427 126 535 191 396 368 681 315 415 646 406 365 533 1523 492 119 457 298 268 365 164 655 122 652
leaf_count=786 537 128 207 493 383 123 427 126 535 191 396 368 681 315 415 646 406 365 533 1523 492 119 457 298 268 365 164 655 122 652
internal_value=0 0.142973 -0.126954 0.0866807 -0.0826863 0.173049 -0.150761 0.146263 -0.162091 0.121699 0.0547139 -0.172092 -0.0411377 0.145985 0.195882 0.20056 0.101435 -0.118715 0.224243 -0.18124 0.178293 0.180466 -0.188464 0.0362768 0.0498717 0.130105 -0.111284 -0.135964 0.246168 0.184434
internal_weight=0 6625 6551 2307 2291 4318 4260 1987 3310 1209 1499 2775 1064 808 2331 2208 899 1227 1070 2348 1138 310 1980 1103 805 493 950 862 655 778
internal_count=13176 6625 6551 2307 2291 4318 4260 1987 3310 1209 1499 2775 1064 808 2331 2208 899 1227 1070 2348 1138 310 1980 1103 805 493 950 862 655 778
is_linear=0
shrinkage=0.02


Tree=13
num_leaves=31
num_cat=0
split_feature=4 3 3 4 18 5 27 15 26 5 27 22 20 26 25 6 4 6 8 5 26 4 12 27 6 27 14 21 27 7
split_gain=576546 28562 18961.5 12564.7 9093.1 7024.64 6514.45 6477.88 5469.73 3879.24 2227.08 2338.65 2166.49 2438.18 2127.19 2023.23 1974.15 1733.75 1596.73 1578.14 1743.07 1447.71 1254.24 1263.87 1160.23 1154.53 1145.7 1104.13 1103.28 1055.8
threshold=1.0000000180025095e-35 3.9008000391212518 -2.1704258858517123 6.1176131164943 -0.12466000319823736 -4.9705191004614724 7.4241396271333091 1.0000000180025095e-35 -8.9722526827684845 12.127534153766257 -8.8793993204578303 -1.0000000180025095e-35 0.69521338149972867 10.035820473306448 3.4553121085573841 11.048627031413378 -6.0128217033399736 -9.6749089548398768 0.46855878118716665 12.348631784896041 6.0722750144883264 -12.233509809379401 10.671600483416482 5.2080264795610249 11.434945646266703 -3.2398658714072623 -0.075409340081255785 1.408887076824201 -1.4993480097394918 4.9956946731600613
decision_type=2 2 2 2 2 2 2 2 2 2 2 2 2 2 2 2 2 2 2 2 2 2 2 2 2 2 2 2 2 2
left_child=2 3 7 9 26 17 12 8 21 14 -10 -12 -6 22 18 -5 -7 -4 -2 20 -8 -1 27 -24 -15 -19 -3 -14 -18 -16
right_child=1 4 5 15 6 16 19 -9 10 -11 11 -13 13 24 29 -17 28 25 -20 -21 -22 -23 23 -25 -26 -27 -28 -29 -30 -31
leaf_value=-0.15369712062435567 0.038767803852793915 0.078467599478446781 -0.18368129517469142 0.12647754728383723 0.16240276486678323 -0.096979431677723951 0.17699341352629877 -0.086808535252322849 -0.12792870002791681 0.16466146174344151 -0.18443890801405041 -0.14283491323504335 0.16800494454698078 0.13493187277684254 -0.0080018484875850997 0.19615093663684094 0.0017107061398951532 -0.062297682958708238 0.095345565454094908 0.17481074805088509 0.11140051891769794 -0.10094851650862889 0.25540934422596256 0.17918992043771212 0.20423299195629924 -0.13638978758113726 0.13052160139414584 0.22005816597053568 -0.043287989843999924 0.045968380022437916
leaf_weight=277 477 360 144 478 441 163 224 703 528 110 1941 749 217 210 371 256 429 162 343 497 586 837 561 103 179 175 319 655 443 238
leaf_count=277 477 360 144 478 441 163 224 703 528 110 1941 749 217 210 371 256 429 162 343 497 586 837 561 103 179 175 319 655 443 238
internal_value=0 0.14015 -0.124451 0.0826886 0.170161 -0.0624412 0.182591 -0.143122 -0.152261 0.0502146 -0.165483 -0.172855 0.202388 0.211548 0.0414049 0.150778 -0.0330921 -0.125594 0.0624339 0.146755 0.12954 -0.114065 0.222875 0.243586 0.166821 -0.100773 0.102923 0.207105 -0.0211499 0.01309
internal_weight=0 6625 6551 2273 4352 1516 3673 5035 4332 1539 3218 2690 2366 1925 1429 734 1035 481 820 1307 810 1114 1536 664 389 337 679 872 872 609
internal_count=13176 6625 6551 2273 4352 1516 3673 5035 4332 1539 3218 2690 2366 1925 1429 734 1035 481 820 1307 810 1114 1536 664 389 337 679 872 872 609
is_linear=0
shrinkage=0.02


Tree=14
num_leaves=31
num_cat=0
split_feature=3 6 6 5 3 4 27 3 16 5 3 26 4 18 27 25 4 7 23 25 25 25 5 22 11 4 26 26 27 12
split_gain=553947 26072.9 16118.3 10150.4 7924.72 6179.78 4493.07 4345.42 4043.25 3383.05 3304.01 2998.53 2272.05 2157.14 2746.09 2138.6 2056.61 2010.6 1935.57 1643.98 1504.13 1470.28 1341.73 1277.31 1253.98 1210.83 1176.03 1138.06 1106.36 1376.3
threshold=1.0000000180025095e-35 3.8785810387198896 -3.6709921477106549 3.0967058927235955 -3.2603950695793027 8.1054553042173154 -9.4852287248240064 9.8061956498516736 -0.40709852295374482 12.127534153766257 8.86335923225427 -12.005662665031474 -2.5521504679535636 -0.028725949832512001 3.8202634999947711 5.6420483416003995 1.954660385925022 -2.2577456716633661 1.408887076824201 -9.9016329469872648 10.42046108897445 9.5378783892862469 13.744359108131064 -1.0000000180025095e-35 0.89876677261895455 -2.3694777949298111 -8.4020451591703296 9.3662179026766967 2.7883489960443124 0.47751997379539596
decision_type=2 2 2 2 2 2 2 2 2 2 2 2 2 2 2 2 2 2 2 2 2 2 2 2 2 2 2 2 2 2
left_child=2 3 6 16 17 7 25 9 11 15 22 -8 -6 -7 18 24 -2 26 -15 -13 -16 -11 28 -21 -3 -1 -4 -20 29 -5
right_child=1 5 4 10 12 13 8 -9 -10 21 -12 19 -14 14 20 -17 -18 -19 27 23 -22 -23 -24 -25 -26 -27 -28 -29 -30 -31
leaf_value=-0.11696993646839915 0.019358050512552499 0.071218566829338678 -0.088954257439914905 0.065144572334849174 -0.078237177705484648 0.10694904169718969 -0.11286596588219606 0.17733012859089478 -0.10565705351033639 0.20808753293300175 0.17167133019127376 -0.13630229979402458 -0.017348515873385081 0.18221462826197388 0.19144523441670433 0.06309658965579891 0.073280854060998588 -0.074505488570218215 0.2500327255592007 -0.18980053566696103 0.14503159611781197 0.11852627135781932 0.15955844944122974 -0.1517695925908909 0.1439708715769118 -0.057225122660761921 -0.14364150690810598 0.18231696941691344 0.054995013066862594 0.14334688944380147
leaf_weight=786 685 128 207 157 383 123 372 778 535 191 402 390 681 415 646 406 482 365 533 1556 492 119 127 457 365 164 655 122 243 211
leaf_count=786 685 128 207 157 383 123 372 778 535 191 402 390 681 415 646 406 482 365 533 1556 492 119 127 457 365 164 655 122 243 211
internal_value=0 0.137374 -0.12199 0.0830928 -0.079211 0.166375 -0.144996 0.14046 -0.156 0.116734 0.125538 -0.165705 -0.0392661 0.188466 0.193006 0.0970885 0.0416295 -0.113849 0.216009 -0.173885 0.171379 0.173708 0.100409 -0.181167 0.125082 -0.106656 -0.130509 0.23742 0.088114 0.109983
internal_weight=0 6625 6551 2307 2291 4318 4260 1987 3310 1209 1140 2775 1064 2331 2208 899 1167 1227 1070 2403 1138 310 738 2013 493 950 862 655 611 368
internal_count=13176 6625 6551 2307 2291 4318 4260 1987 3310 1209 1140 2775 1064 2331 2208 899 1167 1227 1070 2403 1138 310 738 2013 493 950 862 655 611 368
is_linear=0
shrinkage=0.02


Tree=15
num_leaves=31
num_cat=0
split_feature=4 3 3 4 18 27 5 15 26 5 26 25 4 25 5 4 22 27 26 25 11 6 6 6 3 6 25 8 27 12
split_gain=532402 26531.2 17632.2 10056 9994.73 7601.12 6554.47 6044 5177.22 3102.59 2142.91 2482.99 2029.8 1995.89 1811.92 1810.6 1692.23 1839.25 1664.9 1390.26 1385.12 1367.49 1289.71 1249.01 1205.44 1168.07 1137.29 1105.24 1073.18 965.915
threshold=1.0000000180025095e-35 2.8413331220286895 -2.1704258858517123 7.2408004938968533 -0.077078319114880528 7.2588292861510633 -4.9705191004614724 1.0000000180025095e-35 -6.3915455693621395 10.788748092180082 13.636672039454821 -2.1919335936819779 -12.233509809379401 2.7935430622112452 5.8069425616125772 -6.0128217033399736 -1.0000000180025095e-35 -6.2229992249667765 -7.2417143679021487 12.754845170493756 1.0000000180025095e-35 -6.300726351854709 -9.516253034674758 5.6556413503637257 19.358473635953974 0.4499392687642621 22.636522653507747 15.631452899316434 -1.4993480097394918 11.747529241450954
decision_type=2 2 2 2 2 2 2 2 2 2 2 2 2 2 2 2 2 2 2 2 2 2 2 2 2 2 2 2 2 2
left_child=2 3 7 9 20 10 18 8 12 13 11 29 -1 25 24 -8 17 -10 -4 27 -3 -14 -20 -5 -7 -2 -16 -13 -17 -6
right_child=1 4 6 23 5 14 15 -9 16 -11 -12 19 21 -15 26 28 -18 -19 22 -21 -22 -23 -24 -25 -26 -27 -28 -29 -30 -31
leaf_value=-0.15539696837017247 0.030167937441891925 0.058148524770943018 -0.068098200642038142 0.10823858703480908 0.14183080045569793 0.093956556046064982 -0.092633629465715656 -0.083206316378791612 -0.14097219643597342 0.13711893683534088 0.1397900608848098 0.20533263533398979 -0.12141531072818461 0.0054540383439514372 0.15942147002989768 0.0025334848404740822 -0.1368220640150756 -0.18338934855390437 -0.20416600890317052 0.16386251554824413 0.11376186452544061 -0.076495388057042674 -0.11892362632585127 0.17778490595220661 0.20170003163587788 0.082363441225152142 0.09207325497613314 0.24140434448017428 -0.04184723085829984 0.2685447234603075
leaf_weight=398 343 260 160 163 323 428 163 703 562 127 262 1163 654 563 892 429 754 1501 106 235 576 463 215 282 46 343 113 480 443 26
leaf_count=398 343 260 160 163 323 428 163 703 562 127 262 1163 654 563 892 429 754 1501 106 235 576 463 215 282 46 343 113 480 443 26
internal_value=0 0.134673 -0.119597 0.0696657 0.159315 0.172556 -0.0597999 -0.137601 -0.146429 0.0429382 0.193894 0.200259 -0.116615 0.0333618 0.136646 -0.03145 -0.162463 -0.171834 -0.120802 0.209363 0.0964658 -0.102796 -0.147072 0.152311 0.104413 0.0562657 0.151849 0.215871 -0.0200131 0.151271
internal_weight=0 6625 6551 1821 4804 3968 1516 5035 4332 1376 2489 2227 1515 1249 1479 1035 2817 2063 481 1878 836 1117 321 445 474 686 1005 1643 872 349
internal_count=13176 6625 6551 1821 4804 3968 1516 5035 4332 1376 2489 2227 1515 1249 1479 1035 2817 2063 481 1878 836 1117 321 445 474 686 1005 1643 872 349
is_linear=0
shrinkage=0.02


Tree=16
num_leaves=31
num_cat=0
split_feature=4 3 3 4 18 5 27 15 26 5 20 27 22 25 26 25 6 4 6 8 4 7 8 6 4 27 27 14 21 26
split_gain=511457 25545 16980.8 11273 8149.39 6324.53 5964.83 5813.63 5014.14 3524.48 2624.83 2040.2 2128.89 1993.25 1983.41 1929.56 1878.62 1740.8 1618.17 1435.93 1356.09 1354.69 1291.29 1267.61 1129.37 1083.72 1040.39 1037.35 1001.92 999.415
threshold=1.0000000180025095e-35 3.9008000391212518 -2.1704258858517123 6.1176131164943 -0.12466000319823736 -4.9705191004614724 4.8096455976919374 1.0000000180025095e-35 -8.9722526827684845 12.127534153766257 0.69521338149972867 -8.8793993204578303 -1.0000000180025095e-35 3.4553121085573841 13.636672039454821 9.5378783892862469 11.048627031413378 -6.0128217033399736 -9.6749089548398768 0.46855878118716665 -12.233509809379401 0.63244537792388 16.314689530509536 9.7905555251807765 3.5164118654188008 -3.2398658714072623 -1.4993480097394918 -0.075409340081255785 -7.9064335407035591 -3.7288435641711435
decision_type=2 2 2 2 2 2 2 2 2 2 2 2 2 2 2 2 2 2 2 2 2 2 2 2 2 2 2 2 2 2
left_child=2 3 7 9 27 18 10 8 20 13 -6 -10 28 19 21 24 -5 -7 29 -2 -1 -12 -23 -17 -8 -20 -19 -3 -13 -4
right_child=1 4 5 16 6 17 15 -9 11 -11 14 12 -14 -15 -16 23 -18 26 25 -21 -22 22 -24 -25 -26 -27 -28 -29 -30 -31
leaf_value=-0.14533500527001461 0.036410948699601368 0.073454351453686187 -0.12333535117877496 0.11873286406340069 0.15239519020679212 -0.090684377756541132 0.11455372551861016 -0.081542226776605206 -0.12026342203177398 0.15598301357386465 0.37882696342468264 -0.15425087693542253 -0.13462122555270056 0.011088548119436822 0.13886912935475509 0.10035853592336444 0.18587015682074706 0.0027220824913671 -0.057206902137474612 0.090064366203800664 -0.094282828742313321 0.20083526418904957 0.24387844053822494 0.14845543151077428 0.1773140143327393 -0.12899077589469296 -0.040975337746630904 0.12298590265634853 -0.18460607469880361 -0.22875442724568504
leaf_weight=277 477 360 74 478 436 163 138 703 528 110 20 658 749 609 150 446 256 429 162 343 837 984 389 431 679 175 443 319 1283 70
leaf_count=277 477 360 74 478 436 163 138 703 528 110 20 658 749 609 150 446 256 429 162 343 837 984 389 431 679 175 443 319 1283 70
internal_value=0 0.131996 -0.117222 0.0776543 0.160378 -0.0585398 0.172146 -0.134891 -0.143548 0.0468948 0.195726 -0.156208 -0.163263 0.0384976 0.20797 0.144598 0.142149 -0.0306916 -0.118463 0.0588538 -0.106977 0.215411 0.21303 0.123996 0.166713 -0.0944834 -0.0194774 0.0967247 -0.174316 -0.174581
internal_weight=0 6625 6551 2273 4352 1516 3673 5035 4332 1539 1979 3218 2690 1429 1543 1694 734 1035 481 820 1114 1393 1373 877 817 337 872 679 1941 144
internal_count=13176 6625 6551 2273 4352 1516 3673 5035 4332 1539 1979 3218 2690 1429 1543 1694 734 1035 481 820 1114 1393 1373 877 817 337 872 679 1941 144
is_linear=0
shrinkage=0.02


Tree=17
num_leaves=31
num_cat=0
split_feature=3 6 6 3 3 4 27 3 16 5 5 26 7 26 4 18 27 23 7 25 25 25 6 25 6 27 4 26 26 25
split_gain=491540 23427 14549.7 9082.05 7035.97 5599.02 4139.21 3919.58 3711.11 3102.53 2923.86 2741.5 2151.7 2018.14 1994.45 1982.65 2509.83 1845.83 1814.75 1536.7 1407.02 1398.85 1378.36 1296.62 1376.84 1213.35 1111.34 1091.49 1069.61 1045.61
threshold=1.0000000180025095e-35 3.8785810387198896 -3.6709921477106549 5.5520566278145971 -3.2603950695793027 8.1054553042173154 -9.4852287248240064 9.8061956498516736 -0.40709852295374482 12.127534153766257 4.7199613118681691 -12.005662665031474 8.7029748080067222 6.523827654658791 -2.5521504679535636 -0.028725949832512001 3.8202634999947711 1.5022812892530244 -2.2577456716633661 -9.9016329469872648 18.397499906464489 10.42046108897445 12.127534153766257 1.3374394911655962 0.61821599469778543 4.8096455976919374 -2.3694777949298111 -8.4020451591703296 9.3662179026766967 -2.3971368607553036
decision_type=2 2 2 2 2 2 2 2 2 2 2 2 2 2 2 2 2 2 2 2 2 2 2 2 2 2 2 2 2 2
left_child=2 3 6 10 18 7 26 9 11 13 23 -8 -5 22 -6 -7 17 -17 27 -13 -11 -18 -3 24 -2 -21 -1 -4 -19 -9
right_child=1 5 4 12 14 15 8 29 -10 20 -12 19 -14 -15 -16 16 21 28 -20 25 -22 -23 -24 -25 -26 -27 -28 -29 -30 -31
leaf_value=-0.10985947573998274 0.026789357279414561 0.10081617791821787 -0.082707903317855186 0.10590598111254357 -0.073149997087988236 0.099764909123986723 -0.10611354000822601 0.11449483688273984 -0.099108513555152197 0.18381682395003737 0.095427817966121098 -0.12812306196338091 0.17282475367117495 0.057629789872240586 -0.016102081168840932 0.17157982635679875 0.18094327486588577 0.23770654459201701 -0.069535339651565539 -0.17774019980129224 0.071474340745696321 0.13618353142545037 0.18300977937515503 -0.00356617553236163 0.08229226512695427 -0.13286917148956232 -0.052621745661514376 -0.13539303882816764 0.17200093168704236 0.1774302943317474
leaf_weight=786 537 393 207 493 383 123 372 126 535 256 396 390 315 403 681 420 646 528 365 1733 54 492 103 298 268 280 164 655 122 652
leaf_count=786 537 393 207 493 383 123 372 126 535 256 396 390 315 403 681 420 646 528 365 1733 54 492 103 298 268 280 164 655 122 652
internal_value=0 0.129398 -0.114919 0.0779447 -0.0742756 0.156888 -0.136777 0.132221 -0.147339 0.109688 0.0488105 -0.156638 0.131994 0.0908738 -0.0366372 0.177915 0.182268 0.204259 -0.106914 -0.164459 0.164247 0.161592 0.117885 0.0320739 0.0452673 -0.171499 -0.0999784 -0.122741 0.225374 0.167238
internal_weight=0 6625 6551 2307 2291 4318 4260 1987 3310 1209 1499 2775 808 899 1064 2331 2208 1070 1227 2403 310 1138 496 1103 805 2013 950 862 650 778
internal_count=13176 6625 6551 2307 2291 4318 4260 1987 3310 1209 1499 2775 808 899 1064 2331 2208 1070 1227 2403 310 1138 496 1103 805 2013 950 862 650 778
is_linear=0
shrinkage=0.02


Tree=18
num_leaves=31
num_cat=0
split_feature=4 3 3 4 18 27 5 15 26 5 26 25 4 25 5 4 22 27 26 8 6 25 14 26 6 6 8 25 8 26
split_gain=472342 23714.8 15779.2 9060.9 8959.41 6971.7 5895.46 5425.48 4737.56 2806.47 1976.65 2303.33 1908.66 1823.29 1697.99 1596.58 1554.67 1657.16 1553.93 1360.69 1297.45 1287.89 1269.22 1217.15 1202.35 1153.06 1138.4 1064.05 1048.26 1020.71
threshold=1.0000000180025095e-35 2.8413331220286895 -2.1704258858517123 7.2408004938968533 -0.077078319114880528 7.2588292861510633 -4.9705191004614724 1.0000000180025095e-35 -6.3915455693621395 12.598222164483458 13.636672039454821 -2.1919335936819779 -12.233509809379401 2.7935430622112452 12.348631784896041 -6.3015999063913428 -1.0000000180025095e-35 -6.2229992249667765 -7.2417143679021487 9.6250953854630907 -6.300726351854709 12.754845170493756 -0.028725949832512001 6.0722750144883264 -9.516253034674758 5.6556413503637257 0.46855878118716665 15.108604572084278 15.631452899316434 -2.9747429247303305
decision_type=2 2 2 2 2 2 2 2 2 2 2 2 2 2 2 2 2 2 2 2 2 2 2 2 2 2 2 2 2 2
left_child=2 3 7 9 22 10 18 8 12 13 11 -6 -1 26 19 -8 17 -10 -4 -7 -14 28 -3 -21 -20 -5 -2 -16 -13 -17
right_child=1 4 6 25 5 14 15 -9 16 -11 -12 21 20 -15 27 29 -18 -19 24 23 -22 -23 -24 -25 -26 -27 -28 -29 -30 -31
leaf_value=-0.14713798173821058 0.03375404728873168 0.069152629105011493 -0.063024520441773341 0.10148748243970374 0.14204347448738394 0.087385484099339314 -0.089071063658124533 -0.078150609132925195 -0.13307690747572751 0.14430952071367453 0.13115024780534662 0.19399516340867262 -0.11426701246342118 0.0061319889542349694 0.17435889898153481 0.0047886929964590678 -0.12881241976273608 -0.17333958964786189 -0.19444755414043957 0.18190743936927287 -0.070512455569129634 0.15420116191531749 0.11890361343761338 0.11378087416676222 -0.11214279568611189 0.16830925677130196 0.086282212216005447 0.1120102526641944 0.22912465710720667 -0.03841823641633161
leaf_weight=398 427 475 160 163 349 458 152 703 562 96 262 1163 654 584 385 399 754 1501 106 154 463 235 361 329 215 282 269 153 480 484
leaf_count=398 427 475 160 163 349 458 152 703 562 96 262 1163 654 584 385 399 754 1501 106 154 463 235 361 329 215 282 269 153 480 484
internal_value=0 0.126844 -0.112655 0.0653835 0.150141 0.162677 -0.0560875 -0.129687 -0.138051 0.0400129 0.183113 0.189226 -0.109531 0.0321906 0.128287 -0.0292005 -0.153389 -0.162371 -0.113942 0.112083 -0.0961306 0.197994 0.090636 0.135502 -0.139321 0.143833 0.0540559 0.156628 0.204258 -0.0188944
internal_weight=0 6625 6551 1821 4804 3968 1516 5035 4332 1376 2489 2227 1515 1280 1479 1035 2817 2063 481 941 1117 1878 836 483 321 445 696 538 1643 883
internal_count=13176 6625 6551 1821 4804 3968 1516 5035 4332 1376 2489 2227 1515 1280 1479 1035 2817 2063 481 941 1117 1878 836 483 321 445 696 538 1643 883
is_linear=0
shrinkage=0.02


Tree=19
num_leaves=31
num_cat=0
split_feature=3 4 3 3 4 17 18 27 5 26 23 25 5 14 5 5 27 27 27 8 6 22 3 25 26 12 8 25 16 9
split_gain=453818 21868.1 13606.7 12099.4 9122.36 4629.42 4379.95 4705.51 4275.42 3461.94 2635.02 2460.37 2241.4 2024.29 1695.14 1638.06 1568.52 1516.78 1433.82 1330.73 1321.95 1273.89 1178.59 1143.59 1128.95 1236.92 1097.21 1084.75 1083.91 1080.71
threshold=1.0000000180025095e-35 5.8160173875775749 -4.2633973035887545 6.7519946805319488 -4.9705191004614724 -1.0000000180025095e-35 -0.077078319114880528 3.8202634999947711 4.1241624103554608 -12.536304703121578 0.88182115647463821 9.5378783892862469 -0.25851734330320292 1.1946339867843541 13.439089708649025 -14.38353047156709 -6.4715990172723066 9.4306148364544065 -9.4852287248240064 15.976131312706531 9.7905555251807765 -1.0000000180025095e-35 1.3316874371394121 3.7130331185662144 -7.5534386426878255 -1.1143378280791227 -4.7565986159676692 -9.9016329469872648 -0.6751848338633335 1.8807800938896715
decision_type=2 2 2 2 2 2 2 2 2 2 2 2 2 2 2 2 2 2 2 2 2 2 2 2 2 2 2 2 2 2
left_child=2 3 5 8 15 9 -3 10 22 -1 -8 -9 16 -5 23 -4 -6 -15 -11 29 -13 27 -2 28 -17 -26 -18 -20 -10 -12
right_child=1 6 4 13 12 -7 7 11 14 18 19 20 -14 17 -16 24 26 -19 21 -21 -22 -23 -24 -25 25 -27 -28 -29 -30 -31
leaf_value=-0.097111779981331525 0.012475544926383642 0.094463533084299278 -0.17174667452874873 0.088312414526465766 -0.027233166303577618 -0.085010445446062552 0.15644914756114023 0.16644751013663786 0.065494413277630115 -0.11941533232046486 0.10982436070839563 0.092498275113041747 -0.0041017281444136631 0.17432158643825599 0.15282205740266916 -0.070264570516876027 -0.11843310943374069 0.11543061059385423 -0.1334199619080646 0.24751372221763845 0.14242957951022533 -0.12804352511863573 0.051125716647513864 0.047741647130113946 -0.13795081159321201 -0.072518555431566448 -0.060814207959512583 -0.17254676046865977 0.14301612858672938 0.20304628010006792
leaf_weight=553 574 393 194 234 405 663 570 838 139 456 54 413 436 539 158 237 186 259 347 279 436 453 701 257 463 154 457 1547 150 631
leaf_count=553 574 393 194 234 405 663 570 838 139 456 54 413 436 539 158 237 186 259 347 279 436 453 701 257 463 154 457 1547 150 631
internal_value=0 0.12433 -0.110426 0.084521 -0.074111 -0.133304 0.157497 0.165188 0.0555693 -0.142845 0.190538 0.142136 -0.0422092 0.14004 0.0951302 -0.119285 -0.0580631 0.155208 -0.151867 0.210694 0.11814 -0.158172 0.0337256 0.0784354 -0.107367 -0.121619 -0.0774816 -0.165378 0.105731 0.195697
internal_weight=0 6625 6551 3011 2532 4019 3614 3221 1979 3356 1534 1687 1484 1032 704 1048 1048 798 2803 964 849 2347 1275 546 854 617 643 1894 289 685
internal_count=13176 6625 6551 3011 2532 4019 3614 3221 1979 3356 1534 1687 1484 1032 704 1048 1048 798 2803 964 849 2347 1275 546 854 617 643 1894 289 685
is_linear=0
shrinkage=0.02


Tree=20
num_leaves=31
num_cat=0
split_feature=4 3 3 4 18 5 27 15 26 5 20 25 4 26 25 6 6 4 22 27 12 6 8 6 4 17 27 24 26 26
split_gain=436162 21995.9 14600.9 9732.12 7031.03 5504.27 5306.15 5033.35 4464.92 3103.11 2390.25 1834.05 1832.93 1819.72 1745.7 1702.34 1488 1461.94 1441.1 1550.35 1316 1275.78 1247.36 1170.84 1031.62 993.001 989.824 983.01 980.557 969.204
threshold=1.0000000180025095e-35 3.9008000391212518 -2.1704258858517123 6.1176131164943 -0.12466000319823736 -4.9705191004614724 4.8096455976919374 1.0000000180025095e-35 -6.3915455693621395 12.127534153766257 0.69521338149972867 3.4553121085573841 -10.914547531813971 13.636672039454821 9.5378783892862469 11.048627031413378 -9.6749089548398768 -6.3015999063913428 -1.0000000180025095e-35 -6.2229992249667765 10.671600483416482 -6.300726351854709 0.46855878118716665 9.7905555251807765 3.5164118654188008 12.355651086168526 -3.2398658714072623 -1.1428572122272111 -2.9747429247303305 4.6839576265063538
decision_type=2 2 2 2 2 2 2 2 2 2 2 2 2 2 2 2 2 2 2 2 2 2 2 2 2 2 2 2 2 2
left_child=2 3 7 9 -3 16 10 8 12 11 -6 22 -1 20 24 29 -4 -7 19 -10 27 -14 -2 -16 -8 -22 -18 -12 -19 -5
right_child=1 4 5 15 6 17 14 -9 18 -11 13 -13 21 -15 23 -17 26 28 -20 -21 25 -23 -24 -25 -26 -27 -28 -29 -30 -31
leaf_value=-0.13781335966415861 0.033608525555358273 0.089096642884092608 -0.16355999559164047 0.1357256693279042 0.14004261318534408 -0.085155203440104063 0.10435358071348805 -0.075003399590631764 -0.12790196614376406 0.14523853267149323 0.11928563624971053 0.0087079406029212918 -0.10899242227373179 0.12688794716397922 0.090856376976576614 0.17300321946007899 -0.051126655268448368 0.0052099355213568177 -0.12392675463554871 -0.16684556945207851 0.2389736177809012 -0.064191928273599666 0.083615058029094927 0.13708087837429428 0.1643362975119447 0.1806685698215173 -0.1197303273507527 0.19119730320323811 -0.037138534327256993 0.078639745210749498
leaf_weight=470 477 679 144 255 436 152 138 703 562 110 85 609 608 150 446 256 162 399 754 1501 426 437 343 431 679 161 175 721 484 223
leaf_count=470 477 679 144 255 436 152 138 703 562 110 85 609 608 150 446 256 162 399 754 1501 426 437 343 431 679 161 175 721 484 223
internal_value=0 0.121885 -0.108259 0.0714589 0.148222 -0.0538442 0.159152 -0.124643 -0.132698 0.0428789 0.181392 0.0349996 -0.105011 0.193076 0.133169 0.131384 -0.109746 -0.0278646 -0.147589 -0.156237 0.200203 -0.0902577 0.0545259 0.113573 0.154205 0.222982 -0.0867517 0.183614 -0.0180026 0.109094
internal_weight=0 6625 6551 2273 4352 1516 3673 5035 4332 1539 1979 1429 1515 1543 1694 734 481 1035 2817 2063 1393 1045 820 877 817 587 337 806 883 478
internal_count=13176 6625 6551 2273 4352 1516 3673 5035 4332 1539 1979 1429 1515 1543 1694 734 481 1035 2817 2063 1393 1045 820 877 817 587 337 806 883 478
is_linear=0
shrinkage=0.02


Tree=21
num_leaves=31
num_cat=0
split_feature=4 3 3 4 14 5 27 15 26 25 5 26 27 23 25 5 6 4 8 8 4 26 6 6 27 18 21 6 25 27
split_gain=419010 21202.2 14060.1 8135.75 8042.51 5310.62 5008.08 4841.73 4333.7 3542.18 2536.55 2259.19 1771.78 1862.29 1705.68 1594.97 1448.51 1404.5 1291.46 1287.27 1223.26 1169.58 1142.77 1079.35 1068.97 1470.09 1058.82 1034.36 1010.25 959.363
threshold=1.0000000180025095e-35 2.8413331220286895 -2.1704258858517123 7.2408004938968533 1.0000000180025095e-35 -4.9705191004614724 7.2588292861510633 1.0000000180025095e-35 -8.9722526827684845 -2.3971368607553036 12.598222164483458 9.8564939150232469 -8.8793993204578303 1.0000000180025095e-35 2.7935430622112452 12.348631784896041 -9.6749089548398768 -6.3015999063913428 15.631452899316434 9.6250953854630907 -12.496670381025453 6.0722750144883264 9.7905555251807765 5.6556413503637257 3.571551703238208 7.6780571474668449 -7.9064335407035591 0.4499392687642621 15.108604572084278 -3.2398658714072623
decision_type=2 2 2 2 2 2 2 2 2 2 2 2 2 2 2 2 2 2 2 2 2 2 2 2 2 2 2 2 2 2
left_child=2 3 7 10 -3 16 9 8 20 -6 14 18 -10 26 27 19 -4 -7 -11 -8 -1 -21 -13 -5 25 -20 -14 -2 -17 -18
right_child=1 4 5 23 6 17 15 -9 12 11 -12 22 13 -15 -16 28 29 -19 24 21 -22 -23 -24 -25 -26 -27 -28 -29 -30 -31
leaf_value=-0.13350926807752453 0.026286823923350862 0.065988778557886582 -0.16071731237694623 0.094717084793773887 0.12236892124097207 -0.083347920704970754 0.080827029601876182 -0.073502278826828749 -0.10836124817563388 0.17678425144124554 0.13646384763376168 0.10412598654645047 -0.13899545097937538 -0.12345620081288135 0.0046688315683546186 0.16529826859239635 -0.049862446192491021 -0.01752769496811394 0.19849499922521008 0.17311719046687926 -0.084351335154837517 0.10633492883713774 0.16845982664285344 0.15936781635098424 0.17080660017541585 0.28090255650808876 -0.17059629739537521 0.075054939330480311 0.10454656976220364 -0.1174022502963032
leaf_weight=266 343 505 144 163 589 152 458 703 528 1279 96 216 653 827 584 385 162 883 203 154 848 329 226 282 156 151 1210 353 153 175
leaf_count=266 343 505 144 163 589 152 458 703 528 1279 96 216 653 827 584 385 162 883 203 154 848 329 226 282 156 151 1210 353 153 175
internal_value=0 0.119463 -0.10611 0.0613501 0.141491 -0.0527126 0.150361 -0.122188 -0.130088 0.165994 0.0373095 0.177511 -0.141858 -0.148433 0.0298729 0.120553 -0.107622 -0.027194 0.187515 0.104849 -0.0960892 0.127628 0.137021 0.135687 0.214425 0.233646 -0.15952 0.0510212 0.148021 -0.084935
internal_weight=0 6625 6551 1821 4804 1516 4299 5035 4332 2820 1376 2231 3218 2690 1280 1479 481 1035 1789 941 1114 483 442 445 510 354 1863 696 538 337
internal_count=13176 6625 6551 1821 4804 1516 4299 5035 4332 2820 1376 2231 3218 2690 1280 1479 481 1035 1789 941 1114 483 442 445 510 354 1863 696 538 337
is_linear=0
shrinkage=0.02


Tree=22
num_leaves=31
num_cat=0
split_feature=3 6 6 5 3 4 3 3 5 4 7 26 12 27 20 5 25 7 4 25 24 13 6 17 27 7 27 17 3 26
split_gain=402678 19694 12320.9 7536.97 5763.05 4741.65 3637.86 3301.18 2676.38 2598.98 2592.29 1828.01 1769.56 1912.48 1634 1624.41 1599.47 1536.77 1442.95 1329.21 1306.58 1547.24 1229.88 1159.38 1164.69 1139.27 1106.13 1101.9 1037.56 970.142
threshold=1.0000000180025095e-35 3.8785810387198896 -3.6709921477106549 3.0967058927235955 -3.2603950695793027 8.1054553042173154 -8.3930482365668784 9.8061956498516736 12.127534153766257 -6.8170176179356021 9.0780300774970488 6.523827654658791 4.5742748262401234 7.9234395734681158 0.88182115647463821 -2.1704258858517123 -7.5691020835205389 -2.2577456716633661 1.954660385925022 18.397499906464489 5.408518912475091 1.6303313544001183 12.127534153766257 -1.0000000180025095e-35 -8.8793993204578303 -5.8432337474405633 -5.0012398801009113 11.235352916945919 7.3821640827713271 -8.4020451591703296
decision_type=2 2 2 2 2 2 2 2 2 2 2 2 2 2 2 2 2 2 2 2 2 2 2 2 2 2 2 2 2 2
left_child=2 3 6 18 17 7 23 8 11 -8 20 22 -7 14 -14 26 -11 29 -2 -10 21 -5 -3 24 -1 -18 -6 -16 -12 -4
right_child=1 5 4 10 15 12 9 -9 19 16 28 -13 13 -15 27 -17 25 -19 -20 -21 -22 -23 -24 -25 -26 -27 -28 -29 -30 -31
leaf_value=-0.1159438074459444 0.015549330143533293 0.091044981673018624 -0.072983386840779277 0.070599411145275376 -0.01930454822140746 0.13030696086864918 -0.12897922054037481 0.15175029783090696 0.16862995088195021 -0.056200123245383649 0.11181849951233183 0.049821576883585399 0.12539465396712798 0.1415630563278322 0.21004618171685518 -0.013069432223770801 -0.12988879932008765 -0.061764018535511951 0.06071643527021392 0.059437839612364769 0.044851590677054694 0.14000468452760984 0.16868536960152747 -0.089831771618732209 -0.15698898763392583 -0.081046766443965745 -0.088214316028752363 0.16711667312525033 0.17720468789304888 -0.12265353793099182
leaf_weight=343 685 393 207 282 144 550 1147 778 256 434 175 403 156 581 673 656 364 365 482 54 229 236 103 143 1427 402 264 371 218 655
leaf_count=343 685 393 207 282 144 550 1147 778 256 434 175 403 156 581 673 656 364 365 482 54 229 236 103 143 1427 402 264 371 218 655
internal_value=0 0.11711 -0.104024 0.0699335 -0.0666222 0.142314 -0.124138 0.119614 0.0989349 -0.107452 0.106509 0.0814609 0.161664 0.171348 0.185769 -0.0325583 -0.086876 -0.096161 0.0342045 0.149609 0.0846334 0.10222 0.107168 -0.144609 -0.149035 -0.104256 -0.0638932 0.194791 0.148089 -0.110726
internal_weight=0 6625 6551 2307 2291 4318 4260 1987 1209 2347 1140 899 2331 1781 1200 1064 1200 1227 1167 310 747 518 496 1913 1770 766 408 1044 393 862
internal_count=13176 6625 6551 2307 2291 4318 4260 1987 1209 2347 1140 899 2331 1781 1200 1064 1200 1227 1167 310 747 518 496 1913 1770 766 408 1044 393 862
is_linear=0
shrinkage=0.02


Tree=23
num_leaves=31
num_cat=0
split_feature=4 3 3 4 18 5 27 15 26 5 20 25 26 27 23 25 6 26 7 4 8 4 8 6 6 13 21 22 4 21
split_gain=386916 19703.7 13038.8 8741.91 6333.53 4965.33 4881.46 4519.87 4122.08 2828.33 2205.92 1722.29 1702.85 1678.71 1779.38 1641.37 1579.67 1397.18 1306.97 1288.43 1175.81 1171.33 1126.15 1099.32 1098.97 1015.34 1026.64 1051.55 968.313 938.277
threshold=1.0000000180025095e-35 3.9008000391212518 -2.1704258858517123 6.1176131164943 -0.12466000319823736 -4.9705191004614724 4.8096455976919374 1.0000000180025095e-35 -8.9722526827684845 12.127534153766257 0.69521338149972867 3.4553121085573841 13.636672039454821 -8.8793993204578303 1.0000000180025095e-35 9.5378783892862469 11.048627031413378 -7.2417143679021487 0.63244537792388 -6.0128217033399736 16.314689530509536 -12.496670381025453 0.46855878118716665 -9.516253034674758 9.7905555251807765 -0.25835029756166705 -7.9064335407035591 -1.0000000180025095e-35 3.5164118654188008 -0.31726885596708582
decision_type=2 2 2 2 2 2 2 2 2 2 2 2 2 2 2 2 2 2 2 2 2 2 2 2 2 2 2 2 2 2
left_child=2 3 7 9 -3 17 10 8 21 11 -6 22 18 -10 25 28 -5 -4 -12 -7 -20 -1 -2 -19 -17 26 -15 -28 -8 -21
right_child=1 4 5 16 6 19 15 -9 13 -11 12 -13 -14 14 -16 24 -18 23 20 29 -22 -23 -24 -25 -26 -27 27 -29 -30 -31
leaf_value=-0.12854402907808921 0.031504414797783979 0.083604021404152504 -0.05536152073935955 0.10238917039471551 0.13170224413053569 -0.077485268548605227 0.097272373693927702 -0.070412598675289775 -0.10395905606109988 0.13770248021381187 0.35005583763122561 0.0069793561155401616 0.11862223155399164 -0.13123314543055645 -0.11854966576007323 0.084162467577465441 0.16395332800340839 -0.18041945427937328 0.17556898020972625 0.0037732860769981737 0.21664252558296934 -0.080440832933604295 0.079019112313823345 -0.10171974039697197 0.12894583368411378 -0.25222806459519925 -0.16818272642308046 -0.098112972854606573 0.15538553663714624 -0.037746960168937221
leaf_weight=266 477 679 160 478 436 163 138 703 528 110 20 609 150 642 827 446 256 106 984 452 389 848 343 215 431 41 1087 93 679 420
leaf_count=266 477 679 160 478 436 163 138 703 528 110 20 609 150 642 827 446 256 106 984 452 389 848 343 215 431 41 1087 93 679 420
internal_value=0 0.114793 -0.101969 0.0670668 0.13972 -0.0505477 0.150093 -0.117452 -0.125085 0.0399798 0.171425 0.0324574 0.18265 -0.136564 -0.142964 0.125173 0.123861 -0.103643 0.189544 -0.0258728 0.187206 -0.0919269 0.0513795 -0.127708 0.106171 -0.153801 -0.151587 -0.16266 0.14557 -0.016225
internal_weight=0 6625 6551 2273 4352 1516 3673 5035 4332 1539 1979 1429 1543 3218 2690 1694 734 481 1393 1035 1373 1114 820 321 877 1863 1822 1180 817 872
internal_count=13176 6625 6551 2273 4352 1516 3673 5035 4332 1539 1979 1429 1543 3218 2690 1694 734 481 1393 1035 1373 1114 820 321 877 1863 1822 1180 817 872
is_linear=0
shrinkage=0.02


Tree=24
num_leaves=31
num_cat=0
split_feature=3 5 6 3 3 6 3 27 16 26 20 26 4 26 25 4 27 13 4 7 27 25 8 27 4 8 26 4 6 26
split_gain=371788 18381.5 11511.9 7801.2 5321.01 4612.48 3849.81 3460.06 3085.72 2269.38 1933.73 2587.94 1775.43 1658.77 2028.45 1636.98 1556.22 2246.6 1494.67 1433.79 1404.39 1337.8 1085.23 1082.87 1078.66 956.987 925.707 919.689 834.986 830.485
threshold=1.0000000180025095e-35 3.648359441176185 -3.6709921477106549 5.2638044225266265 -3.2603950695793027 9.9771212900921089 5.9431943190190148 -9.4852287248240064 -0.40709852295374482 -12.005662665031474 0.60739899228299798 5.637732589287503 1.5791293501888259 12.775800504440417 -2.1119334721807244 17.379370972983896 2.7883489960443124 2.2951715472001788 -2.5521504679535636 -2.2577456716633661 3.8202634999947711 -9.9016329469872648 8.6992268511086817 4.8096455976919374 4.0058100034404527 13.467896622010446 -8.4020451591703296 -2.3694777949298111 8.471416718562752 2.1651341164543476
decision_type=2 2 2 2 2 2 2 2 2 2 2 2 2 2 2 2 2 2 2 2 2 2 2 2 2 2 2 2 2 2
left_child=2 3 7 12 19 6 16 27 9 -9 -8 -12 -2 14 -7 22 17 -3 -6 26 25 -11 -5 -23 -18 -16 -4 -1 29 -14
right_child=1 5 4 15 18 13 10 8 -10 21 11 -13 28 -15 20 -17 24 -19 -20 -21 -22 23 -24 -25 -26 -27 -28 -29 -30 -31
leaf_value=-0.094744263308148821 0.013293029638396044 0.074378618528927062 -0.069388514444375965 0.084885081392980746 -0.062681977159924823 0.097640327001792301 0.10048115148408776 -0.091567532783950009 -0.085077492374926802 -0.11074891660978589 0.18289115581964527 0.12003837571715451 0.065744732084302482 0.12079579063540508 0.17775092971088569 0.18448792549708615 0.026931580068919755 0.15665854019951844 -0.01329628656376919 -0.058963702608461253 0.1550717836025694 -0.15711653378166435 0.13809650120164815 -0.11472674787603319 0.087170989870966678 0.22614017115270038 -0.1179078278648205 -0.042675292145960581 0.1006289862704326 0.014382197942565842
leaf_weight=786 685 294 207 452 383 151 387 372 535 390 547 503 349 377 476 115 203 242 681 365 730 1733 232 280 287 249 655 164 149 197
leaf_count=786 685 294 207 452 383 151 387 372 535 390 547 503 349 377 476 115 203 242 681 365 730 1733 232 280 287 249 655 164 149 197
internal_value=0 0.112525 -0.0999577 0.0649381 -0.0638048 0.135847 0.117568 -0.1194 -0.129057 -0.137536 0.138697 0.152782 0.0361432 0.15855 0.167412 0.114672 0.0879765 0.111527 -0.0310733 -0.0921881 0.174653 -0.144652 0.102933 -0.15122 0.0622147 0.19437 -0.106256 -0.0857555 0.0586646 0.0472128
internal_weight=0 6625 6551 2179 2291 4446 2463 4260 3310 2775 1437 1050 1380 1983 1606 799 1026 536 1064 1227 1455 2403 684 2013 490 725 862 950 695 546
internal_count=13176 6625 6551 2179 2291 4446 2463 4260 3310 2775 1437 1050 1380 1983 1606 799 1026 536 1064 1227 1455 2403 684 2013 490 725 862 950 695 546
is_linear=0
shrinkage=0.02


Tree=25
num_leaves=31
num_cat=0
split_feature=4 3 3 4 14 5 27 17 26 25 5 26 4 25 5 26 6 8 8 4 6 26 6 4 27 18 7 6 25 26
split_gain=357274 18272.3 12124.5 7081.09 7035.47 4636.33 4524.87 4244.72 4046.9 3129.54 2228.98 2041.7 1648.42 1579.55 1463.6 1345.28 1202.11 1195.68 1186.78 1183.39 1117.42 1105.61 1063.74 1021.06 1014.55 1475.07 1004.55 1073.03 956.093 925.064
threshold=1.0000000180025095e-35 2.8413331220286895 -2.1704258858517123 7.2408004938968533 1.0000000180025095e-35 -4.9705191004614724 7.2588292861510633 -1.0000000180025095e-35 -6.3915455693621395 -2.3971368607553036 12.598222164483458 9.8564939150232469 -12.233509809379401 2.7935430622112452 12.348631784896041 -3.7288435641711435 -9.516253034674758 15.631452899316434 9.6250953854630907 -6.3015999063913428 -6.300726351854709 6.0722750144883264 9.7905555251807765 -22.587715278479831 3.4493578443004616 7.6780571474668449 17.854106616767535 22.893569847311742 15.108604572084278 -2.9747429247303305
decision_type=2 2 2 2 2 2 2 2 2 2 2 2 2 2 2 2 2 2 2 2 2 2 2 2 2 2 2 2 2 2
left_child=2 3 7 10 -3 15 9 8 12 -6 13 17 -1 -2 18 -4 -17 -11 -8 -7 -14 -20 -13 -10 25 -19 27 -5 -16 -21
right_child=1 4 5 26 6 19 14 -9 23 11 -12 22 20 -15 28 16 -18 24 21 29 -22 -23 -24 -25 -26 -27 -28 -29 -30 -31
leaf_value=-0.13058793085106188 0.047307745972721443 0.060136522281831965 -0.06534486410645847 0.10151374527663436 0.11290410782308563 -0.076104324659038533 0.072607580924561196 -0.074439860794102933 -0.17883589551415086 0.16392003368417368 0.12687617961045666 0.094506069856807123 -0.099843815622488188 0.0027020014340396054 0.15383669415021969 -0.20038307782721845 -0.10368589651717366 0.18427117570684168 0.16177239502090718 0.0068592184606267323 -0.058991610760179655 0.096842225569563622 0.15657537039600114 -0.13303743909791962 0.15841679697297514 0.26745963640206932 0.19038591775524466 0.2263514389594396 0.094735653113111176 -0.034273475403507815
leaf_weight=395 696 505 234 336 589 152 458 934 212 1279 96 216 649 584 385 73 174 203 154 399 456 329 226 2389 160 147 79 30 153 484
leaf_count=395 696 505 234 336 589 152 458 934 212 1279 96 216 649 584 385 73 174 203 154 399 456 329 226 2389 160 147 79 30 153 484
internal_value=0 0.110304 -0.0979892 0.0563558 0.130754 -0.0484033 0.13905 -0.112919 -0.121683 0.153909 0.0339275 0.164735 -0.0955207 0.0269564 0.110717 -0.099709 -0.132264 0.174245 0.095673 -0.0245598 -0.0829853 0.117545 0.126243 -0.13677 0.200138 0.21921 0.125707 0.111746 0.137029 -0.0156869
internal_weight=0 6625 6551 1821 4804 1516 4299 5035 4101 2820 1376 2231 1500 1280 1479 481 247 1789 941 1035 1105 483 442 2601 510 350 445 366 538 883
internal_count=13176 6625 6551 1821 4804 1516 4299 5035 4101 2820 1376 2231 1500 1280 1479 481 247 1789 941 1035 1105 483 442 2601 510 350 445 366 538 883
is_linear=0
shrinkage=0.02


Tree=26
num_leaves=31
num_cat=0
split_feature=3 6 6 3 3 27 25 3 5 4 25 4 7 25 5 7 22 26 14 23 12 24 27 22 5 6 27 17 27 7
split_gain=343247 17148.6 10754.5 7712.86 4926.6 4170.98 4351.49 3307.42 2580.9 2348.43 2006.77 1934.11 1933.22 1488.14 1386.8 1345.11 1335.9 1313.25 1222.53 1137.87 1238.48 1122.09 1312.47 1143.45 1111.93 1107.21 1051.81 1048.44 1047.31 1043.37
threshold=1.0000000180025095e-35 4.717511840074903 -3.6709921477106549 5.5520566278145971 -3.2603950695793027 8.1144784313941773 -2.1119334721807244 -8.3930482365668784 4.7199613118681691 -6.8170176179356021 17.078029594772371 9.4442585650811068 8.7029748080067222 -7.5691020835205389 -2.1704258858517123 -2.2577456716633661 24.176996554400091 1.1669241016299179 1.1946339867843541 20.819138641610873 2.5167178467966198 1.1675471709113661 1.709028438556216 -2.1737845353499581 15.612397587265152 0.52231185681858128 -5.0012398801009113 -1.0000000180025095e-35 -8.8793993204578303 -5.8432337474405633
decision_type=2 2 2 2 2 2 2 2 2 2 2 2 2 2 2 2 2 2 2 2 2 2 2 2 2 2 2 2 2 2
left_child=2 3 7 8 15 6 18 27 17 -9 16 24 -5 -11 26 -4 19 25 -3 20 -8 23 -23 -22 -7 -2 -6 28 -1 -15
right_child=1 5 4 12 14 11 10 9 -10 13 -12 -13 -14 29 -16 -17 -18 -19 -20 -21 21 22 -24 -25 -26 -27 -28 -29 -30 -31
leaf_value=-0.10718813565377765 0.021459641032483958 0.068224972723471708 -0.102041678188991 0.08957416636078451 -0.015081730447903586 0.071470827708904769 0.13271509804985429 -0.11939276191176978 0.082075054040988499 -0.049781329211143754 0.10431872115776597 0.1332808209515613 0.14593934438331629 -0.12066488445870914 -0.011602031844966228 -0.056234761994127948 0.09435713128389224 -0.00728579783759344 0.12692080643343517 0.10551912773245326 0.25829582519256156 0.22383435967501508 0.17727501397501974 0.14453788941316009 0.13151200097770643 0.06860687323814206 -0.082278148216957392 -0.082268241559760966 -0.14611022095123466 -0.073923639312215073
leaf_weight=343 520 264 862 610 144 590 226 1147 460 434 216 557 405 364 656 365 92 335 307 96 39 378 674 377 156 323 264 143 1427 402
leaf_count=343 520 264 862 610 144 590 226 1147 460 434 216 557 405 364 656 365 92 335 307 96 39 378 674 377 156 323 264 143 1427 402
internal_value=0 0.108116 -0.0960474 0.0687442 -0.0611042 0.134414 0.148734 -0.11484 0.0419004 -0.0989297 0.162056 0.105081 0.112065 -0.0793703 -0.0296091 -0.0884153 0.168683 0.0262125 0.099783 0.172503 0.176299 0.183009 0.194005 0.155203 0.0840264 0.0395244 -0.0585618 -0.134359 -0.138568 -0.0961349
internal_weight=0 6625 6551 2653 2291 3972 2669 4260 1638 2347 2098 1303 1015 1200 1064 1227 1882 1178 571 1790 1694 1468 1052 416 746 843 408 1913 1770 766
internal_count=13176 6625 6551 2653 2291 3972 2669 4260 1638 2347 2098 1303 1015 1200 1064 1227 1882 1178 571 1790 1694 1468 1052 416 746 843 408 1913 1770 766
is_linear=0
shrinkage=0.02


Tree=27
num_leaves=31
num_cat=0
split_feature=4 3 3 4 18 27 5 15 26 5 20 4 25 26 25 6 6 7 22 27 6 8 4 6 8 26 13 4 26 26
split_gain=329955 16966.7 11233 7608.1 5522.79 4365.31 4334.09 3961.62 3738.39 2514.42 1961.02 1593.4 1579.85 1548.97 1527.31 1421.93 1290.81 1271.08 1232.06 1285.47 1153.85 1099.44 1082.02 1017.37 1000.22 907.339 1405.38 893.043 889.08 872.817
threshold=1.0000000180025095e-35 3.9008000391212518 -2.1704258858517123 6.1176131164943 -0.12466000319823736 4.8096455976919374 -4.9705191004614724 1.0000000180025095e-35 -6.3915455693621395 12.127534153766257 0.69521338149972867 -10.914547531813971 3.4553121085573841 13.636672039454821 9.5378783892862469 11.048627031413378 -9.6749089548398768 0.63244537792388 -1.0000000180025095e-35 -6.2229992249667765 -11.925980775155443 16.314689530509536 -6.3015999063913428 9.7905555251807765 0.46855878118716665 4.6839576265063538 2.4000890748776977 3.5164118654188008 -2.9747429247303305 -3.7288435641711435
decision_type=2 2 2 2 2 2 2 2 2 2 2 2 2 2 2 2 2 2 2 2 2 2 2 2 2 2 2 2 2 2
left_child=2 3 7 9 -3 10 16 8 11 12 -6 -1 24 17 27 25 29 -12 19 -10 -13 -19 -8 -16 -2 26 -5 -7 -24 -4
right_child=1 4 6 15 5 14 22 -9 18 -11 13 20 -14 -15 23 -17 -18 21 -20 -21 -22 -23 28 -25 -26 -27 -28 -29 -30 -31
leaf_value=-0.12093897818792811 0.028741426348424592 0.076728972303893681 -0.098280889667771959 0.067874522209167482 0.12153647387265698 0.088544030752626887 -0.072678279218656064 -0.06450435845430405 -0.11151011767345598 0.12858258531869135 0.33444099235534663 -0.11220472284834143 0.0049479266666090016 0.10850668242474397 0.075745404346518733 0.15273293156322326 -0.074632507902487155 0.16258974822530547 -0.10743629909031567 -0.14697127080093114 -0.064194974101887597 0.20230687607300005 0.0071966266738254349 0.11883402641542827 0.073520936924345123 0.064857715445616582 0.16230982294028745 0.1443528572604916 -0.033128112711701234 -0.1967971820490701
leaf_weight=470 477 679 74 114 436 138 152 703 562 110 20 270 609 150 446 256 337 984 754 1501 775 389 399 431 343 223 141 679 484 70
leaf_count=470 477 679 74 114 436 138 152 703 562 110 20 270 609 150 446 256 337 984 754 1501 775 389 399 431 343 223 141 679 484 70
internal_value=0 0.105999 -0.0941724 0.0617118 0.12913 0.138817 -0.0464442 -0.108543 -0.11569 0.0364423 0.15899 -0.0903549 0.0293496 0.169573 0.115251 0.114695 -0.0960494 0.176148 -0.129315 -0.137311 -0.0765994 0.173842 -0.023391 0.0969212 0.0474724 0.0943235 0.120092 0.134926 -0.0149066 -0.146171
internal_weight=0 6625 6551 2273 4352 3673 1516 5035 4332 1539 1979 1515 1429 1543 1694 734 481 1393 2817 2063 1045 1373 1035 877 820 478 255 817 883 144
internal_count=13176 6625 6551 2273 4352 3673 1516 5035 4332 1539 1979 1515 1429 1543 1694 734 481 1393 2817 2063 1045 1373 1035 877 820 478 255 817 883 144
is_linear=0
shrinkage=0.02


Tree=28
num_leaves=31
num_cat=0
split_feature=4 3 3 4 14 5 25 17 26 5 25 27 4 25 6 26 23 27 6 6 7 4 5 23 27 6 5 26 25 27
split_gain=316977 16358.3 10818.4 6439.31 6373.06 4182.95 4134.73 3825.14 3740.71 2443.96 2347.19 2895.21 1539.17 1522.16 1310.04 1270.75 1133.53 1356.84 1131.55 1051.91 1051.12 1040.22 1007.18 1049.94 1395.84 939.23 908.57 899.015 893.425 855.211
threshold=1.0000000180025095e-35 2.8413331220286895 -2.1704258858517123 9.6082421280511152 1.0000000180025095e-35 -4.9705191004614724 11.434945646266703 -1.0000000180025095e-35 -6.3915455693621395 10.788748092180082 -2.3971368607553036 5.6327606897193201 -12.233509809379401 2.7935430622112452 9.0537846464863154 -3.7288435641711435 2.6086507532538623 1.500530469599701 -9.516253034674758 -6.300726351854709 2.9744587280184263 -6.0128217033399736 -0.25851734330320292 1.0000000180025095e-35 -8.1421440642180922 0.4499392687642621 12.598222164483458 13.636672039454821 9.699144183029885 -1.4993480097394918
decision_type=2 2 2 2 2 2 2 2 2 2 2 2 2 2 2 2 2 2 2 2 2 2 2 2 2 2 2 2 2 2
left_child=2 3 7 9 -3 15 10 8 12 13 -6 16 -1 25 -8 -4 -12 20 -17 -14 -18 -7 23 24 -10 -2 -13 -19 -11 -23
right_child=1 4 5 -5 6 21 14 -9 22 28 11 26 19 -15 -16 18 17 27 -20 -21 -22 29 -24 -25 -26 -27 -28 -29 -30 -31
leaf_value=-0.12345703171033272 0.022326042050342287 0.056030780127696175 -0.060797550365882018 0.132938299181455 0.10631074268120223 -0.069191246701095915 0.073895222438379038 -0.069877465374815179 -0.10264058960468088 0.14592525785487862 0.14888535141407136 0.10717495350056284 -0.09381583841233436 0.0027723581570229341 0.11823775505155486 -0.19192612474911833 0.32017590264479318 0.17296837369536841 -0.098109713495634063 -0.054179281247861422 0.20144447326227544 0.0059800789848464975 -0.232833293128658 -0.10497602599594355 -0.14380819568619577 0.067872978545845189 0.14744925222426489 0.10151247023818005 0.05004145245242398 -0.033638082620010841
leaf_weight=395 352 505 234 329 589 163 511 934 420 99 801 588 649 604 557 73 33 465 174 456 310 429 37 616 1528 373 362 83 64 443
leaf_count=395 352 505 234 329 589 163 511 934 420 99 801 588 649 604 557 73 33 465 174 456 310 429 37 616 1528 373 362 83 64 443
internal_value=0 0.103893 -0.0923026 0.0528478 0.123242 -0.0454635 0.131137 -0.106405 -0.114725 0.0351871 0.142414 0.150463 -0.0895718 0.0262226 0.0970214 -0.0941961 0.16615 0.181672 -0.125837 -0.077459 0.212868 -0.0228158 -0.12923 -0.127735 -0.134932 0.0457592 0.122522 0.162146 0.108278 -0.014147
internal_weight=0 6625 6551 1821 4804 1516 4299 5035 4101 1492 3231 2642 1500 1329 1068 481 1692 891 247 1105 343 1035 2601 2564 1948 725 950 548 163 872
internal_count=13176 6625 6551 1821 4804 1516 4299 5035 4101 1492 3231 2642 1500 1329 1068 481 1692 891 247 1105 343 1035 2601 2564 1948 725 950 548 163 872
is_linear=0
shrinkage=0.02


Tree=29
num_leaves=31
num_cat=0
split_feature=3 5 6 3 3 6 3 27 16 26 20 26 4 26 25 4 27 13 5 7 25 27 27 27 9 4 8 4 6 12
split_gain=304531 15470.6 9720.53 6522.25 4379.97 3992.65 3268.49 3100.12 2714.26 2015.95 1703.27 2297.5 1469.77 1451.14 1833.05 1429.84 1421.54 1985.03 1239.99 1234.93 1219.62 1208.19 1052.95 1015.82 983.289 940.389 887.43 849.115 820.366 795.995
threshold=1.0000000180025095e-35 3.648359441176185 -3.6709921477106549 5.2638044225266265 -3.3571099793366161 9.9771212900921089 5.9431943190190148 -9.4852287248240064 -0.40709852295374482 -12.005662665031474 0.60739899228299798 5.637732589287503 17.839691239366356 12.775800504440417 -2.1119334721807244 1.5791293501888259 2.7883489960443124 2.2951715472001788 -2.1704258858517123 -11.639950096717737 -9.9016329469872648 3.8202634999947711 -5.0012398801009113 4.8096455976919374 4.8948488039960578 4.0058100034404527 13.467896622010446 -6.8170176179356021 -13.213384160283557 19.001903996063067
decision_type=2 2 2 2 2 2 2 2 2 2 2 2 2 2 2 2 2 2 2 2 2 2 2 2 2 2 2 2 2 2
left_child=2 3 7 15 19 6 16 28 9 -9 -8 -12 24 14 -7 -2 17 -3 22 -4 -11 26 -6 -22 -5 -18 -16 -21 -1 -19
right_child=1 5 4 12 18 13 10 8 -10 20 11 -13 -14 -15 21 -17 25 29 -20 27 23 -23 -24 -25 -26 -27 -28 -29 -30 -31
leaf_value=-0.10488239831691445 0.011340363809057124 0.066544940564306265 -0.12036719800167375 0.06811673308571195 -0.012509265027195215 0.086313148626428568 0.089823470311001727 -0.082106552608198519 -0.076232550743445066 -0.099768272135764932 0.16727829231647348 0.10805738017111129 0.1722631061560026 0.10903819142882799 0.16180696452686077 0.05205740343688204 0.021389407640956159 0.13185146922536126 -0.010940736213891016 -0.096198021016258919 -0.1441215393104549 0.14136069395576847 -0.078686669147364899 -0.10306501275008279 0.11586894033471522 0.07763556164559561 0.20840448792440344 -0.057082661543874584 -0.064325731500563088 0.25320682058731714
leaf_weight=285 685 294 278 332 150 151 387 372 535 390 547 503 108 377 476 695 203 218 662 364 1733 730 268 280 359 287 249 569 665 24
leaf_count=285 685 294 278 332 150 151 387 372 535 390 547 503 108 377 476 695 203 218 662 364 1733 730 268 280 359 287 249 569 665 24
internal_value=0 0.101832 -0.0904735 0.0581754 -0.0572525 0.123228 0.106222 -0.10834 -0.11748 -0.125432 0.125689 0.138909 0.10365 0.14435 0.15264 0.0318464 0.0789554 0.101464 -0.0279696 -0.0833676 -0.132139 0.159523 -0.0549388 -0.138411 0.0929258 0.0543336 0.177811 -0.0723431 -0.0764927 0.143887
internal_weight=0 6625 6551 2179 2291 4446 2463 4260 3310 2775 1437 1050 799 1983 1606 1380 1026 536 1080 1211 2403 1455 418 2013 691 490 725 933 950 242
internal_count=13176 6625 6551 2179 2291 4446 2463 4260 3310 2775 1437 1050 799 1983 1606 1380 1026 536 1080 1211 2403 1455 418 2013 691 490 725 933 950 242
is_linear=0
shrinkage=0.02


Tree=30
num_leaves=31
num_cat=0
split_feature=4 3 3 4 14 25 5 12 26 25 27 5 27 23 25 25 27 26 13 12 17 9 6 5 27 6 6 25 22 6
split_gain=292697 15147 10062.5 6043.59 5931.6 3956.44 3903.48 3613.83 3247.22 2293.07 2467.77 2277.1 1797.02 1966.18 1496.07 1461.49 1359.96 1218.44 1159.36 1097.26 1245.85 1181.46 1089.73 996.869 995.97 970.491 875.095 863.65 827.775 824.511
threshold=1.0000000180025095e-35 2.8413331220286895 -2.1704258858517123 9.6082421280511152 1.0000000180025095e-35 10.616092787065606 -4.9705191004614724 -0.50343689428752836 -12.536304703121578 -2.3971368607553036 6.8068557680943842 10.788748092180082 -9.2925428139296962 0.099020964927104924 -9.9016329469872648 2.7935430622112452 3.2298779792650616 -3.7288435641711435 -0.25835029756166705 10.671600483416482 12.355651086168526 5.3369489187646417 -9.516253034674758 12.598222164483458 -2.5290396559924688 9.7905555251807765 0.4499392687642621 9.699144183029885 -1.0000000180025095e-35 4.4615470286311645
decision_type=2 2 2 2 2 2 2 2 2 2 2 2 2 2 2 2 2 2 2 2 2 2 2 2 2 2 2 2 2 2
left_child=2 3 7 11 -3 9 17 8 -1 -6 19 15 -10 14 -14 26 29 -4 28 -11 21 -21 -19 -12 -8 -18 -2 -13 -16 -7
right_child=1 4 6 -5 5 16 24 -9 12 10 23 27 13 -15 18 -17 25 22 -20 20 -22 -23 -24 -25 -26 -27 -28 -29 -30 -31
leaf_value=-0.069669245757844667 0.02147430628845045 0.053608676788424799 -0.057899925119699276 0.12830303495274262 0.10222842234631144 0.069044261455535882 -0.00051195778543740083 -0.058292779534711292 -0.085731490770752858 0.14634367780973967 0.099232179921953489 0.14116941276523803 -0.099795122220626725 -0.098614043687157163 -0.14289062492400348 0.0019717610627326063 0.065760314838157918 -0.18644322481873918 -0.24441897864951645 0.14143255831922094 0.13761580529407813 0.21360295880465738 -0.094376716636463825 0.14566427916238034 -0.039859552528816379 0.10559909834223849 0.065438668748798307 0.046896884267916904 -0.084327277726340064 0.16712227436299956
leaf_weight=710 352 505 234 329 589 45 479 650 633 1053 493 99 422 934 1540 604 502 73 43 120 208 372 174 296 556 477 373 64 103 144
leaf_count=710 352 505 234 329 589 45 479 650 633 1053 493 99 422 934 1540 604 502 73 43 120 208 372 174 296 556 477 373 64 103 144
internal_value=0 0.0998312 -0.0887006 0.0507125 0.11845 0.126067 -0.0435275 -0.102302 -0.108825 0.137786 0.146025 0.033603 -0.11639 -0.12277 -0.133473 0.02495 0.0946533 -0.0906039 -0.141902 0.159245 0.178652 0.196 -0.121587 0.116652 -0.0216494 0.085171 0.0440932 0.104154 -0.139219 0.14377
internal_weight=0 6625 6551 1821 4804 4299 1516 5035 4385 3131 2542 1492 3675 3042 2108 1329 1168 481 1686 1753 700 492 247 789 1035 979 725 163 1643 189
internal_count=13176 6625 6551 1821 4804 4299 1516 5035 4385 3131 2542 1492 3675 3042 2108 1329 1168 481 1686 1753 700 492 247 789 1035 979 725 163 1643 189
is_linear=0
shrinkage=0.02


Tree=31
num_leaves=31
num_cat=0
split_feature=4 3 3 4 17 26 4 12 26 5 27 23 25 20 27 25 25 3 12 6 24 27 13 22 5 7 22 8 26 13
split_gain=281191 14592.7 9693.78 6625.1 4798.45 3805.4 3799.86 3485.5 3146.33 2232.1 1739.36 1902.87 1625.38 1739.58 1585.7 1449.14 1439.43 1433.15 1377.64 1303.24 1191.99 1139.11 1125.4 1081.79 1035.32 998.135 925.474 881.528 857.253 1304.26
threshold=1.0000000180025095e-35 3.9008000391212518 -2.1704258858517123 6.1176131164943 1.0000000180025095e-35 9.8564939150232469 -4.5113508145657946 -0.50343689428752836 -12.536304703121578 12.127534153766257 -9.2925428139296962 0.099020964927104924 19.794341625990295 0.69521338149972867 4.8096455976919374 -9.9016329469872648 3.4553121085573841 8.86335923225427 7.8390298063225154 11.048627031413378 -1.1428572122272111 -1.4993480097394918 -0.25835029756166705 -0.18291509689870286 -6.8170176179356021 -3.1407409047534425 0.21559958302170862 0.46855878118716665 4.6839576265063538 2.4000890748776977
decision_type=2 2 2 2 2 2 2 2 2 2 2 2 2 2 2 2 2 2 2 2 2 2 2 2 2 2 2 2 2 2
left_child=2 3 7 9 -3 12 24 8 -1 16 -10 15 13 -6 18 -12 27 -7 20 28 -15 -8 -17 -20 -4 -23 -25 -2 29 -5
right_child=1 4 6 19 5 17 21 -9 10 -11 11 -13 -14 14 -16 22 -18 -19 23 -21 -22 25 -24 26 -26 -27 -28 -29 -30 -31
leaf_value=-0.068153783876343937 0.026226860423810564 0.06858381918098487 -0.11762371038703615 0.061458367931476812 0.11073794876954572 0.067635473078730066 0.00073993533136896216 -0.057069542694005833 -0.083980381277876825 0.12000885535065424 -0.097803653604858584 -0.096655950377183872 0.0808646199816071 0.068560080914883997 0.12979566732904391 -0.13660170290115781 0.0032206995684304846 0.11516856131392821 0.30284821037451426 0.14263383769546636 0.15464345718078451 -0.11124946364214722 -0.24024921409612479 0.063103993065082117 -0.060898356157537366 -0.029953058301850605 0.18481218952555442 0.068265511135926396 0.058074207423346728 0.15243308165183306
leaf_weight=710 477 637 234 114 484 429 520 650 633 110 422 934 170 74 744 1643 609 621 30 256 493 71 43 26 286 405 644 343 223 141
leaf_count=710 477 637 234 114 484 429 520 650 633 110 422 934 170 74 744 1643 609 621 30 256 493 71 43 26 286 405 644 343 223 141
internal_value=0 0.0978483 -0.0869405 0.056776 0.1193 0.127996 -0.0426028 -0.10029 -0.106697 0.0331954 -0.114143 -0.12042 0.140702 0.144779 0.152972 -0.130949 0.0265127 0.0957479 0.166581 0.106218 0.143409 -0.0197238 -0.139245 0.18535 -0.0864248 -0.0420792 0.180089 0.0438113 0.0867152 0.111762
internal_weight=0 6625 6551 2273 4352 3715 1516 5035 4385 1539 3675 3042 2665 2495 2011 2108 1429 1050 1267 734 567 996 1686 700 520 476 670 820 478 255
internal_count=13176 6625 6551 2273 4352 3715 1516 5035 4385 1539 3675 3042 2665 2495 2011 2108 1429 1050 1267 734 567 996 1686 700 520 476 670 820 478 255
is_linear=0
shrinkage=0.02


Tree=32
num_leaves=31
num_cat=0
split_feature=3 6 6 5 3 27 25 3 3 4 25 4 26 8 25 22 7 5 9 14 27 5 27 13 7 20 26 5 12 17
split_gain=270216 14007.4 8835.8 6195.63 3892.42 3510.97 3653.47 2857.68 2106.78 2042.55 1745.07 1670.88 1433.42 1632.4 1340.62 1218.27 1142.73 1096.4 1061.76 1052.35 1005.83 1005.54 1055.11 1125.42 981.923 972.948 1563.64 965.808 925.556 916.559
threshold=1.0000000180025095e-35 4.717511840074903 -3.6709921477106549 3.190965311822588 -3.3571099793366161 8.1144784313941773 -2.1119334721807244 -8.3930482365668784 8.86335923225427 -6.8170176179356021 17.078029594772371 9.4442585650811068 1.1669241016299179 2.5672854778249419 -11.449298430724724 24.176996554400091 -13.829176930744177 -2.1704258858517123 1.5949159727894542 1.1946339867843541 -5.0012398801009113 12.598222164483458 2.598263345044459 3.8654161730540166 -26.923769976280298 0.88182115647463821 3.0252950941330488 15.612397587265152 4.8211343153157875 -1.0000000180025095e-35
decision_type=2 2 2 2 2 2 2 2 2 2 2 2 2 2 2 2 2 2 2 2 2 2 2 2 2 2 2 2 2 2
left_child=2 3 7 12 16 6 19 29 21 -9 15 27 13 -2 -11 18 -4 20 -8 -3 -6 22 23 -5 -16 -10 -27 -7 -20 -1
right_child=1 5 4 8 17 11 10 9 25 14 -12 -13 -14 -15 24 -17 -18 -19 28 -21 -22 -23 -24 -25 -26 26 -28 -29 -30 -31
leaf_value=-0.12434112219051603 0.029579106886767462 0.058691130675177908 -0.12059101815725722 0.060782973918513478 -0.0098410414202138793 0.061502262074942311 0.096343753576150229 -0.1065574895662971 0.079803230859098892 -0.032372217615972268 0.091189619719085319 0.1189839629433912 -0.0065583745376399816 0.099655463137285558 -0.2133338433775035 0.080232392484727119 -0.069275740455690918 -0.0099379417340741058 0.13353918497146011 0.1131486574820082 -0.074520552051323116 0.11196619015672933 0.027887535095214844 0.1392102432421719 -0.078060141198588673 0.19590469399932772 0.1090261548066393 0.11745952972646756 0.16762927499229019 -0.071701465397031164
leaf_weight=1770 787 264 210 308 150 590 116 1147 155 297 216 557 338 160 22 92 1001 662 428 307 268 184 262 96 881 128 235 156 1246 143
leaf_count=1770 787 264 210 308 150 590 116 1147 155 297 216 557 338 160 22 92 1001 662 428 307 268 184 262 96 881 128 235 156 1246 143
internal_value=0 0.0959181 -0.0852287 0.0603343 -0.0535555 0.119685 0.132824 -0.102262 0.0899562 -0.0874735 0.145031 0.0927737 0.0287991 0.0414188 -0.0692324 0.15121 -0.0781743 -0.0259505 0.154859 0.0879704 -0.0513102 0.0705808 0.059147 0.0794192 -0.0813558 0.12175 0.139661 0.0732038 0.158913 -0.120406
internal_weight=0 6625 6551 2653 2291 3972 2669 4260 1368 2347 2098 1303 1285 947 1200 1882 1211 1080 1790 571 418 850 666 404 903 518 363 746 1674 1913
internal_count=13176 6625 6551 2653 2291 3972 2669 4260 1368 2347 2098 1303 1285 947 1200 1882 1211 1080 1790 571 418 850 666 404 903 518 363 746 1674 1913
is_linear=0
shrinkage=0.02


Tree=33
num_leaves=31
num_cat=0
split_feature=4 3 3 4 14 25 5 12 26 25 27 5 27 23 25 25 27 6 23 27 7 13 27 6 5 25 26 22 6 26
split_gain=259704 13557.4 8980.81 5490.76 5341.43 3652.02 3553.79 3282.17 3021.21 2081.42 2225.49 2044.68 1670.21 1810.91 1391.58 1358.54 1280.77 1159.35 1134.57 1205.57 1160.21 1094.12 930.735 909.667 840.157 824.081 819.053 805.349 795.201 784.887
threshold=1.0000000180025095e-35 2.8413331220286895 -2.1704258858517123 9.6082421280511152 1.0000000180025095e-35 10.616092787065606 -4.9705191004614724 -0.50343689428752836 -12.536304703121578 -2.3971368607553036 5.6327606897193201 10.788748092180082 -9.2925428139296962 0.099020964927104924 -9.9016329469872648 2.7935430622112452 3.2298779792650616 -9.6749089548398768 2.6086507532538623 1.500530469599701 3.1141252658159893 -0.25835029756166705 -2.5290396559924688 32.308349458753575 12.598222164483458 9.699144183029885 13.636672039454821 -1.0000000180025095e-35 0.4499392687642621 -3.7288435641711435
decision_type=2 2 2 2 2 2 2 2 2 2 2 2 2 2 2 2 2 2 2 2 2 2 2 2 2 2 2 2 2 2
left_child=2 3 7 11 -3 9 17 8 -1 -6 18 15 -10 14 -14 28 -7 29 -11 20 -20 27 -8 -18 -12 -13 -21 -16 -2 -4
right_child=1 4 6 -5 5 16 22 -9 12 10 24 25 13 -15 21 -17 23 -19 19 26 -22 -23 -24 -25 -26 -27 -28 -29 -30 -31
leaf_value=-0.064853976415470249 0.019949198649648513 0.050115333527953609 -0.087885677289419081 0.12151863385090961 0.096256900810223894 0.13635905905936846 0.00042815242621791014 -0.054464875670522453 -0.080362518656010171 0.13470220470176997 0.097462620786449933 0.13426470536851523 -0.093861390849011531 -0.092887752299940868 -0.13548641845651044 0.00090005443600470528 0.076568525782732794 -0.065501834313752755 0.31230598442140034 0.15936145980658681 0.18555732847878126 -0.23406224692630215 -0.037609013031545034 0.20664395857602358 0.13724258155020516 0.042177087677409873 0.08827199416333123 -0.077721789756301535 0.061858632685566683 -0.18130781998764725
leaf_weight=710 352 505 74 329 589 189 479 650 633 797 555 99 422 934 1540 604 957 337 32 441 297 43 556 22 344 64 76 103 373 70
leaf_count=710 352 505 74 329 589 189 479 650 633 797 555 99 422 934 1540 604 957 337 32 441 297 43 556 22 344 64 76 103 373 70
internal_value=0 0.0940317 -0.0835565 0.0475619 0.111647 0.118875 -0.0408804 -0.0964059 -0.102623 0.130133 0.137983 0.0312537 -0.10992 -0.11607 -0.126342 0.0230542 0.0886936 -0.0857988 0.151825 0.167957 0.197885 -0.134472 -0.0200053 0.0794916 0.112684 0.0981076 0.148911 -0.131865 0.0415109 -0.133299
internal_weight=0 6625 6551 1821 4804 4299 1516 5035 4385 3131 2542 1492 3675 3042 2108 1329 1168 481 1643 846 329 1686 1035 979 899 163 517 1643 725 144
internal_count=13176 6625 6551 1821 4804 4299 1516 5035 4385 3131 2542 1492 3675 3042 2108 1329 1168 481 1643 846 329 1686 1035 979 899 163 517 1643 725 144
is_linear=0
shrinkage=0.02


Tree=34
num_leaves=31
num_cat=0
split_feature=4 3 3 4 16 4 15 26 26 5 20 27 12 4 3 26 12 6 26 21 6 6 22 27 7 8 23 9 8 26
split_gain=249493 13058.9 8652.13 5975.18 4329.9 3456.33 3179.27 3153.73 3067.05 2036.45 2015.04 2103.75 1452.52 1431.19 1354.07 1341.62 1273.1 1223.79 1212.84 1096.01 1070.25 1056.82 1004.96 1039.93 934.89 892.982 932.276 873.889 873.404 844.219
threshold=1.0000000180025095e-35 3.9008000391212518 -2.1704258858517123 6.1176131164943 -0.77026691284043547 -5.2428225994689468 1.0000000180025095e-35 -6.3915455693621395 9.8564939150232469 12.127534153766257 0.69521338149972867 4.8096455976919374 10.671600483416482 -10.914547531813971 8.86335923225427 0.42404308913000244 0.19934377935219466 13.437005736548508 -2.9747429247303305 1.6127664360888365 -1.1143378280791227 -11.925980775155443 -1.0000000180025095e-35 -6.2229992249667765 -12.232959228974879 7.6207046013980166 7.3002418895100085 10.645843501664087 12.614574376138204 4.6839576265063538
decision_type=2 2 2 2 2 2 2 2 2 2 2 2 2 2 2 2 2 2 2 2 2 2 2 2 2 2 2 2 2 2
left_child=2 3 6 9 -3 24 7 13 10 15 -6 12 19 -1 -10 16 -2 29 -7 -12 -20 -15 23 -9 -4 -13 -27 -17 -21 -5
right_child=1 4 5 17 8 18 -8 22 14 -11 11 25 -14 21 -16 27 -18 -19 20 28 -22 -23 -24 -25 -26 26 -28 -29 -30 -31
