tree
version=v3
num_class=1
num_tree_per_iteration=1
label_index=0
max_feature_idx=11
feature_names=group item temp precipitation sales_lag1 sales_lag2 sales_lag3 sales_lag4 sales_lag5 sales_lag6 sales_lag7 weekday
feature_infos=-1:2:3:0:1:4 -1:0:1:2:3:4:5:6:7:8:9:10:11:12:13 [33:83] [0:2.2000000000000002] [0:110] [0:110] [0:110] [0:110] [0:110] [0:110] [0:110] [0:6]
tree_sizes=2718 2719 2716 2715 2735 2714 2707 2737 2716 2734 2718 2737 2731 2734 2728 2733 2725 2736 2725 2732 2737 2738 2743 2739 2730 2725 2732 2735 2734 2743 2735 2739 2745 2726 2742 2741 2726 2731 2739 2736 2740 2748 2748 2754 2747 2744 2758 2762 2743 2749 2745 2737 2747 2742 2756 2745 2754 2757 2755 2749 2754 2757 2756 2767 2755 2762 2759 2760 2760 2761 2757 2753 2765 2772 2762 2766 2768 2779 2749 2765 2773 2777 2772 2752 2761 2762 2753 2785 2764 2778 2762 2787 2759 2793 2769 2798 2772 2772 2781 2803 2770 2777 2812 2793 2768 2793 2791 2765 2806 2782 2787 2785 2804 2777 2796 2775 2776 2774 2795 2816 2771

Tree=0
num_leaves=31
num_cat=0
split_feature=4 10 4 3 3 2 3 9 9 10 11 3 10 3 3 7 7 10 6 2 8 4 3 10 10 5 7 6 3 2
split_gain=117878 25905 19680.9 9792.37 8334.64 7388.86 6563.83 5906.4 3385.73 3385.05 2950.26 2640.89 2301.18 1795.73 1777.68 1483.98 1457.61 1454.59 1445.74 1308.72 1307.8 1302.46 1299.66 1264.4 1164.43 1059.41 952.976 903.74 875.454 841.806
threshold=11.500000000000002 9.5000000000000018 19.500000000000004 0.055000000000000007 0.055000000000000007 56.500000000000007 0.055000000000000007 11.500000000000002 13.500000000000002 17.500000000000004 4.5000000000000009 0.56500000000000006 21.500000000000004 0.26500000000000007 0.47000000000000003 16.500000000000004 13.500000000000002 9.5000000000000018 11.500000000000002 46.500000000000007 11.500000000000002 25.500000000000004 0.115 11.500000000000002 15.500000000000002 22.500000000000004 23.500000000000004 11.500000000000002 0.51000000000000012 47.500000000000007
decision_type=2 2 2 2 2 2 2 2 2 2 2 2 2 2 2 2 2 2 2 2 2 2 2 2 2 2 2 2 2 2
left_child=1 5 3 7 9 10 8 17 18 25 20 23 26 19 16 -8 -5 -2 -3 -12 -1 -11 -7 -6 -10 -4 -9 -19 -25 -23
right_child=2 6 4 14 11 22 15 12 24 21 13 -13 -14 -15 -16 -17 -18 27 -20 -21 -22 29 -24 28 -26 -27 -28 -29 -30 -31
leaf_value=0.14220958100689121 0.23885024951891301 0.22397881753665885 0.35443633564140486 0.20511322507750518 0.24364953403119688 0.23186790143843175 0.17066262918436106 0.32563080421874396 0.28434552875725 0.41097291093123589 0.092371329654346801 0.19678318711689544 0.39828442401757541 0.052628003962695853 0.16627055122818746 0.25556590829255443 0.28124700034636796 0.26359198166548842 0.28788267555792774 0.15941691986405024 0.20521309082572525 0.38676780934603716 0.14194029673149711 0.33923564831729935 0.34654734227140593 0.41200020848488322 0.38627857263882953 0.32515081223197606 0.47362099511282785 0.47175800759662956
leaf_weight=1203 263 388 368 177 54 417 369 760 222 380 275 70 297 229 142 106 233 163 223 202 148 53 76 253 263 196 120 230 21 387
leaf_count=1203 263 388 368 177 54 417 369 760 222 380 275 70 297 229 142 106 233 163 223 202 148 53 76 253 263 196 120 230 21 387
internal_value=0 0.187822 0.338677 0.301106 0.388961 0.148464 0.251708 0.323345 0.278621 0.412156 0.131797 0.308303 0.350147 0.0986631 0.227257 0.189609 0.248379 0.275256 0.247302 0.120764 0.149112 0.438096 0.218005 0.332103 0.318076 0.374441 0.333901 0.299619 0.349535 0.461521
internal_weight=0 4121 4167 2385 1782 2550 1571 1833 1096 1384 2057 398 1177 706 552 475 410 656 611 477 1351 820 493 328 485 564 880 393 274 440
internal_count=8288 4121 4167 2385 1782 2550 1571 1833 1096 1384 2057 398 1177 706 552 475 410 656 611 477 1351 820 493 328 485 564 880 393 274 440
is_linear=0
shrinkage=0.02


Tree=1
num_leaves=31
num_cat=0
split_feature=4 10 4 3 3 2 3 9 10 9 11 3 10 3 3 7 7 10 6 4 8 2 3 10 10 5 7 6 2 3
split_gain=114128 25005.2 19173.3 9379.81 8034.2 7055.57 6281.42 5734.24 3301.45 3280.07 2836.53 2550.33 2246.95 1719.95 1715.39 1443.59 1416.46 1410.11 1400.74 1276.13 1264.83 1245.54 1244.41 1229.36 1134.37 1034.55 932.137 877.144 843.527 842.59
threshold=11.500000000000002 9.5000000000000018 19.500000000000004 0.055000000000000007 0.055000000000000007 56.500000000000007 0.055000000000000007 11.500000000000002 17.500000000000004 13.500000000000002 4.5000000000000009 0.56500000000000006 21.500000000000004 0.47000000000000003 0.26500000000000007 16.500000000000004 13.500000000000002 9.5000000000000018 12.500000000000002 25.500000000000004 11.500000000000002 46.500000000000007 0.115 11.500000000000002 15.500000000000002 22.500000000000004 21.500000000000004 11.500000000000002 63.500000000000007 0.51000000000000012
decision_type=2 2 2 2 2 2 2 2 2 2 2 2 2 2 2 2 2 2 2 2 2 2 2 2 2 2 2 2 2 2
left_child=1 5 3 7 8 10 9 17 25 18 20 23 26 16 21 -8 -5 -2 -3 -10 -1 -12 -7 -6 -11 -4 28 -19 -9 -25
right_child=2 6 4 13 11 22 15 12 19 24 14 -13 -14 -15 -16 -17 -18 27 -20 -21 -22 -23 -24 29 -26 -27 -28 -29 -30 -31
leaf_value=0.13899952451784414 0.2336553191594751 0.22199957466125489 0.34759055560049801 0.20096638594643546 0.23881054566966164 0.22661595973465368 0.16709618452118666 0.29590699614231203 0.40337551265013843 0.2784012262456052 0.090222707982496791 0.19305039848600114 0.39085837572913379 0.16285292188886186 0.051327143897135712 0.25083609338076612 0.27601798552811913 0.25799467039985891 0.28780761066303462 0.45340963556549768 0.20095930002831125 0.15562999489283796 0.13862059436346355 0.33311430701154027 0.33979489812379554 0.40447485495586782 0.3679724655471035 0.31864093540025795 0.33983407163334461 0.46495318730672203
leaf_weight=1203 263 425 368 177 54 417 369 367 380 222 275 70 297 142 229 106 233 163 186 440 148 202 76 253 263 196 179 230 334 21
leaf_count=1203 263 425 368 177 54 417 369 367 380 222 275 70 297 142 229 106 233 163 186 440 148 202 76 253 263 196 179 230 334 21
internal_value=0 0.183765 0.3322 0.295117 0.381832 0.145096 0.246531 0.316883 0.404605 0.272859 0.128809 0.302641 0.343292 0.222841 0.0963207 0.185783 0.243618 0.2695 0.242033 0.430223 0.145787 0.117921 0.213051 0.32603 0.311693 0.367359 0.327238 0.293487 0.316837 0.343219
internal_weight=0 4121 4167 2385 1782 2550 1571 1833 1384 1096 2057 398 1177 552 706 475 410 656 611 820 1351 477 493 328 485 564 880 393 701 274
internal_count=8288 4121 4167 2385 1782 2550 1571 1833 1384 1096 2057 398 1177 552 706 475 410 656 611 820 1351 477 493 328 485 564 880 393 701 274
is_linear=0
shrinkage=0.02


Tree=2
num_leaves=31
num_cat=0
split_feature=4 10 10 3 3 2 3 4 4 9 3 11 9 3 3 7 6 8 7 3 2 2 6 2 10 7 5 9 2 3
split_gain=110488 24135.9 18684.5 9599.07 7778.81 6737.29 6011.41 5279.06 4334.07 3178.22 2981.29 2727.15 2449.6 1638.83 1609.92 1404.31 1357.61 1223.33 1209.2 1191.71 1190.34 1185.53 1166.38 1154.16 1105.1 1056.4 1010.88 995.546 950.002 787.936
threshold=11.500000000000002 9.5000000000000018 17.500000000000004 0.055000000000000007 0.015000000000000001 56.500000000000007 0.055000000000000007 19.500000000000004 23.500000000000004 13.500000000000002 0.56500000000000006 4.5000000000000009 13.500000000000002 0.26500000000000007 0.47000000000000003 16.500000000000004 11.500000000000002 11.500000000000002 21.500000000000004 0.115 63.500000000000007 46.500000000000007 20.500000000000004 47.500000000000007 15.500000000000002 13.500000000000002 22.500000000000004 21.500000000000004 56.500000000000007 0.03500000000000001
decision_type=2 2 2 2 2 2 2 2 2 2 2 2 2 2 2 2 2 2 2 2 2 2 2 2 2 2 2 2 2 2
left_child=1 5 3 7 8 11 9 12 27 16 18 17 20 21 25 -8 -3 29 -6 -7 22 -13 -2 -10 -11 -5 -9 -4 -25 -1
right_child=2 6 4 14 10 19 15 26 23 24 -12 13 -14 -15 -16 -17 -18 -19 -20 -21 -22 -23 -24 28 -26 -27 -28 -29 -30 -31
leaf_value=0.15492477741506366 0.23440690109806678 0.21427320197070998 0.3533135967856959 0.19766868403151228 0.30615927358726402 0.22148522203203017 0.16360356718221009 0.34086925576562466 0.3687152108279142 0.27258522461126516 0.20191529305969799 0.088124841334603063 0.31970458639785648 0.050056829410869481 0.15094415000242781 0.24619633173042876 0.27619863344682172 0.19679781717223091 0.36788154681523644 0.13537328277763569 0.29972529053167485 0.15193699433071778 0.34360898017883301 0.49764179966117766 0.33318161819370978 0.26343678879853033 0.39709929218097606 0.40091255844280282 0.43630489894321989 0.12211868215528168
leaf_weight=504 434 388 475 185 308 417 369 368 66 222 82 275 512 229 129 106 223 148 216 76 229 202 43 158 263 207 196 279 280 699
leaf_count=504 434 388 475 185 308 417 369 368 66 222 82 275 512 229 129 106 223 148 216 76 229 202 43 158 263 207 196 279 280 699
internal_value=0 0.179797 0.325846 0.287745 0.37292 0.141806 0.241462 0.309823 0.401277 0.267218 0.314054 0.125891 0.286399 0.0940349 0.21223 0.182035 0.236874 0.142538 0.331602 0.20821 0.262245 0.115148 0.244251 0.446682 0.305445 0.232398 0.36041 0.370926 0.458431 0.135863
internal_weight=0 4121 4167 2303 1864 2550 1571 1782 1258 1096 606 2057 1218 706 521 475 611 1351 524 493 706 477 477 504 485 392 564 754 438 1203
internal_count=8288 4121 4167 2303 1864 2550 1571 1782 1258 1096 606 2057 1218 706 521 475 611 1351 524 493 706 477 477 504 485 392 564 754 438 1203
is_linear=0
shrinkage=0.02


Tree=3
num_leaves=31
num_cat=0
split_feature=4 10 4 3 3 2 3 9 10 9 11 3 10 3 3 7 10 7 6 4 8 10 3 2 10 5 8 6 3 2
split_gain=106968 23295.3 18245.5 8638.48 7447.33 6430.27 5752.89 5416.98 3144.02 3079.91 2622.85 2383.05 2151.99 1604.77 1565.12 1361.97 1337.11 1333.64 1318.31 1221.39 1184.16 1167.26 1140.47 1127.8 1077.14 987.917 903.893 833.71 805.303 792.087
threshold=11.500000000000002 9.5000000000000018 19.500000000000004 0.055000000000000007 0.055000000000000007 56.500000000000007 0.055000000000000007 11.500000000000002 17.500000000000004 13.500000000000002 4.5000000000000009 0.56500000000000006 21.500000000000004 0.47000000000000003 0.26500000000000007 16.500000000000004 9.5000000000000018 13.500000000000002 12.500000000000002 25.500000000000004 11.500000000000002 11.500000000000002 0.115 46.500000000000007 15.500000000000002 22.500000000000004 17.500000000000004 11.500000000000002 0.51000000000000012 47.500000000000007
decision_type=2 2 2 2 2 2 2 2 2 2 2 2 2 2 2 2 2 2 2 2 2 2 2 2 2 2 2 2 2 2
left_child=1 5 3 7 8 10 9 16 25 18 20 21 26 17 23 -8 -2 -5 -3 -10 -1 -6 -7 -12 -11 -4 -9 -18 -23 -21
right_child=2 6 4 13 11 22 15 12 19 24 14 -13 -14 -15 -16 -17 27 -19 -20 29 -22 28 -24 -25 -26 -27 -28 -29 -30 -31
leaf_value=0.13279787583045927 0.22337047248738798 0.21238368124681362 0.33429184307222787 0.19276271592425762 0.22940842906634015 0.21644784200105738 0.16020644682855789 0.29850855799487036 0.38869122113679588 0.26687872800741114 0.086074556506763808 0.18585199131284441 0.3765470444714582 0.15613465691955997 0.048820972499889058 0.24154458466565834 0.24703046092226463 0.26558704887848555 0.27622607552075901 0.36512879497600054 0.19274914000485396 0.3212670233504103 0.1322075217962265 0.1483135749679981 0.3267037877565101 0.38987944388876161 0.34032726667013513 0.30615614378970601 0.45015581221807571 0.44757095297485672
leaf_weight=1203 263 425 368 177 54 417 369 548 380 222 275 70 297 142 229 106 163 233 186 53 148 253 76 202 263 196 332 230 21 387
leaf_count=1203 263 425 368 177 54 417 369 548 380 222 275 70 297 142 229 106 163 233 186 53 148 253 76 202 263 196 332 230 21 387
internal_value=0 0.175911 0.319615 0.283441 0.368031 0.138588 0.236493 0.304328 0.389957 0.261689 0.12304 0.291788 0.329996 0.21408 0.0917987 0.178358 0.258275 0.234148 0.231819 0.414957 0.139365 0.314396 0.203462 0.112432 0.29932 0.35361 0.314286 0.281633 0.331145 0.43764
internal_weight=0 4121 4167 2385 1782 2550 1571 1833 1384 1096 2057 398 1177 552 706 475 656 410 611 820 1351 328 493 477 485 564 880 393 274 440
internal_count=8288 4121 4167 2385 1782 2550 1571 1833 1384 1096 2057 398 1177 552 706 475 656 410 611 820 1351 328 493 477 485 564 880 393 274 440
is_linear=0
shrinkage=0.02


Tree=4
num_leaves=31
num_cat=0
split_feature=4 10 4 3 3 2 3 9 10 9 11 3 10 3 3 7 7 6 4 8 10 2 3 2 10 10 5 8 5 3
split_gain=103568 22485.5 17776.7 8273.51 7179.8 6137.82 5504.28 5265.82 3065.73 2983.55 2521.85 2301.28 2087.45 1552.72 1494.93 1324.92 1296.01 1277.59 1196.79 1145.37 1134.94 1134.83 1091.97 1072.74 1049.46 1020.65 965.071 877.354 849.957 778.764
threshold=11.500000000000002 9.5000000000000018 19.500000000000004 0.055000000000000007 0.055000000000000007 56.500000000000007 0.055000000000000007 17.500000000000004 17.500000000000004 13.500000000000002 4.5000000000000009 0.56500000000000006 9.5000000000000018 0.47000000000000003 0.26500000000000007 16.500000000000004 13.500000000000002 12.500000000000002 25.500000000000004 11.500000000000002 11.500000000000002 70.500000000000014 0.055000000000000007 46.500000000000007 15.500000000000002 27.500000000000004 22.500000000000004 17.500000000000004 15.500000000000002 0.43500000000000005
decision_type=2 2 2 2 2 2 2 2 2 2 2 2 2 2 2 2 2 2 2 2 2 2 2 2 2 2 2 2 2 2
left_child=1 5 3 7 8 10 9 12 26 17 19 20 28 16 23 -8 -5 -3 -10 -1 -6 27 -7 -12 -11 -9 -4 -14 -2 -22
right_child=2 6 4 13 11 22 15 25 18 24 14 -13 21 -15 -16 -17 -18 -19 -20 -21 29 -23 -24 -25 -26 -27 -28 -29 -30 -31
leaf_value=0.12979541351051008 0.21495300472462586 0.20773889203352089 0.32784037346425265 0.18886339369466751 0.22485011495373869 0.21411466693878176 0.15685711178353162 0.33495524940490723 0.38151224829021252 0.26128665805936935 0.08407189238288186 0.18233313288007463 0.26770087414071464 0.15292283111055133 0.047609695149300919 0.23708132222013653 0.26065293005096041 0.27058747680006567 0.42996608463200658 0.18875673933609111 0.31022171257885262 0.34046533760271575 0.14089831323299593 0.14477264287448166 0.32033788884094011 0.40684091588502291 0.3827814697732731 0.31970662050079879 0.28586691583905899 0.40123066880967884
leaf_weight=1203 263 425 368 177 54 390 369 525 380 222 275 70 538 142 229 106 233 186 440 148 229 152 103 202 263 93 196 171 91 45
leaf_count=1203 263 425 368 177 54 390 369 525 380 222 275 70 538 142 229 106 233 186 440 148 229 152 103 202 263 93 196 171 91 45
internal_value=0 0.172106 0.313507 0.2778 0.361297 0.135437 0.231626 0.298242 0.382825 0.256271 0.120246 0.286436 0.274066 0.20992 0.0896126 0.17476 0.229661 0.226871 0.407512 0.136255 0.308653 0.290875 0.198818 0.109777 0.293308 0.345773 0.346933 0.280244 0.233182 0.325168
internal_weight=0 4121 4167 2385 1782 2550 1571 1833 1384 1096 2057 398 1215 552 706 475 410 611 820 1351 328 861 493 477 485 618 564 709 354 274
internal_count=8288 4121 4167 2385 1782 2550 1571 1833 1384 1096 2057 398 1215 552 706 475 410 611 820 1351 328 861 493 477 485 618 564 709 354 274
is_linear=0
shrinkage=0.02


Tree=5
num_leaves=31
num_cat=0
split_feature=4 10 10 3 3 2 3 4 4 9 3 11 9 3 3 10 6 9 8 2 5 3 2 10 7 5 9 2 11 3
split_gain=100269 21705 17358.8 8513.96 7018.89 5857.41 5267.86 4908.75 4058.86 2890.81 2641.82 2425.01 2244.48 1463.51 1427.88 1297.82 1238.48 1145.16 1107.53 1094.78 1091.23 1050.07 1024.83 1022.77 965.517 943.218 939.557 885.702 726.02 723.043
threshold=11.500000000000002 9.5000000000000018 17.500000000000004 0.055000000000000007 0.015000000000000001 56.500000000000007 0.055000000000000007 19.500000000000004 23.500000000000004 13.500000000000002 0.56500000000000006 4.5000000000000009 13.500000000000002 0.47000000000000003 0.26500000000000007 15.500000000000002 12.500000000000002 21.500000000000004 11.500000000000002 47.500000000000007 11.500000000000002 0.115 48.500000000000007 15.500000000000002 13.500000000000002 22.500000000000004 21.500000000000004 56.500000000000007 4.5000000000000009 0.03500000000000001
decision_type=2 2 2 2 2 2 2 2 2 2 2 2 2 2 2 2 2 2 2 2 2 2 2 2 2 2 2 2 2 2
left_child=1 5 3 7 8 11 9 12 26 16 17 18 20 24 22 -8 -3 -6 29 -10 -2 -7 -13 -11 -5 -9 -4 -21 -19 -1
right_child=2 6 4 13 10 21 15 25 19 23 -12 14 -14 -15 -16 -17 -18 28 -20 27 -22 -23 -24 -25 -26 -27 -28 -29 -30 -31
leaf_value=0.1451235044712112 0.21769044055136277 0.20319496197700504 0.33334249305725094 0.18569834305950114 0.28217941278388142 0.20673400477539722 0.146661784695644 0.32148772330387781 0.34782921299789893 0.25581661095490327 0.19140950268361628 0.086161622573458968 0.30087583674117924 0.14123848645262016 0.046427161703984289 0.21571424519521951 0.26507401523090179 0.3562332649730699 0.18484263933993675 0.47306718361528616 0.26781100208272862 0.12590122381323263 0.1480633971720566 0.31411230264961043 0.24857392357167413 0.37580319219706015 0.37958360562615073 0.41384243522371561 0.27068607161442443 0.1136973623166098
leaf_weight=504 309 425 475 185 247 417 306 368 66 222 82 315 512 129 229 169 186 229 148 158 397 76 162 263 207 196 279 280 48 699
leaf_count=504 309 425 475 185 247 417 306 368 66 222 82 315 512 129 229 169 186 229 148 158 397 76 162 263 207 196 279 280 48 699
internal_value=0 0.168383 0.307514 0.27079 0.352888 0.132356 0.226861 0.291583 0.379824 0.250971 0.296971 0.117517 0.268995 0.199671 0.0874773 0.17123 0.222032 0.31349 0.133215 0.423764 0.245874 0.194273 0.107185 0.287429 0.2189 0.340363 0.350453 0.435207 0.341409 0.126863
internal_weight=0 4121 4167 2303 1864 2550 1571 1782 1258 1096 606 2057 1218 521 706 475 611 524 1351 504 706 493 477 485 392 564 754 438 277 1203
internal_count=8288 4121 4167 2303 1864 2550 1571 1782 1258 1096 606 2057 1218 521 706 475 611 524 1351 504 706 493 477 485 392 564 754 438 277 1203
is_linear=0
shrinkage=0.02


Tree=6
num_leaves=31
num_cat=0
split_feature=4 10 4 3 3 2 3 9 10 9 11 3 10 11 3 7 6 4 7 10 8 2 3 10 10 2 5 8 5 3
split_gain=97088 20946.9 16918.4 7613.9 6649.01 5592.04 5040.48 5000.65 2920.1 2801.99 2332.08 2152.7 1976.35 1474.8 1362.05 1265.19 1203.33 1146.09 1118.99 1076.71 1071.72 1067.78 1004.4 997.25 984.617 977.68 921.696 839.944 807.131 755.193
threshold=11.500000000000002 9.5000000000000018 19.500000000000004 0.055000000000000007 0.055000000000000007 56.500000000000007 0.055000000000000007 17.500000000000004 17.500000000000004 13.500000000000002 4.5000000000000009 0.56500000000000006 9.5000000000000018 4.5000000000000009 0.26500000000000007 16.500000000000004 11.500000000000002 25.500000000000004 13.500000000000002 11.500000000000002 11.500000000000002 70.500000000000014 0.115 15.500000000000002 27.500000000000004 48.500000000000007 22.500000000000004 17.500000000000004 15.500000000000002 0.51000000000000012
decision_type=2 2 2 2 2 2 2 2 2 2 2 2 2 2 2 2 2 2 2 2 2 2 2 2 2 2 2 2 2 2
left_child=1 5 3 7 8 10 9 12 26 16 20 19 28 18 25 -8 -3 -10 -5 -6 -1 27 -7 -11 -9 -12 -4 -14 -2 -21
right_child=2 6 4 13 11 22 15 24 17 23 14 -13 21 -15 -16 -17 -18 -19 -20 29 -22 -23 -24 -25 -26 -27 -28 -29 -30 -31
leaf_value=0.12398974544767381 0.20531282143901056 0.19599709646603497 0.31529232739106472 0.1856751546703401 0.21608549825571202 0.2020276193710254 0.15027071425585242 0.32211093686421716 0.36763058584614805 0.25044433918085185 0.0840990333065154 0.17553641302245004 0.25662831836030386 0.14913503214136348 0.045292235080591978 0.22866560206098377 0.25429780166779931 0.41504700908877634 0.25296348471974217 0.30423043405585609 0.18102384589813852 0.3273164633700722 0.12297215281348481 0.30800800334364742 0.3927161645376554 0.1445599568331683 0.36898455225691507 0.30751323635815181 0.27441713584648386 0.42904473350161598
leaf_weight=1203 263 388 368 183 54 417 369 525 380 222 315 70 538 154 229 106 223 440 215 253 148 152 76 263 93 162 196 171 91 21
leaf_count=1203 263 388 368 183 54 417 369 525 380 222 315 70 538 154 229 106 223 440 215 253 148 152 76 263 93 162 196 171 91 21
internal_value=0 0.164735 0.301642 0.266807 0.348263 0.129343 0.222182 0.286417 0.36898 0.245766 0.114843 0.276222 0.262858 0.201689 0.085385 0.167765 0.217275 0.393074 0.222024 0.29771 0.130238 0.279214 0.189841 0.281659 0.332736 0.104633 0.333951 0.268901 0.223077 0.313796
internal_weight=0 4121 4167 2385 1782 2550 1571 1833 1384 1096 2057 398 1215 552 706 475 611 820 398 328 1351 861 493 485 618 477 564 709 354 274
internal_count=8288 4121 4167 2385 1782 2550 1571 1833 1384 1096 2057 398 1215 552 706 475 611 820 398 328 1351 861 493 485 618 477 564 709 354 274
is_linear=0
shrinkage=0.02


Tree=7
num_leaves=31
num_cat=0
split_feature=4 10 10 3 3 2 3 4 4 9 3 11 9 3 3 10 6 7 2 8 5 10 3 2 7 5 9 2 4 3
split_gain=93995 20218.5 16502.4 7835.59 6559.01 5338.31 4825.41 4676.79 3881.51 2714.68 2463.44 2239.32 2118.15 1392.77 1301.18 1239.1 1167.5 1112.92 1060.32 1036.17 1030.15 971.918 961.807 935.499 914.282 901.039 899.529 839.157 714.004 677.096
threshold=11.500000000000002 9.5000000000000018 17.500000000000004 0.055000000000000007 0.015000000000000001 56.500000000000007 0.055000000000000007 19.500000000000004 23.500000000000004 13.500000000000002 0.56500000000000006 4.5000000000000009 13.500000000000002 0.47000000000000003 0.26500000000000007 15.500000000000002 12.500000000000002 21.500000000000004 47.500000000000007 11.500000000000002 11.500000000000002 15.500000000000002 0.055000000000000007 46.500000000000007 13.500000000000002 21.500000000000004 21.500000000000004 56.500000000000007 31.500000000000004 0.03500000000000001
decision_type=2 2 2 2 2 2 2 2 2 2 2 2 2 2 2 2 2 2 2 2 2 2 2 2 2 2 2 2 2 2
left_child=1 5 3 7 8 11 9 12 26 16 17 19 20 24 23 -8 -3 -6 -10 29 -2 -11 -7 -13 -5 28 -4 -20 -9 -1
right_child=2 6 4 13 10 22 15 25 18 21 -12 14 -14 -15 -16 -17 -18 -19 27 -21 -22 -23 -24 -25 -26 -27 -28 -29 -30 -31
leaf_value=0.13884285086677189 0.20812545289499476 0.19435106161902935 0.3206917922019959 0.17829307701458802 0.27760570900780812 0.19986298285997831 0.14035917252107383 0.29900530203132875 0.33439492745832966 0.24519739533329868 0.18412800282966799 0.078172120965610853 0.28894040697254242 0.13484038340490917 0.044177755678324722 0.20783141277950898 0.25443092403873319 0.33681984206040705 0.45723874333538589 0.17725274268839811 0.25682303473691198 0.30202524609438824 0.13114878543950981 0.13485721068807169 0.2394776575576856 0.35843238574292691 0.36593717255472713 0.39959114735467099 0.41444801745207416 0.10843162380542623
leaf_weight=504 309 425 475 185 308 390 306 314 66 222 82 275 512 129 229 169 186 216 158 148 397 263 103 202 207 227 279 280 23 699
leaf_count=504 309 425 475 185 308 390 306 314 66 222 82 275 512 129 229 169 186 216 158 148 397 263 103 202 207 227 279 280 23 699
internal_value=0 0.161169 0.295877 0.26007 0.340117 0.126398 0.217609 0.280017 0.366156 0.240684 0.286063 0.112231 0.25797 0.191844 0.0833643 0.164365 0.212641 0.302015 0.409126 0.127316 0.235509 0.276013 0.185507 0.102177 0.210602 0.327631 0.337434 0.420386 0.306884 0.121172
internal_weight=0 4121 4167 2303 1864 2550 1571 1782 1258 1096 606 2057 1218 521 706 475 611 524 504 1351 706 485 493 477 392 564 754 438 337 1203
internal_count=8288 4121 4167 2303 1864 2550 1571 1782 1258 1096 606 2057 1218 521 706 475 611 524 504 1351 706 485 493 477 392 564 754 438 337 1203
is_linear=0
shrinkage=0.02


Tree=8
num_leaves=31
num_cat=0
split_feature=4 10 4 3 3 2 9 3 10 9 11 3 10 11 3 7 6 4 7 11 2 8 10 10 3 2 11 5 8 5
split_gain=91012.4 19512.6 16101.1 7009.08 6160.19 5094.46 4751.14 4615.93 2781.26 2631.48 2153.47 2022.14 1871.55 1415.73 1241.29 1209 1132.73 1096.66 1049.53 1036.46 1004.85 1002.93 950.448 947.568 922.709 895.597 891.863 881.58 803.976 766.707
threshold=11.500000000000002 9.5000000000000018 19.500000000000004 0.055000000000000007 0.055000000000000007 56.500000000000007 17.500000000000004 0.055000000000000007 17.500000000000004 13.500000000000002 4.5000000000000009 0.56500000000000006 9.5000000000000018 4.5000000000000009 0.26500000000000007 16.500000000000004 12.500000000000002 25.500000000000004 13.500000000000002 4.5000000000000009 70.500000000000014 11.500000000000002 27.500000000000004 15.500000000000002 0.115 48.500000000000007 3.5000000000000004 22.500000000000004 17.500000000000004 15.500000000000002
decision_type=2 2 2 2 2 2 2 2 2 2 2 2 2 2 2 2 2 2 2 2 2 2 2 2 2 2 2 2 2 2
left_child=1 5 3 6 8 10 12 9 27 16 21 19 29 18 25 -9 -3 -10 -5 26 28 -1 -8 -11 -7 -12 -6 -4 -14 -2
right_child=2 7 4 13 11 24 22 15 17 23 14 -13 20 -15 -16 -17 -18 -19 -20 -21 -22 -23 -24 -25 -26 -27 -28 -29 -30 -31
leaf_value=0.11842482322295902 0.19607089582958151 0.19006341938972474 0.3032161052460256 0.17848798929016446 0.29130767562172627 0.19293970561999499 0.30976969658079601 0.14394325949635287 0.35427582966653925 0.24004511741904527 0.080089890657909335 0.16878236864294327 0.24600130864457129 0.14227624261921101 0.04309389217061247 0.220577569921624 0.24924172288628035 0.40065839938683945 0.24365449124713276 0.22893269634648655 0.31467615905560947 0.17359818682477282 0.37913900375366211 0.29615658809023665 0.11716729244119244 0.13795713861783346 0.39379105172506196 0.35572687747527143 0.29578479738960489 0.26342245877444087
leaf_weight=1203 263 425 368 183 198 417 525 369 380 222 315 70 538 154 229 106 186 440 215 89 152 148 93 263 76 162 41 196 171 91
leaf_count=1203 263 425 368 183 198 417 525 369 380 222 315 70 538 154 229 106 186 440 215 89 152 148 93 263 76 162 41 196 171 91
internal_value=0 0.157674 0.290228 0.256245 0.33571 0.123515 0.27506 0.21312 0.355651 0.235689 0.109676 0.266367 0.252096 0.193767 0.0813681 0.161045 0.208078 0.379164 0.213691 0.287193 0.268012 0.124469 0.320209 0.270473 0.181259 0.0997429 0.308889 0.321465 0.258008 0.213384
internal_weight=0 4121 4167 2385 1782 2550 1833 1571 1384 1096 2057 398 1215 552 706 475 611 820 398 328 861 1351 618 485 493 477 239 564 709 354
internal_count=8288 4121 4167 2385 1782 2550 1833 1571 1384 1096 2057 398 1215 552 706 475 611 820 398 328 861 1351 618 485 493 477 239 564 709 354
is_linear=0
shrinkage=0.02


Tree=9
num_leaves=31
num_cat=0
split_feature=4 10 10 3 3 2 5 3 4 9 3 11 9 3 3 10 6 5 7 2 8 10 3 7 9 2 11 2 4 11
split_gain=88119.6 18833.7 15695.2 7216.34 6125.04 4862.4 4473.92 4418.83 3711.32 2549.65 2298.56 2067.38 1883.65 1323.88 1185.63 1182.54 1099.18 1089.75 1070.66 1027.03 969.721 923.633 882.829 864.27 861.146 856.181 807.792 794.755 774.407 642.507
threshold=11.500000000000002 9.5000000000000018 17.500000000000004 0.055000000000000007 0.015000000000000001 56.500000000000007 17.500000000000004 0.055000000000000007 23.500000000000004 13.500000000000002 0.56500000000000006 4.5000000000000009 7.5000000000000009 0.47000000000000003 0.26500000000000007 15.500000000000002 11.500000000000002 27.500000000000004 21.500000000000004 47.500000000000007 11.500000000000002 15.500000000000002 0.085000000000000006 13.500000000000002 21.500000000000004 48.500000000000007 4.5000000000000009 56.500000000000007 17.500000000000004 5.5000000000000009
decision_type=2 2 2 2 2 2 2 2 2 2 2 2 2 2 2 2 2 2 2 2 2 2 2 2 2 2 2 2 2 2
left_child=1 5 3 6 8 11 12 9 24 16 18 20 -2 23 25 -9 -3 26 -6 -10 -1 -11 -7 -5 -4 -13 -8 -21 -14 -23
right_child=2 7 4 13 10 22 17 15 19 21 -12 14 28 -15 -16 -17 -18 -19 -20 27 -22 29 -24 -25 -26 -27 -28 -29 -30 -31
leaf_value=0.11572668035217372 0.19904853537901127 0.18329558327333215 0.30852636378940784 0.17116606961230976 0.26706233992205042 0.1901847322142903 0.31751438418178696 0.13432540426164671 0.32146169517979478 0.23500790934304935 0.17713002620673762 0.078181782873850011 0.24586656626727846 0.12871490054698878 0.042033097608641247 0.20023975493904403 0.23901633142890419 0.35632448196411132 0.32514130278869913 0.44195652702186677 0.16997889645599032 0.30245133306261751 0.12232869514352397 0.23065371271492779 0.35279592455928899 0.13476130984447621 0.2636453540040099 0.38585480448177883 0.2851125944933845 0.2092784314997056
leaf_weight=1203 268 388 475 185 308 398 282 306 66 222 82 315 576 129 229 169 223 163 216 158 148 229 95 207 279 162 184 280 309 34
leaf_count=1203 268 388 475 185 308 398 282 306 66 222 82 315 576 129 229 169 223 163 216 158 148 229 95 207 279 162 184 280 309 34
internal_value=0 0.154256 0.284686 0.249765 0.32783 0.120696 0.268908 0.208728 0.352993 0.23081 0.275595 0.107176 0.245502 0.18429 0.0794393 0.157777 0.203632 0.311814 0.291003 0.39501 0.12167 0.265049 0.177109 0.202579 0.324907 0.0973975 0.296244 0.406092 0.259569 0.290406
internal_weight=0 4121 4167 2303 1864 2550 1782 1571 1258 1096 606 2057 1153 521 706 475 611 629 524 504 1351 485 493 392 754 477 466 438 885 263
internal_count=8288 4121 4167 2303 1864 2550 1782 1571 1258 1096 606 2057 1153 521 706 475 611 629 524 504 1351 485 493 392 754 477 466 438 885 263
is_linear=0
shrinkage=0.02


Tree=10
num_leaves=31
num_cat=0
split_feature=4 10 4 3 3 2 9 3 10 9 3 11 10 9 11 7 3 6 4 7 2 8 10 11 10 3 6 5 8 2
split_gain=85330.8 18176.3 15359.7 6450.13 5723.88 4639.78 4524.32 4231.78 2603.07 2470.08 2384.59 1986.8 1772.42 1631.95 1352.56 1156.64 1131.27 1066.42 1025.55 984.287 944.728 937.847 917.611 917.189 899.706 846.879 830.406 816.422 770.07 741.926
threshold=11.500000000000002 9.5000000000000018 19.500000000000004 0.055000000000000007 0.015000000000000001 56.500000000000007 17.500000000000004 0.055000000000000007 19.500000000000004 13.500000000000002 0.56500000000000006 4.5000000000000009 9.5000000000000018 21.500000000000004 4.5000000000000009 16.500000000000004 0.26500000000000007 12.500000000000002 23.500000000000004 13.500000000000002 70.500000000000014 11.500000000000002 27.500000000000004 4.5000000000000009 15.500000000000002 0.115 19.500000000000004 25.500000000000004 17.500000000000004 47.500000000000007
decision_type=2 2 2 2 2 2 2 2 2 2 2 2 2 2 2 2 2 2 2 2 2 2 2 2 2 2 2 2 2 2
left_child=1 5 3 6 8 11 12 9 27 17 13 21 -2 -6 19 -9 26 -3 -10 -5 28 -1 -8 -15 -11 -7 -13 -4 -14 -20
right_child=2 7 4 14 10 25 22 15 18 24 -12 16 20 23 -16 -17 -18 -19 29 -21 -22 -23 -24 -25 -26 -27 -28 -29 -30 -31
leaf_value=0.11309336566382512 0.20403072493897995 0.1817977293701733 0.30507798497165955 0.17151122755040238 0.25349894287442698 0.18423354414155443 0.29791310168675017 0.13783011287612321 0.33601893730163573 0.23007889872198706 0.16229490821702139 0.089006358324560372 0.23574110010853488 0.34615926514501155 0.13579931282232721 0.21278684244122148 0.041000019257570984 0.239217730991302 0.32296418405928706 0.23461968608235204 0.30243870295976338 0.1664465036867438 0.36607354871688352 0.24878810493313538 0.28475489930054987 0.11164143276449881 0.20972648580869038 0.36025986130355947 0.284463547182362 0.40270406759608435
leaf_weight=1203 354 425 448 183 271 417 525 369 175 222 70 453 538 184 154 106 229 186 53 215 152 148 93 49 263 76 24 141 171 391
leaf_count=1203 354 425 448 183 271 417 525 369 175 222 70 453 538 184 154 106 229 186 53 215 152 148 93 49 263 76 24 141 171 391
internal_value=0 0.150905 0.279255 0.246064 0.323677 0.117936 0.264113 0.204418 0.348385 0.226028 0.271677 0.104729 0.241703 0.286869 0.186128 0.154557 0.0775387 0.199277 0.377024 0.205602 0.257192 0.118938 0.30817 0.325682 0.259728 0.173043 0.0950803 0.318288 0.247492 0.393186
internal_weight=0 4121 4167 2385 1782 2550 1833 1571 1208 1096 574 2057 1215 504 552 475 706 611 619 398 861 1351 618 233 485 493 477 589 709 444
internal_count=8288 4121 4167 2385 1782 2550 1833 1571 1208 1096 574 2057 1215 504 552 475 706 611 619 398 861 1351 618 233 485 493 477 589 709 444
is_linear=0
shrinkage=0.02


Tree=11
num_leaves=31
num_cat=0
split_feature=4 10 4 3 3 10 2 3 9 3 9 11 10 10 11 10 3 9 6 3 2 5 9 6 10 6 5 3 10 2
split_gain=82623.4 17545 14984.9 6954.4 4961.32 4852.61 4426.67 4052.93 2391.62 2042.9 2038.47 1908.24 1896.25 1590.8 1511.48 1129.77 1080.18 1058.22 1033.83 1012.22 981.534 978.564 933.197 912.323 876.91 870.165 826.077 813.434 806.481 741.258
threshold=11.500000000000002 9.5000000000000018 21.500000000000004 0.055000000000000007 0.015000000000000001 17.500000000000004 56.500000000000007 0.055000000000000007 13.500000000000002 0.56500000000000006 7.5000000000000009 4.5000000000000009 21.500000000000004 17.500000000000004 4.5000000000000009 15.500000000000002 0.26500000000000007 21.500000000000004 12.500000000000002 0.45500000000000007 47.500000000000007 17.500000000000004 17.500000000000004 11.500000000000002 15.500000000000002 20.500000000000004 25.500000000000004 0.76500000000000012 7.5000000000000009 56.500000000000007
decision_type=2 2 2 2 2 2 2 2 2 2 2 2 2 2 2 2 2 2 2 2 2 2 2 2 2 2 2 2 2 2
left_child=1 6 3 5 12 10 11 8 18 14 25 23 26 19 17 -9 28 -6 -3 -5 -14 -12 -7 -1 -10 -2 -4 -8 -13 -22
right_child=2 7 4 13 9 22 27 15 24 -11 21 16 20 -15 -16 -17 -18 -19 -20 -21 29 -23 -24 -25 -26 -27 -28 -29 -30 -31
leaf_value=0.11069626967548685 0.18292805756841385 0.17781922044771559 0.30964804372522564 0.18337974669991947 0.27302516603803301 0.27913905181231036 0.17434596953886003 0.12848555297633402 0.22524147702766967 0.15812474716793407 0.24198321452531865 0.084540439469709683 0.30408297981534682 0.23093891632511365 0.22490205181728709 0.19291265301803162 0.039985379601247185 0.34918875598267418 0.23435524435453517 0.11086447029220826 0.42991151236153985 0.28330515017987745 0.32472758727553858 0.16479326587786777 0.27922036607909112 0.29670888805389406 0.36525153912995989 0.044128528695553539 0.17441067592664197 0.3728611945346057
leaf_weight=1212 259 425 360 305 143 310 473 306 222 55 756 433 56 229 110 169 229 149 186 103 143 329 427 139 263 30 152 20 44 251
leaf_count=1212 259 425 360 305 143 310 473 306 222 55 756 433 56 229 110 169 229 149 186 103 143 329 427 139 263 30 152 20 44 251
internal_value=0 0.147628 0.273925 0.246671 0.326704 0.264149 0.115237 0.200204 0.221352 0.272446 0.241941 0.102337 0.35248 0.188752 0.288087 0.151408 0.0756894 0.311889 0.19503 0.165073 0.382431 0.254513 0.305552 0.116262 0.254513 0.194739 0.326155 0.169063 0.0928304 0.393567
internal_weight=0 4121 4167 2748 1419 2111 2550 1571 1096 457 1374 2057 962 637 402 475 706 292 611 408 450 1085 737 1351 485 289 512 493 477 394
internal_count=8288 4121 4167 2748 1419 2111 2550 1571 1096 457 1374 2057 962 637 402 475 706 292 611 408 450 1085 737 1351 485 289 512 493 477 394
is_linear=0
shrinkage=0.02


Tree=12
num_leaves=31
num_cat=0
split_feature=4 10 4 3 3 10 2 3 9 3 9 10 11 10 11 7 9 3 6 3 2 5 9 3 10 6 5 2 3 6
split_gain=80012.6 16934.6 14600.5 6665.07 4796.45 4724.26 4221.78 3881.2 2315.88 1976.21 1975.18 1850.8 1834.68 1542.5 1464.97 1107.33 1034.08 1030.25 1002.15 981.298 957.034 951.23 909.884 893.63 854.732 846.865 806.933 787.905 786.534 757.021
threshold=11.500000000000002 9.5000000000000018 21.500000000000004 0.055000000000000007 0.015000000000000001 17.500000000000004 56.500000000000007 0.055000000000000007 13.500000000000002 0.56500000000000006 7.5000000000000009 21.500000000000004 4.5000000000000009 17.500000000000004 4.5000000000000009 16.500000000000004 21.500000000000004 0.26500000000000007 11.500000000000002 0.45500000000000007 47.500000000000007 17.500000000000004 17.500000000000004 0.03500000000000001 15.500000000000002 20.500000000000004 25.500000000000004 48.500000000000007 0.085000000000000006 13.500000000000002
decision_type=2 2 2 2 2 2 2 2 2 2 2 2 2 2 2 2 2 2 2 2 2 2 2 2 2 2 2 2 2 2
left_child=1 6 3 5 11 10 12 8 18 14 25 26 23 19 16 -9 -6 27 -3 -5 -13 -12 -7 29 -10 -2 -4 -14 -8 -1
right_child=2 7 4 13 9 22 28 15 24 -11 21 20 17 -15 -16 -17 -18 -19 -20 -21 -22 -23 -24 -25 -26 -27 -28 -29 -30 -31
leaf_value=0.12600751198672705 0.17888315933551568 0.1714448793750909 0.30382202480236692 0.17980697301958429 0.26784962539072638 0.27368154012916551 0.17750203932949049 0.13195231972125973 0.22049783285673674 0.15501151516220787 0.23702011522792635 0.2983700706277575 0.072173821239244373 0.22664028129072691 0.22062955403327941 0.20529387426263881 0.34313975724597906 0.038998368195050669 0.22464931416404621 0.10840799312717599 0.3867305030798549 0.27776084950629704 0.31869702271052769 0.099733129439350116 0.27378977797330561 0.29113032309214271 0.3587774508250387 0.12645049970826985 0.11345356003508757 0.21235912377184091
leaf_weight=527 259 388 360 305 143 310 398 369 222 55 756 56 315 229 110 106 149 229 223 103 394 329 427 780 263 30 152 162 95 44
leaf_count=527 259 388 360 305 143 310 398 369 222 55 756 56 315 229 110 106 149 229 223 103 394 329 427 780 263 30 152 162 95 44
internal_value=0 0.144417 0.268703 0.241801 0.3208 0.258911 0.112594 0.19607 0.216765 0.267451 0.236998 0.346144 0.0999961 0.185099 0.282835 0.148319 0.306268 0.0738674 0.190863 0.161782 0.375735 0.249374 0.299762 0.11365 0.249396 0.190535 0.320137 0.0906074 0.16516 0.132662
internal_weight=0 4121 4167 2748 1419 2111 2550 1571 1096 457 1374 962 2057 637 402 475 292 706 611 408 450 1085 737 1351 485 289 512 477 493 571
internal_count=8288 4121 4167 2748 1419 2111 2550 1571 1096 457 1374 962 2057 637 402 475 292 706 611 408 450 1085 737 1351 485 289 512 477 493 571
is_linear=0
shrinkage=0.02


Tree=13
num_leaves=31
num_cat=0
split_feature=4 10 4 3 3 9 2 3 10 3 6 11 10 9 11 10 5 2 3 7 10 8 2 4 11 10 3 8 2 5
split_gain=77481.2 16342.8 14248.8 5669.01 5150.68 4196.3 4024.92 3711.54 2422.93 2165.06 2141.21 1764.27 1642.81 1517.18 1277.27 1180.34 1040.81 1021.02 983.436 912.845 873.592 872.934 871.377 870.013 836.196 772.628 763.213 726.077 721.508 681.225
threshold=11.500000000000002 9.5000000000000018 19.500000000000004 0.055000000000000007 0.015000000000000001 17.500000000000004 56.500000000000007 0.03500000000000001 21.500000000000004 0.56500000000000006 13.500000000000002 4.5000000000000009 9.5000000000000018 21.500000000000004 4.5000000000000009 15.500000000000002 25.500000000000004 60.500000000000007 0.26500000000000007 13.500000000000002 27.500000000000004 11.500000000000002 70.500000000000014 23.500000000000004 4.5000000000000009 7.5000000000000009 0.76500000000000012 17.500000000000004 47.500000000000007 15.500000000000002
decision_type=2 2 2 2 2 2 2 2 2 2 2 2 2 2 2 2 2 2 2 2 2 2 2 2 2 2 2 2 2 2
left_child=1 6 3 5 8 12 11 10 16 13 17 21 29 -6 19 -9 -4 -3 25 -5 -7 -1 27 -10 -15 -13 -8 -14 -25 -2
right_child=2 7 4 14 9 20 26 15 23 -11 -12 18 22 24 -16 -17 -18 -19 -20 -21 -22 -23 -24 28 -26 -27 -28 -29 -30 -31
leaf_value=0.10546346431237305 0.17436133630375444 0.17317550598886769 0.29100826131743057 0.16151557513273479 0.23933765556979444 0.28095421121688119 0.16645616737279023 0.12525660707504915 0.31890658618785717 0.15281170200450078 0.24918295504983037 0.080331474942505782 0.22113567506956788 0.3284886211934297 0.12651369026341996 0.18818410529092672 0.3474513808114188 0.22682995726146971 0.038022562538692524 0.22229061641249548 0.34745970951613558 0.15693708848409557 0.28531651013775877 0.3027538233862983 0.23551602957200032 0.168295283425938 0.040322576474398374 0.26844592027496872 0.38801693825764189 0.23784737938053005
leaf_weight=1203 263 433 516 183 271 525 473 329 135 70 411 433 538 184 154 187 175 211 229 215 93 148 152 45 49 44 20 171 337 91
leaf_count=1203 263 433 516 183 271 525 473 329 135 70 411 433 538 184 154 187 175 211 229 215 93 148 152 45 49 44 20 171 337 91
internal_value=0 0.141275 0.263579 0.231611 0.306365 0.248532 0.110014 0.192018 0.329803 0.257037 0.213517 0.0977127 0.22695 0.271513 0.175422 0.148062 0.305303 0.190755 0.0720902 0.194346 0.290962 0.111102 0.241862 0.362549 0.308936 0.0884455 0.161339 0.232546 0.377973 0.190681
internal_weight=0 4121 4167 2385 1782 1833 2550 1571 1208 574 1055 2057 1215 504 552 516 691 644 706 398 618 1351 861 517 233 477 493 709 382 354
internal_count=8288 4121 4167 2385 1782 1833 2550 1571 1208 574 1055 2057 1215 504 552 516 691 644 706 398 618 1351 861 517 233 477 493 709 382 354
is_linear=0
shrinkage=0.02


Tree=14
num_leaves=31
num_cat=0
split_feature=4 10 4 3 10 3 2 3 6 9 3 10 11 10 11 7 9 2 7 3 2 5 9 8 11 6 5 3 11 2
split_gain=75024.2 15773.9 13892.1 6115.46 4509.35 4478.14 3835.17 3559.66 2078.8 1865.36 1855.05 1764.02 1694.39 1458.61 1385.11 1155.67 983.416 979.79 948.989 936.559 913.964 904.197 865.459 844.52 825.863 814.51 770.799 734.128 714.818 688.968
threshold=11.500000000000002 9.5000000000000018 21.500000000000004 0.055000000000000007 17.500000000000004 0.015000000000000001 56.500000000000007 0.03500000000000001 13.500000000000002 7.5000000000000009 0.56500000000000006 21.500000000000004 4.5000000000000009 17.500000000000004 4.5000000000000009 16.500000000000004 21.500000000000004 60.500000000000007 9.5000000000000018 0.45500000000000007 47.500000000000007 17.500000000000004 18.500000000000004 11.500000000000002 4.5000000000000009 20.500000000000004 25.500000000000004 0.76500000000000012 4.5000000000000009 56.500000000000007
decision_type=2 2 2 2 2 2 2 2 2 2 2 2 2 2 2 2 2 2 2 2 2 2 2 2 2 2 2 2 2 2
left_child=1 6 3 4 9 11 12 8 17 25 14 26 23 19 16 -9 -7 -3 -14 -5 -13 -11 -6 -1 -17 -2 -4 -8 -23 -22
right_child=2 7 5 13 22 10 27 15 -10 21 -12 20 18 -15 -16 24 -18 -19 -20 -21 29 28 -24 -25 -26 -27 -28 -29 -30 -31
leaf_value=0.10305802163557271 0.17071151008362015 0.169460334695239 0.29252275604671901 0.17293216816519127 0.26679116097630046 0.25804621751491841 0.16260961172696653 0.12906797868695427 0.24425137025306407 0.22727393576077051 0.14888281412016263 0.28714309096336366 0.055182422207977602 0.21839300893946637 0.21224005727334458 0.23192877714024032 0.33146867905687166 0.22202020299378167 0.1057685690667131 0.10317977353785801 0.40853126152412039 0.29052007504363558 0.31013821396223618 0.15368696496192669 0.10687173072780881 0.28079359277089438 0.34623364856368616 0.038902719072997569 0.23005247928202152 0.35352998292778592
leaf_weight=1203 259 433 360 305 366 143 473 402 411 756 55 56 494 229 110 86 149 211 212 103 143 201 371 148 28 30 152 20 128 251
leaf_count=1203 259 433 360 305 366 143 473 402 411 756 55 56 494 229 110 86 149 211 212 103 143 201 371 148 28 30 152 20 128 251
internal_value=0 0.138203 0.258552 0.23231 0.2487 0.30937 0.10749 0.188054 0.209109 0.227291 0.257821 0.333858 0.0954825 0.177997 0.272726 0.145007 0.295512 0.186681 0.0703726 0.155323 0.362747 0.239318 0.288612 0.108604 0.201213 0.182139 0.308468 0.157591 0.266995 0.373492
internal_weight=0 4121 4167 2748 2111 1419 2550 1571 1055 1374 457 962 2057 637 402 516 292 644 706 408 450 1085 737 1351 114 289 512 493 329 394
internal_count=8288 4121 4167 2748 2111 1419 2550 1571 1055 1374 457 962 2057 637 402 516 292 644 706 408 450 1085 737 1351 114 289 512 493 329 394
is_linear=0
shrinkage=0.02


Tree=15
num_leaves=31
num_cat=0
split_feature=4 10 4 9 3 2 3 3 4 3 6 10 11 3 9 10 6 2 3 7 5 6 10 11 10 3 2 11 3 9
split_gain=72654.2 15223.8 13545.8 5259.3 4804.82 3653.77 3413.1 3235.45 2360.66 2153.46 2016.83 1706.39 1628.52 1620.33 1583.7 1121.94 1108.32 940.308 925.982 878.075 831.352 825.944 743.167 737.548 722.955 708.556 708.181 662.278 577.753 570.141
threshold=11.500000000000002 9.5000000000000018 19.500000000000004 11.500000000000002 0.055000000000000007 56.500000000000007 0.03500000000000001 0.055000000000000007 27.500000000000004 0.15500000000000003 13.500000000000002 21.500000000000004 4.5000000000000009 0.56500000000000006 21.500000000000004 15.500000000000002 11.500000000000002 60.500000000000007 0.26500000000000007 15.500000000000002 29.500000000000004 11.500000000000002 7.5000000000000009 5.5000000000000009 9.5000000000000018 0.085000000000000006 47.500000000000007 5.5000000000000009 0.57500000000000007 23.500000000000004
decision_type=2 2 2 2 2 2 2 2 2 2 2 2 2 2 2 2 2 2 2 2 2 2 2 2 2 2 2 2 2 2
left_child=1 5 3 9 8 12 10 11 14 16 17 20 21 19 -4 -8 -2 -3 22 -6 23 -1 -14 -5 -18 -7 -10 -16 -9 -12
right_child=2 6 4 7 13 25 15 28 26 -11 29 -13 18 -15 27 -17 24 -19 -20 -21 -22 -23 -24 -25 -26 -27 -28 -29 -30 -31
leaf_value=0.10086779722507441 0.17139288366325306 0.16582191061478013 0.27326909335735627 0.25011578486716912 0.20729912669530937 0.16563558514992796 0.11978084463343069 0.20230345368831792 0.28709717497681125 0.11229057510475247 0.22881716680108455 0.3020977072282271 0.076594930364821304 0.14674764810715402 0.33803067654979474 0.18113181619242549 0.18327795689596851 0.21731189133431675 0.035624890587573226 0.27630670556315667 0.34217168644496376 0.15234019238314184 0.16286536758596246 0.19562246473975806 0.24041683992268298 0.10484487912098044 0.35749182137728297 0.24222081869840623 0.13408254668849412 0.29184092652970467
leaf_weight=1212 348 433 565 730 112 398 329 267 66 142 342 297 433 70 294 187 136 211 229 216 35 139 44 115 254 95 427 32 61 69
leaf_count=1212 348 433 565 730 112 398 329 267 66 142 342 297 433 70 294 187 136 211 229 216 35 139 44 115 254 95 427 32 61 69
internal_value=0 0.135192 0.253625 0.222455 0.295342 0.10502 0.184167 0.245166 0.312953 0.183616 0.204783 0.260646 0.0932994 0.234101 0.293523 0.142015 0.197339 0.182692 0.0686824 0.252743 0.246656 0.106164 0.0845528 0.2427 0.220491 0.153921 0.348068 0.328626 0.189616 0.239398
internal_weight=0 4121 4167 2385 1782 2550 1571 1505 1384 880 1055 1177 2057 398 891 516 738 644 706 328 880 1351 477 845 390 493 493 326 328 411
internal_count=8288 4121 4167 2385 1782 2550 1571 1505 1384 880 1055 1177 2057 398 891 516 738 644 706 328 880 1351 477 845 390 493 493 326 328 411
is_linear=0
shrinkage=0.02


Tree=16
num_leaves=31
num_cat=0
split_feature=4 10 10 3 3 5 2 3 4 6 3 11 9 7 3 5 7 2 7 2 3 11 11 9 7 3 6 2 4 8
split_gain=70366.2 14692.8 13231 5448.77 4830.19 3805.9 3482.75 3267.85 3204.56 1957.11 1833.03 1565.63 1532.28 1103.54 1087.06 988.577 963.589 903.25 897.438 874.785 808.972 796.754 751.181 746.629 740.81 689.151 683.331 665.452 658.694 624.736
threshold=11.500000000000002 9.5000000000000018 17.500000000000004 0.055000000000000007 0.015000000000000001 17.500000000000004 56.500000000000007 0.03500000000000001 23.500000000000004 13.500000000000002 0.56500000000000006 4.5000000000000009 7.5000000000000009 16.500000000000004 0.47000000000000003 27.500000000000004 21.500000000000004 68.500000000000014 9.5000000000000018 47.500000000000007 0.03500000000000001 4.5000000000000009 4.5000000000000009 21.500000000000004 13.500000000000002 0.76500000000000012 13.500000000000002 56.500000000000007 17.500000000000004 13.500000000000002
decision_type=2 2 2 2 2 2 2 2 2 2 2 2 2 2 2 2 2 2 2 2 2 2 2 2 2 2 2 2 2 2
left_child=1 6 3 5 8 12 11 9 23 17 16 20 -2 -9 24 22 -6 29 -13 -10 26 -15 -7 -4 -5 -8 -1 -21 -14 -3
right_child=2 7 4 14 10 15 25 13 19 -11 -12 18 28 21 -16 -17 -18 -19 -20 27 -22 -23 -24 -25 -26 -27 -28 -29 -30 -31
leaf_value=0.11553794605964955 0.16988161237493379 0.15910210859100773 0.26940309646819766 0.14732881803287043 0.23306957732353892 0.27862228650573295 0.15520675406143478 0.12353464922835281 0.28191866383408054 0.2346267783750583 0.15409173173693622 0.052249362122018632 0.21182916057192619 0.22420318653417187 0.10947920916500943 0.31533437126253278 0.28816802534792163 0.26416778212008268 0.10144233320400399 0.39284230334849296 0.090529947803379626 0.1013698657389198 0.22667511389307354 0.31062416435569845 0.20240392491437387 0.035349259860813616 0.19757913665337995 0.34150681325367521 0.24802454179930458 0.20410818775494893
leaf_weight=527 268 424 475 185 308 282 473 402 66 411 82 494 576 86 129 163 216 46 212 158 780 28 184 279 207 20 44 280 309 174
leaf_count=527 268 424 475 185 308 282 473 402 66 411 82 494 576 86 129 163 216 46 212 158 780 28 184 279 207 20 44 280 309 174
internal_value=0 0.132242 0.248795 0.216733 0.288409 0.233367 0.102601 0.180355 0.310754 0.200528 0.242022 0.0911581 0.211779 0.13911 0.159839 0.27294 0.255782 0.178767 0.0670212 0.349797 0.103772 0.194034 0.258111 0.284656 0.176412 0.150344 0.12186 0.360025 0.224467 0.172198
internal_weight=0 4121 4167 2303 1864 1782 2550 1571 1258 1055 606 2057 1153 516 521 629 524 644 706 504 1351 114 466 754 392 493 571 438 885 598
internal_count=8288 4121 4167 2303 1864 1782 2550 1571 1258 1055 606 2057 1153 516 521 629 524 644 706 504 1351 114 466 754 392 493 571 438 885 598
is_linear=0
shrinkage=0.02


Tree=17
num_leaves=31
num_cat=0
split_feature=4 10 4 9 3 2 3 3 3 9 10 3 10 11 11 6 7 9 3 2 6 5 10 8 11 5 10 3 10 3
split_gain=68141.9 14181.2 12939.6 5620.32 4059.28 3318.78 3308.67 3128.36 2241.37 2058.25 1930.23 1676.78 1655.4 1505.16 1319.29 1241.86 989.545 940.432 870.906 859.337 859.292 801.859 790.593 785.983 730.827 726.207 714.364 662.647 639.684 628.401
threshold=11.500000000000002 9.5000000000000018 21.500000000000004 11.500000000000002 0.015000000000000001 56.500000000000007 0.055000000000000007 0.055000000000000007 0.15500000000000003 13.500000000000002 21.500000000000004 0.56500000000000006 21.500000000000004 4.5000000000000009 4.5000000000000009 11.500000000000002 18.500000000000004 21.500000000000004 0.26500000000000007 47.500000000000007 11.500000000000002 29.500000000000004 15.500000000000002 11.500000000000002 5.5000000000000009 25.500000000000004 7.5000000000000009 0.76500000000000012 9.5000000000000018 0.57500000000000007
decision_type=2 2 2 2 2 2 2 2 2 2 2 2 2 2 2 2 2 2 2 2 2 2 2 2 2 2 2 2 2 2
left_child=1 5 3 8 12 13 10 9 15 20 21 14 25 23 17 -2 -9 -6 26 -14 -3 24 -11 -1 -5 -4 -15 -7 -17 -8
right_child=2 7 4 6 11 27 29 16 -10 22 -12 -13 19 18 -16 28 -18 -19 -20 -21 -22 -23 -24 -25 -26 -27 -28 -29 -30 -31
leaf_value=0.096084979893585484 0.16577642037154555 0.15280688559886108 0.27634188545081351 0.24319060328968786 0.24379216637644735 0.1516123284988625 0.20009534279880284 0.12066777403716962 0.11022016779844078 0.19817628431779979 0.29370230413993748 0.14044988645071332 0.27109067712511337 0.072991040543788577 0.19916067513552579 0.18329073031743368 0.19742229352026811 0.31559208793128096 0.033342653135952076 0.35481968088198435 0.20207349057422089 0.32470451421515889 0.24942972864941498 0.14492777643372884 0.19229259442366087 0.32847600918067132 0.15757320561192253 0.034082233607769012 0.23323714251955488 0.13390394121355245
leaf_weight=1203 364 388 360 855 143 473 318 394 155 222 365 55 56 433 110 159 81 149 229 394 223 43 263 148 130 152 44 20 289 70
leaf_count=1203 364 388 360 855 143 473 318 394 155 222 365 55 56 433 110 159 81 149 229 394 223 43 263 148 130 152 44 20 289 70
internal_value=0 0.129359 0.244055 0.21873 0.2931 0.100238 0.239805 0.176627 0.179913 0.195207 0.254192 0.244022 0.316415 0.0890682 0.258192 0.193216 0.133756 0.28043 0.065402 0.3444 0.170788 0.240164 0.225969 0.101436 0.236473 0.291819 0.0807932 0.146844 0.215511 0.188154
internal_weight=0 4121 4167 2748 1419 2550 1781 1571 967 1096 1393 457 962 2057 402 812 475 292 706 450 611 1028 485 1351 985 512 477 493 448 388
internal_count=8288 4121 4167 2748 1419 2550 1781 1571 967 1096 1393 457 962 2057 402 812 475 292 706 450 611 1028 485 1351 985 512 477 493 448 388
is_linear=0
shrinkage=0.02


Tree=18
num_leaves=31
num_cat=0
split_feature=4 10 4 10 2 3 3 9 3 3 11 9 3 10 6 3 6 7 6 11 3 7 8 2 11 3 5 7 11 2
split_gain=65998 13708.1 12619.5 6540.73 4404.42 3409.39 3289.82 2243.88 2232.86 2123.76 1761.32 1260.07 1249.8 1230.84 1224.37 1165 1149.11 989.46 962.301 924.028 860.266 807.604 783.86 748.469 746.402 670.133 665.544 650.439 647.654 642.13
threshold=11.500000000000002 11.500000000000002 23.500000000000004 11.500000000000002 56.500000000000007 0.055000000000000007 0.015000000000000001 21.500000000000004 0.15500000000000003 0.03500000000000001 4.5000000000000009 7.5000000000000009 0.56500000000000006 21.500000000000004 13.500000000000002 0.92000000000000004 11.500000000000002 9.5000000000000018 15.500000000000002 5.5000000000000009 0.085000000000000006 17.500000000000004 13.500000000000002 63.500000000000007 4.5000000000000009 0.025000000000000005 26.500000000000004 19.500000000000004 4.5000000000000009 47.500000000000007
decision_type=2 2 2 2 2 2 2 2 2 2 2 2 2 2 2 2 2 2 2 2 2 2 2 2 2 2 2 2 2 2
left_child=1 4 3 8 10 7 13 18 11 16 14 -2 24 -4 25 27 -3 -12 23 -9 22 -11 -6 -5 -8 -1 -13 -7 -23 -15
right_child=2 9 6 5 20 15 12 19 -10 21 17 26 -14 29 -16 -17 -18 -19 -20 -21 -22 28 -24 -25 -26 -27 -28 -29 -30 -31
leaf_value=0.11485795076600219 0.15187815989116354 0.17697750733121409 0.29520545904258155 0.2022091485796913 0.14669872764965997 0.17877610379155134 0.28078928182567409 0.29866762097000232 0.10617300022661297 0.12767793892784551 0.049908624516756393 0.19959370632565349 0.14377055255378166 0.27604768308003746 0.16540556457535974 0.044402450138614297 0.22529087513198942 0.098984970029843744 0.25697229822402157 0.21221541932650975 0.099874057453290546 0.2213942732129778 0.20310141854613795 0.24626612585602384 0.21134441578110985 0.086934304663779938 0.28411536550521854 0.23051748158137003 0.096091858943303438 0.3564839292209297
leaf_weight=565 252 364 353 371 398 276 221 423 153 275 512 545 41 45 116 21 429 242 533 56 113 77 131 264 86 878 40 150 21 337
leaf_count=565 252 364 353 371 398 276 221 423 153 275 512 545 41 45 116 21 429 242 533 56 113 77 131 264 86 878 40 150 21 337
internal_value=0 0.126533 0.23941 0.218785 0.10362 0.238812 0.298143 0.252107 0.176425 0.184602 0.0907556 0.189267 0.247485 0.322129 0.102893 0.189826 0.203114 0.0656599 0.237158 0.28856 0.149966 0.145246 0.160666 0.220526 0.261336 0.0978677 0.205373 0.196995 0.194544 0.347008
internal_weight=0 4121 4167 3084 2955 2094 1083 1647 990 1166 2313 837 348 735 1559 447 793 754 1168 479 642 373 529 635 307 1443 585 426 98 382
internal_count=8288 4121 4167 3084 2955 2094 1083 1647 990 1166 2313 837 348 735 1559 447 793 754 1168 479 642 373 529 635 307 1443 585 426 98 382
is_linear=0
shrinkage=0.02


Tree=19
num_leaves=31
num_cat=0
split_feature=4 10 4 9 2 3 3 4 3 3 3 3 10 6 9 9 9 2 6 4 3 5 7 8 11 11 6 2 11 10
split_gain=63914.1 13242.2 12330.5 4716.37 4199.99 4196.43 2734.2 2163.34 2033.65 1864.59 1775.04 1696.7 1571.72 1420.81 1355.42 1148.55 1135.87 1037.37 998.171 927.756 824.069 789.212 783.66 762.922 734.08 687.213 669.928 666.181 665.063 651.513
threshold=11.500000000000002 11.500000000000002 19.500000000000004 11.500000000000002 56.500000000000007 0.015000000000000001 0.055000000000000007 27.500000000000004 0.03500000000000001 0.15500000000000003 0.56500000000000006 0.27500000000000008 21.500000000000004 13.500000000000002 21.500000000000004 21.500000000000004 23.500000000000004 64.500000000000014 11.500000000000002 5.5000000000000009 0.085000000000000006 29.500000000000004 17.500000000000004 13.500000000000002 4.5000000000000009 5.5000000000000009 13.500000000000002 47.500000000000007 4.5000000000000009 9.5000000000000018
decision_type=2 2 2 2 2 2 2 2 2 2 2 2 2 2 2 2 2 2 2 2 2 2 2 2 2 2 2 2 2 2
left_child=1 4 3 9 11 7 12 15 16 18 14 13 21 19 -7 -4 17 26 -2 -1 23 25 -10 -6 -16 -5 -3 -9 -13 -20
right_child=2 8 5 6 20 10 -8 27 22 -11 -12 28 -14 -15 24 -17 -18 -19 29 -21 -22 -23 -24 -25 -26 -27 -28 -29 -30 -31
leaf_value=0.077661755759895396 0.15647940575487743 0.16071693843793733 0.25779791352277742 0.23072722955599223 0.14320091808561106 0.21282431389352932 0.17555362871620894 0.27149691706611995 0.12502628822001544 0.10196375753258316 0.13575687833662545 0.076451080433562787 0.28063239100404863 0.15234425761059606 0.29692765381025232 0.30872651846739496 0.26628011542759583 0.23770688588927391 0.16774735505090038 0.10844670111600785 0.097481160744760945 0.32048681858607703 0.19089342680512644 0.19884523562802614 0.2098166913402324 0.17812625588541448 0.20585080254245813 0.34185257948572573 0.032332857849165862 0.22198959292858603
leaf_weight=817 348 344 501 730 398 271 328 63 275 142 70 339 297 176 184 274 89 147 136 752 113 35 98 131 49 115 213 370 229 254
leaf_count=817 348 344 501 730 398 271 328 63 275 142 70 339 297 176 184 274 89 147 136 752 113 35 98 131 49 115 213 370 229 254
internal_value=0 0.12377 0.234851 0.205113 0.10125 0.274653 0.226619 0.295809 0.180844 0.168333 0.230129 0.088688 0.24085 0.0984608 0.243236 0.275804 0.198959 0.190449 0.181103 0.0924166 0.146508 0.227423 0.142332 0.156981 0.278608 0.223569 0.177976 0.331616 0.058664 0.203074
internal_weight=0 4121 4167 2385 2955 1782 1505 1208 1166 880 574 2313 1177 1745 504 775 793 704 738 1569 642 880 373 529 233 845 557 433 568 390
internal_count=8288 4121 4167 2385 2955 1782 1505 1208 1166 880 574 2313 1177 1745 504 775 793 704 738 1569 642 880 373 529 233 845 557 433 568 390
is_linear=0
shrinkage=0.02


Tree=20
num_leaves=31
num_cat=0
split_feature=4 10 4 10 2 3 3 9 3 9 11 9 10 3 6 3 3 7 6 3 11 2 3 10 2 5 8 7 3 2
split_gain=61882.7 12795.4 12045.7 6196.25 4002.3 3129.78 3078.03 2150.6 2073.46 1966.93 1661.81 1190.19 1188.87 1172.12 1150.24 1118 998.766 931.754 920.934 916.62 892.648 848.396 796.992 768.065 710.461 643.054 641.437 624.183 623.102 616.053
threshold=11.500000000000002 11.500000000000002 23.500000000000004 11.500000000000002 56.500000000000007 0.055000000000000007 0.015000000000000001 21.500000000000004 0.15500000000000003 11.500000000000002 4.5000000000000009 7.5000000000000009 21.500000000000004 0.56500000000000006 13.500000000000002 0.92000000000000004 0.055000000000000007 9.5000000000000018 17.500000000000004 0.015000000000000001 5.5000000000000009 63.500000000000007 0.34500000000000003 23.500000000000004 53.500000000000007 26.500000000000004 13.500000000000002 19.500000000000004 0.025000000000000005 45.500000000000007
decision_type=2 2 2 2 2 2 2 2 2 2 2 2 2 2 2 2 2 2 2 2 2 2 2 2 2 2 2 2 2 2
left_child=1 4 3 8 10 7 12 18 11 19 14 -2 -4 24 28 27 23 -12 21 -3 -9 -5 26 -11 -8 -13 -6 -7 -1 -14
right_child=2 9 6 5 22 15 13 20 -10 16 17 25 29 -15 -16 -17 -18 -19 -20 -21 -22 -23 -24 -25 -26 -27 -28 -29 -30 -31
leaf_value=0.10997459408245255 0.14503170243094837 0.17074152805928375 0.28449655151527597 0.1960369025034063 0.13707515390757599 0.17195697753865649 0.21545670384407042 0.28807573957646143 0.10129591227305165 0.20258962428201688 0.047011128975254904 0.19134118834110575 0.26114263486862183 0.13831618282853103 0.15905283126337774 0.040321618801071532 0.15848651411355208 0.094634875043657071 0.25201113279990872 0.11529517770443164 0.2031041819708688 0.2386342541757458 0.067257949943635986 0.26949562238483893 0.27738351217174267 0.27442253017425539 0.18415426782414884 0.22264328209559123 0.083048624340678168 0.34409477703752572
leaf_weight=565 252 271 353 425 433 276 125 423 153 421 512 545 40 41 116 21 179 242 409 213 56 334 51 82 182 40 158 150 878 342
leaf_count=565 252 271 353 425 433 276 125 423 153 421 512 545 40 41 116 21 179 242 409 213 56 334 51 82 182 40 158 150 878 342
internal_value=0 0.121073 0.230374 0.210224 0.0989353 0.229716 0.287756 0.242454 0.168994 0.177176 0.0866726 0.181369 0.310957 0.238755 0.0984621 0.182782 0.199059 0.0622962 0.227819 0.146341 0.278142 0.214782 0.143115 0.213497 0.252169 0.197022 0.149661 0.189804 0.0935914 0.335409
internal_weight=0 4121 4167 3084 2955 2094 1083 1647 990 1166 2313 837 735 348 1559 447 682 754 1168 484 479 759 642 503 307 585 591 426 1443 382
internal_count=8288 4121 4167 3084 2955 2094 1083 1647 990 1166 2313 837 735 348 1559 447 682 754 1168 484 479 759 642 503 307 585 591 426 1443 382
is_linear=0
shrinkage=0.02


Tree=21
num_leaves=31
num_cat=0
split_feature=4 10 10 3 3 2 5 4 9 11 3 9 6 3 3 5 7 3 7 2 3 10 8 11 9 7 2 3 4 3
split_gain=59929 12364 11772.8 4488.26 4058.22 3815.1 3431.83 2871.52 1905.3 1597.83 1552.2 1311.25 1114.49 953.625 945.179 915.757 899.389 882 880.503 782.433 767.214 751.304 725.004 704.839 666.774 656.661 600.595 594.456 589.559 512.189
threshold=11.500000000000002 11.500000000000002 17.500000000000004 0.055000000000000007 0.015000000000000001 56.500000000000007 17.500000000000004 23.500000000000004 11.500000000000002 4.5000000000000009 0.56500000000000006 7.5000000000000009 13.500000000000002 0.055000000000000007 0.47000000000000003 27.500000000000004 9.5000000000000018 0.015000000000000001 21.500000000000004 47.500000000000007 0.085000000000000006 23.500000000000004 13.500000000000002 4.5000000000000009 21.500000000000004 13.500000000000002 56.500000000000007 0.025000000000000005 17.500000000000004 0.18500000000000003
decision_type=2 2 2 2 2 2 2 2 2 2 2 2 2 2 2 2 2 2 2 2 2 2 2 2 2 2 2 2 2 2
left_child=1 5 3 6 7 9 11 24 17 12 18 -2 27 21 25 23 -11 -3 -6 -9 22 -10 -7 -8 -4 -5 -21 -1 -13 -18
right_child=2 8 4 14 10 20 15 19 13 16 -12 28 -14 -15 -16 -17 29 -19 -20 26 -22 -23 -24 -25 -26 -27 -28 -29 -30 -31
leaf_value=0.10746113547339904 0.15158442649691461 0.16716324098951207 0.24471873296436511 0.13218062061393585 0.21178791711856793 0.13647217247775525 0.25401601405853919 0.25660067710009488 0.19843370624222836 0.045773278070919333 0.13992241969922695 0.19012327852451968 0.15589508806837016 0.15546846455223234 0.097150120298024417 0.28922296880944376 0.11281877915003548 0.11277404438092116 0.26445738429859006 0.36164626565160635 0.092494805782242159 0.26460564747089294 0.19071605973571312 0.20369671359010366 0.28367310797441819 0.18403347487610894 0.3128765258789063 0.081161385219807231 0.22436652105603017 0.050768238085357451
leaf_weight=565 268 271 475 185 308 398 282 66 421 512 82 576 116 179 129 163 163 213 216 158 113 82 131 184 279 207 280 878 309 79
leaf_count=565 268 271 475 185 308 398 282 66 421 512 82 576 116 179 129 163 163 213 216 158 113 82 131 184 279 207 280 878 309 79
internal_value=0 0.118427 0.225989 0.195745 0.263355 0.0966656 0.210842 0.283837 0.173576 0.0846931 0.220837 0.190342 0.0962534 0.195113 0.144109 0.24842 0.0607905 0.143227 0.233499 0.320796 0.1398 0.209221 0.149905 0.234147 0.259133 0.159562 0.330469 0.0914589 0.202079 0.0925626
internal_weight=0 4121 4167 2303 1864 2955 1782 1258 1166 2313 606 1153 1559 682 521 629 754 484 524 504 642 503 529 466 754 392 438 1443 885 242
internal_count=8288 4121 4167 2303 1864 2955 1782 1258 1166 2313 606 1153 1559 682 521 629 754 484 524 504 642 503 529 466 754 392 438 1443 885 242
is_linear=0
shrinkage=0.02


Tree=22
num_leaves=31
num_cat=0
split_feature=4 10 10 3 3 9 2 4 4 3 3 11 3 8 9 6 3 3 11 9 2 4 10 7 5 2 5 11 2 3
split_gain=58092.3 15994.8 8429.73 3632.61 3534.82 3442.35 3325.79 2503.32 2253.37 2167.3 1514.45 1439.1 1435.74 1381.72 1329.55 964.762 863.959 856.785 853.905 775.613 762.139 751.827 714.473 706.577 658.141 642.799 611.466 585.053 577.012 501.999
threshold=13.500000000000002 9.5000000000000018 17.500000000000004 0.13500000000000004 0.015000000000000001 15.500000000000002 56.500000000000007 23.500000000000004 23.500000000000004 0.015000000000000001 0.56500000000000006 5.5000000000000009 0.27500000000000008 11.500000000000002 13.500000000000002 12.500000000000002 0.055000000000000007 0.76500000000000012 4.5000000000000009 21.500000000000004 47.500000000000007 5.5000000000000009 15.500000000000002 21.500000000000004 11.500000000000002 48.500000000000007 27.500000000000004 4.5000000000000009 56.500000000000007 0.37500000000000006
decision_type=2 2 2 2 2 2 2 2 2 2 2 2 2 2 2 2 2 2 2 2 2 2 2 2 2 2 2 2 2 2
left_child=1 6 3 7 8 9 12 14 -4 15 23 16 13 21 24 -3 22 -8 19 -5 -10 -1 -7 -6 -2 -11 -16 -14 -22 -27
right_child=2 5 4 18 10 11 17 -9 20 25 -12 -13 27 -15 26 -17 -18 -19 -20 -21 28 -23 -24 -25 -26 29 -28 -29 -30 -31
leaf_value=0.068930837649545856 0.15255113461292913 0.1515846766075428 0.25864773501236238 0.14288688550124298 0.2138720105413292 0.19612955113461145 0.13968782423314416 0.26450770204004487 0.25186924331115956 0.084604533448176727 0.13888999498988452 0.13396440376188154 0.070584690068038067 0.13446178288457497 0.21610174753366768 0.19712413586165806 0.16954990525307845 0.020077372366189956 0.08553305132625004 0.26545577903588613 0.3553323665298993 0.098247665799045494 0.24612889892963583 0.26347762656300816 0.19535471024065473 0.14707801294712886 0.29139424080544329 0.027938137450360806 0.30752970664841789 0.094873310009638473
leaf_weight=730 223 513 638 148 268 190 573 304 66 175 76 107 308 245 526 292 139 25 96 24 158 672 287 201 404 247 47 221 280 105
leaf_count=730 223 513 638 148 268 190 573 304 66 175 76 107 308 245 526 292 139 25 96 24 158 672 287 201 404 247 47 221 280 105
internal_value=0 0.124242 0.231619 0.201155 0.263618 0.166532 0.0929137 0.213243 0.283618 0.147462 0.221711 0.201667 0.0814336 0.0906406 0.200256 0.168103 0.213427 0.134687 0.133319 0.15999 0.315227 0.0829828 0.226213 0.235132 0.180131 0.115931 0.222278 0.0527683 0.324774 0.131506
internal_weight=0 4829 3459 1772 1687 2055 2774 1504 1142 1332 545 723 2176 1647 1200 805 616 598 268 172 504 1402 477 469 627 527 573 529 438 352
internal_count=8288 4829 3459 1772 1687 2055 2774 1504 1142 1332 545 723 2176 1647 1200 805 616 598 268 172 504 1402 477 469 627 527 573 529 438 352
is_linear=0
shrinkage=0.02


Tree=23
num_leaves=31
num_cat=0
split_feature=4 10 4 3 9 2 10 3 3 11 3 8 11 9 10 3 6 3 3 7 4 10 2 5 9 2 2 11 8 6
split_gain=56293.9 15438.6 8211.94 3921.93 3335.52 3165.65 3048.15 2773.69 2077.11 1404.26 1370.81 1335.75 1250.9 1221.22 1112.33 1061.4 934.768 828.866 823.222 752.491 728.161 697.213 684.746 649.711 643.153 620.41 574.021 560.513 505.601 492.614
threshold=13.500000000000002 9.5000000000000018 23.500000000000004 0.055000000000000007 15.500000000000002 56.500000000000007 17.500000000000004 0.015000000000000001 0.015000000000000001 5.5000000000000009 0.27500000000000008 11.500000000000002 4.5000000000000009 11.500000000000002 21.500000000000004 0.56500000000000006 12.500000000000002 0.055000000000000007 0.76500000000000012 17.500000000000004 5.5000000000000009 15.500000000000002 53.500000000000007 27.500000000000004 21.500000000000004 48.500000000000007 45.500000000000007 4.5000000000000009 31.500000000000004 17.500000000000004
decision_type=2 2 2 2 2 2 2 2 2 2 2 2 2 2 2 2 2 2 2 2 2 2 2 2 2 2 2 2 2 2
left_child=1 5 3 6 8 10 13 14 16 17 11 20 19 29 28 22 -3 21 -7 -5 -1 -6 -9 -15 -8 -10 -16 -12 -4 -2
right_child=2 4 7 12 9 18 24 15 25 -11 27 -13 -14 23 26 -17 -18 -19 -20 -21 -22 -23 -24 -25 -26 -27 -28 -29 -30 -31
leaf_value=0.067219002465845071 0.16160135703553785 0.14828387786617928 0.26346959436977946 0.15420578263307871 0.19211624873311894 0.13643829640371638 0.23615780381666618 0.20311338512182237 0.082692380399203722 0.13081573147013364 0.069009962137304731 0.13166336665895523 0.10879245462993237 0.21047795013086684 0.24689376688003542 0.13081293620714327 0.19310985993032584 0.16633374279351543 0.019193968974798917 0.21089104211555337 0.09607071869419001 0.2415079548633057 0.2639091278890987 0.28351051348560263 0.27400727745712988 0.12876940866170281 0.32696611616346571 0.027267398947230397 0.3670038785934448 0.21139469139851055
leaf_weight=730 337 513 333 228 190 573 443 125 175 107 308 245 146 604 40 41 292 139 25 159 672 287 182 53 302 352 342 221 20 104
leaf_count=730 337 513 333 228 190 573 443 125 175 107 308 245 146 604 40 41 292 139 25 159 672 287 182 53 302 352 342 221 20 104
internal_value=0 0.12156 0.227262 0.206457 0.163109 0.0907812 0.220275 0.272906 0.144336 0.197694 0.0795809 0.0885774 0.158676 0.199089 0.29493 0.226391 0.164544 0.20931 0.131537 0.177495 0.0810481 0.221834 0.239155 0.216369 0.251501 0.113469 0.318582 0.0515712 0.269336 0.173344
internal_weight=0 4829 3459 2376 2055 2774 1843 1083 1332 723 2176 1647 533 1098 735 348 805 616 598 387 1402 477 307 657 745 527 382 529 353 441
internal_count=8288 4829 3459 2376 2055 2774 1843 1083 1332 723 2176 1647 533 1098 735 348 805 616 598 387 1402 477 307 657 745 527 382 529 353 441
is_linear=0
shrinkage=0.02


Tree=24
num_leaves=31
num_cat=0
split_feature=4 10 10 3 3 9 2 4 4 3 3 11 3 8 9 6 11 10 3 9 3 2 4 7 5 2 5 2 11 8
split_gain=54558.5 14901.5 8020.72 3392.32 3298.72 3232.87 3013.5 2392.46 2158.05 1991.64 1425.27 1370.96 1312.32 1291.88 1261.04 905.516 809.521 804.292 793.029 745.474 744.32 727.355 705.379 677.368 626.315 598.253 591.575 543.867 536.381 482.084
threshold=13.500000000000002 9.5000000000000018 17.500000000000004 0.13500000000000004 0.015000000000000001 15.500000000000002 56.500000000000007 23.500000000000004 23.500000000000004 0.015000000000000001 0.56500000000000006 5.5000000000000009 0.27500000000000008 11.500000000000002 13.500000000000002 12.500000000000002 4.5000000000000009 25.500000000000004 0.76500000000000012 21.500000000000004 0.055000000000000007 47.500000000000007 5.5000000000000009 21.500000000000004 11.500000000000002 48.500000000000007 29.500000000000004 56.500000000000007 4.5000000000000009 27.500000000000004
decision_type=2 2 2 2 2 2 2 2 2 2 2 2 2 2 2 2 2 2 2 2 2 2 2 2 2 2 2 2 2 2
left_child=1 6 3 7 8 9 12 14 -4 15 23 17 13 22 24 -3 19 20 -8 -5 -7 -10 -1 -6 -2 -11 -16 -23 -14 -15
right_child=2 5 4 16 10 11 18 -9 21 25 -12 -13 28 29 26 -17 -18 -19 -20 -21 -22 27 -24 -25 -26 -27 -28 -29 -30 -31
leaf_value=0.065551997795874048 0.14575666104731538 0.1450540527489334 0.24908887480867323 0.13692299492455817 0.20592536993435961 0.20854926887585457 0.1332679659349236 0.25507401851447004 0.24256338354313012 0.080822521616678161 0.13337611921033576 0.12771991198308 0.067418909855670742 0.11991000854485745 0.20852456796124966 0.18917307661208388 0.081194458740452918 0.26201130029767056 0.018193809123337269 0.25708689709504445 0.15104834509932477 0.34345271801646754 0.093948784812708339 0.25449484306781445 0.18751249467529874 0.12606928880368781 0.29338142299652098 0.29704332701648983 0.026584821362411859 0.2161009086733279
leaf_weight=730 223 513 638 148 268 415 573 304 66 175 76 107 308 222 538 292 96 86 25 24 115 158 672 201 404 352 35 280 221 23
leaf_count=730 223 513 638 148 268 415 573 304 66 175 76 107 308 222 538 292 96 86 25 24 115 158 672 201 404 352 35 280 221 23
internal_value=0 0.118932 0.222992 0.193276 0.254205 0.159751 0.0886931 0.204957 0.273525 0.14127 0.213721 0.1938 0.0777652 0.0865676 0.192261 0.161057 0.127721 0.205278 0.128457 0.15369 0.196073 0.304458 0.079163 0.226741 0.172662 0.111044 0.213708 0.313785 0.0503597 0.12894
internal_weight=0 4829 3459 1772 1687 2055 2774 1504 1142 1332 545 723 2176 1647 1200 805 268 616 598 172 530 504 1402 469 627 527 573 438 529 245
internal_count=8288 4829 3459 1772 1687 2055 2774 1504 1142 1332 545 723 2176 1647 1200 805 268 616 598 172 530 504 1402 469 627 527 573 438 529 245
is_linear=0
shrinkage=0.02


Tree=25
num_leaves=31
num_cat=0
split_feature=10 4 4 3 3 3 9 5 2 4 2 3 11 9 11 3 9 7 11 7 6 3 11 6 11 4 2 8 7 8
split_gain=52892.3 13196.2 11437 3292.27 3163.01 2989.81 2638.72 2297.8 2162.03 2118.65 1466.77 1341.68 1238.93 1224.85 1214.73 1205.2 1060.93 985.75 880.986 771.022 721.94 643.305 624.06 569.231 560.282 647.435 542.388 555.528 521.667 475.028
threshold=11.500000000000002 17.500000000000004 9.5000000000000018 0.055000000000000007 0.15500000000000003 0.055000000000000007 17.500000000000004 23.500000000000004 48.500000000000007 25.500000000000004 64.500000000000014 0.075000000000000025 3.5000000000000004 11.500000000000002 4.5000000000000009 0.56500000000000006 21.500000000000004 18.500000000000004 5.5000000000000009 23.500000000000004 15.500000000000002 0.51000000000000012 5.5000000000000009 13.500000000000002 5.5000000000000009 42.500000000000007 60.500000000000007 23.500000000000004 15.500000000000002 15.500000000000002
decision_type=2 2 2 2 2 2 2 2 2 2 2 2 2 2 2 2 2 2 2 2 2 2 2 2 2 2 2 2 2 2
left_child=2 3 8 6 7 9 10 13 12 16 20 23 -1 26 17 21 -3 29 19 -8 -2 28 -18 -10 -11 -26 27 -4 -7 -5
right_child=1 5 4 14 -6 15 18 -9 11 24 -12 -13 -14 -15 -16 -17 22 -19 -20 -21 -22 -23 -24 -25 25 -27 -28 -29 -30 -31
leaf_value=0.082028729303955522 0.14759305494216582 0.22614388773518226 0.12186257647944551 0.11692481730866139 0.08730079937568043 0.17229129417584493 0.22032171291429639 0.24364654904145461 0.10911936783382821 0.30048031611364234 0.2107381137578111 0.076028428445712365 0.042710281884826146 0.18015999314448108 0.074662897305992945 0.12453863768041998 0.28090781964284861 0.19639130239199876 0.16243813136219978 0.27665434559499186 0.18869521674249942 0.31843212044757346 0.1878564232774079 0.15309144010551934 0.20914551876359067 0.33627121383493597 0.16587682974458948 0.22256142077238664 0.22723995842979949 0.16667684254901752
leaf_weight=687 594 558 464 244 259 104 414 130 592 487 304 524 601 460 104 69 291 133 80 127 240 23 32 147 59 22 198 23 206 112
leaf_count=687 594 558 464 244 259 104 414 130 592 487 304 524 601 460 104 69 291 133 80 127 240 23 32 147 59 22 198 23 206 112
internal_value=0 0.208924 0.107865 0.177486 0.15102 0.248872 0.191225 0.163964 0.0819148 0.26226 0.17313 0.100508 0.0636822 0.154917 0.136733 0.200614 0.242842 0.149934 0.224385 0.233546 0.159421 0.216377 0.271689 0.117866 0.292379 0.243673 0.137966 0.126618 0.208806 0.132577
internal_weight=0 4203 4085 2352 1534 1851 1759 1275 2551 1449 1138 1263 1288 1145 593 402 881 489 621 541 834 333 323 739 568 81 685 487 310 356
internal_count=8288 4203 4085 2352 1534 1851 1759 1275 2551 1449 1138 1263 1288 1145 593 402 881 489 621 541 834 333 323 739 568 81 685 487 310 356
is_linear=0
shrinkage=0.02


Tree=26
num_leaves=31
num_cat=0
split_feature=4 10 4 10 10 3 3 3 2 3 6 3 10 11 3 5 2 11 9 2 9 3 10 3 3 2 8 9 3 8
split_gain=51287.2 13921.1 7664.38 4572.1 3624.6 2523.9 2435.13 2321.87 1663.87 1503.31 1380.59 1252.13 1049.96 1039.39 962.214 816.109 794.513 786.846 675.34 660.395 660.242 640.697 638.073 602.144 566.585 545.394 539.462 530.361 529.114 487.424
threshold=13.500000000000002 7.5000000000000009 23.500000000000004 15.500000000000002 17.500000000000004 0.015000000000000001 0.025000000000000005 0.055000000000000007 56.500000000000007 0.32500000000000007 12.500000000000002 0.015000000000000001 21.500000000000004 4.5000000000000009 0.56500000000000006 22.500000000000004 58.500000000000007 4.5000000000000009 21.500000000000004 53.500000000000007 23.500000000000004 0.67500000000000016 24.500000000000004 1.0000000180025095e-35 0.03500000000000001 45.500000000000007 18.500000000000004 11.500000000000002 0.055000000000000007 31.500000000000004
decision_type=2 2 2 2 2 2 2 2 2 2 2 2 2 2 2 2 2 2 2 2 2 2 2 2 2 2 2 2 2 2
left_child=1 8 4 7 6 12 15 10 13 20 16 22 29 24 19 27 -3 -13 -8 -7 23 26 -5 -6 -1 -14 -9 -2 -10 -4
right_child=2 3 5 11 9 14 18 21 28 -11 -12 17 25 -15 -16 -17 -18 -19 -20 -21 -22 -23 -24 -25 -26 -27 -28 -29 -30 -31
leaf_value=0.096609227484643706 0.16388131892613772 0.1104559030558135 0.24919529301984175 0.19050966560709029 0.23457384027854974 0.19119948920965193 0.12061659582654935 0.09601038077576847 0.12799003520299512 0.14688492218871693 0.17190609562222126 0.16609788142026419 0.23292295396327972 0.048498589874193636 0.12343865208509491 0.23266522823990166 0.15033023943299773 0.087073772805077693 0.19749679661022043 0.25090444101082099 0.25770406581281174 0.046188322200782991 0.24776893346867662 0.19212446679174899 0.067492266578965218 0.31097310152667307 0.16586821843166744 0.19574426667830522 0.069358598067413402 0.35085142135620118
leaf_weight=466 354 483 333 453 403 125 332 453 279 91 409 252 40 686 41 154 341 63 53 182 279 95 94 200 627 342 49 510 79 20
leaf_count=466 354 483 333 453 403 125 332 453 279 91 409 252 40 686 41 154 341 63 53 182 279 95 94 200 627 342 49 510 79 20
internal_value=0 0.113825 0.214717 0.14408 0.194617 0.258813 0.174046 0.126192 0.0757118 0.22428 0.141867 0.182057 0.279821 0.0677952 0.214441 0.19025 0.126957 0.150293 0.1312 0.226595 0.232265 0.093816 0.200349 0.220494 0.0799063 0.3028 0.102829 0.182689 0.115052 0.254955
internal_weight=0 4829 3459 2692 2376 1083 1403 1830 2137 973 1233 862 735 1779 348 1018 824 315 385 307 882 597 547 603 1093 382 502 864 358 353
internal_count=8288 4829 3459 2692 2376 1083 1403 1830 2137 973 1233 862 735 1779 348 1018 824 315 385 307 882 597 547 603 1093 382 502 864 358 353
is_linear=0
shrinkage=0.02


Tree=27
num_leaves=31
num_cat=0
split_feature=4 10 4 10 10 3 3 3 2 3 6 3 10 11 3 5 11 2 9 9 2 10 3 3 3 2 7 9 3 8
split_gain=49708.8 13431.4 7483.25 4434.21 3530.94 2442.05 2332.39 2211.5 1583.02 1452.98 1337.19 1202.45 1026.51 1000.68 932.77 797.183 769.991 760.131 658.085 646.785 644.242 625.038 623.181 581.004 542.02 532.655 529.439 514.104 505.669 477.645
threshold=13.500000000000002 7.5000000000000009 23.500000000000004 15.500000000000002 17.500000000000004 0.015000000000000001 0.025000000000000005 0.055000000000000007 56.500000000000007 0.32500000000000007 12.500000000000002 0.015000000000000001 21.500000000000004 4.5000000000000009 0.56500000000000006 22.500000000000004 4.5000000000000009 58.500000000000007 21.500000000000004 23.500000000000004 53.500000000000007 24.500000000000004 0.67500000000000016 1.0000000180025095e-35 0.03500000000000001 45.500000000000007 11.500000000000002 11.500000000000002 0.055000000000000007 31.500000000000004
decision_type=2 2 2 2 2 2 2 2 2 2 2 2 2 2 2 2 2 2 2 2 2 2 2 2 2 2 2 2 2 2
left_child=1 8 4 7 6 12 15 10 13 19 17 21 29 24 20 27 -13 -3 -8 23 -7 -5 26 -6 -1 -14 -9 -2 -10 -4
right_child=2 3 5 11 9 14 18 22 28 -11 -12 16 25 -15 -16 -17 -18 -19 -20 -21 -22 -23 -24 -25 -26 -27 -28 -29 -30 -31
leaf_value=0.09442083637537875 0.16039063058961919 0.10794533218162647 0.24463465953463906 0.18666460694329892 0.23013314651792161 0.18761854871600869 0.1181424020109586 0.086316481602511236 0.12494309701479464 0.14401447396356981 0.16832246317821931 0.1629846586263369 0.22858786809444429 0.047266739960624124 0.12101270861741974 0.22830116839377912 0.084811526622091016 0.14694735523193114 0.19403409613472111 0.25313156650164653 0.24658882213162853 0.2433359779322401 0.044892039404495765 0.18843558787144721 0.06594208756403068 0.30572113207209184 0.12997470588569182 0.19176144590798547 0.067625346874134448 0.34526594829559332
leaf_weight=466 354 483 333 453 403 125 332 336 279 91 409 252 40 686 41 154 63 341 53 279 182 94 95 200 627 342 166 510 79 20
leaf_count=466 354 483 333 453 403 125 332 336 279 91 409 252 40 686 41 154 63 341 53 279 182 94 95 200 627 342 166 510 79 20
internal_value=0 0.111359 0.210686 0.141078 0.190826 0.254258 0.170522 0.123461 0.0739225 0.220103 0.13876 0.178478 0.274924 0.0662006 0.210612 0.18638 0.14735 0.124086 0.12859 0.227953 0.222578 0.196403 0.0918641 0.216303 0.078084 0.297644 0.100753 0.178908 0.112295 0.250336
internal_weight=0 4829 3459 2692 2376 1083 1403 1830 2137 973 1233 862 735 1779 348 1018 315 824 385 882 307 547 597 603 1093 382 502 864 358 353
internal_count=8288 4829 3459 2692 2376 1083 1403 1830 2137 973 1233 862 735 1779 348 1018 315 824 385 882 307 547 597 603 1093 382 502 864 358 353
is_linear=0
shrinkage=0.02


Tree=28
num_leaves=31
num_cat=0
split_feature=4 10 4 10 10 3 3 3 3 2 3 3 6 10 3 5 11 8 11 9 9 7 11 10 2 11 3 3 9 2
split_gain=48178.7 12958.3 7306.58 4300.27 3439.93 2363.04 2234.15 2108.13 1514.81 1435.37 1404.69 1154.92 1070.83 1003.6 904.326 778.706 753.375 746.191 649.459 639.79 633.619 629.71 629.692 612.275 604.87 576.63 568.151 560.546 536.823 520.219
threshold=13.500000000000002 7.5000000000000009 23.500000000000004 15.500000000000002 17.500000000000004 0.015000000000000001 0.025000000000000005 0.015000000000000001 0.075000000000000025 44.500000000000007 0.32500000000000007 0.015000000000000001 12.500000000000002 21.500000000000004 0.56500000000000006 22.500000000000004 4.5000000000000009 21.500000000000004 4.5000000000000009 21.500000000000004 23.500000000000004 13.500000000000002 4.5000000000000009 24.500000000000004 68.500000000000014 4.5000000000000009 0.67500000000000016 1.0000000180025095e-35 21.500000000000004 45.500000000000007
decision_type=2 2 2 2 2 2 2 2 2 2 2 2 2 2 2 2 2 2 2 2 2 2 2 2 2 2 2 2 2 2
left_child=1 8 4 7 6 13 15 12 9 -1 20 23 24 -4 22 -2 -13 26 19 -8 27 -11 28 -5 -3 -10 -9 -6 -7 -15
right_child=2 3 5 11 10 14 18 17 25 21 -12 16 -14 29 -16 -17 -18 -19 -20 -21 -22 -23 -24 -25 -26 -27 -28 -29 -30 -31
leaf_value=0.059845399430554932 0.17520298988291028 0.11929978599203026 0.24580374526910001 0.18289610635629028 0.22577726260012493 0.20461865743001301 0.133932759549344 0.096876042497284071 0.065738416254520426 0.096610092520391155 0.14119153609642618 0.15992590968334486 0.16568112368227311 0.2243353489637375 0.1186300279454487 0.22402024217240221 0.082600823432680159 0.17559269440728564 0.092792511941922506 0.23270025102297465 0.24864456736699656 0.1490574303032639 0.1727180353136257 0.23898589735335493 0.19585703329606488 0.033334935380793781 0.044012593208524853 0.18482038598805667 0.26697640081422519 0.30056285270473415
leaf_weight=482 864 668 353 453 403 108 209 603 545 635 91 252 378 40 41 154 63 43 146 30 279 107 86 94 44 368 94 200 113 342
leaf_count=482 864 668 353 453 403 108 209 603 545 635 91 252 378 40 41 154 63 43 146 30 279 107 86 94 44 368 94 200 113 342
internal_value=0 0.108946 0.206732 0.138136 0.187108 0.249787 0.167067 0.120788 0.0721744 0.0867173 0.216005 0.174967 0.138475 0.270115 0.206853 0.182588 0.144461 0.094735 0.126028 0.14633 0.223724 0.104173 0.218635 0.192535 0.124031 0.0526776 0.0897467 0.212193 0.236503 0.292581
internal_weight=0 4829 3459 2692 2376 1083 1403 1830 2137 1224 973 862 1090 735 348 1018 315 740 385 239 882 742 307 547 712 913 697 603 221 382
internal_count=8288 4829 3459 2692 2376 1083 1403 1830 2137 1224 973 862 1090 735 348 1018 315 740 385 239 882 742 307 547 712 913 697 603 221 382
is_linear=0
shrinkage=0.02


Tree=29
num_leaves=31
num_cat=0
split_feature=4 10 4 10 10 3 3 3 3 3 2 6 3 10 3 5 11 2 9 9 2 10 3 7 11 3 11 8 2 11
split_gain=46701.2 12501.7 7132.93 4170.47 3348.62 2286.65 2138.03 2010.4 1452.52 1355.95 1286.32 1255.38 1109.09 980.982 876.587 760.319 733.43 708.578 660.314 627.628 625.934 599.6 588.428 563.273 520.679 515.603 511.971 516.565 507.947 507.593
threshold=13.500000000000002 7.5000000000000009 23.500000000000004 15.500000000000002 17.500000000000004 0.015000000000000001 0.025000000000000005 0.055000000000000007 0.25500000000000006 0.56500000000000006 48.500000000000007 12.500000000000002 0.015000000000000001 21.500000000000004 0.56500000000000006 22.500000000000004 4.5000000000000009 58.500000000000007 21.500000000000004 21.500000000000004 53.500000000000007 24.500000000000004 0.67500000000000016 11.500000000000002 4.5000000000000009 1.0000000180025095e-35 4.5000000000000009 9.5000000000000018 45.500000000000007 4.5000000000000009
decision_type=2 2 2 2 2 2 2 2 2 2 2 2 2 2 2 2 2 2 2 2 2 2 2 2 2 2 2 2 2 2
left_child=1 8 4 7 6 13 15 11 10 18 24 17 21 -4 20 26 -14 -3 25 -8 -7 -5 -9 -12 -1 -6 27 -2 -15 -10
right_child=2 3 5 12 9 14 19 22 29 -11 23 -13 16 28 -16 -17 -18 -19 -20 -21 -22 -23 -24 -25 -26 -27 -28 -29 -30 -31
leaf_value=0.075118042376810149 0.15607504770703548 0.1029532429791879 0.24135765897315892 0.17920076635499665 0.2177206277710268 0.18030284773826596 0.11334422556545967 0.096679896179556968 0.059546146369523198 0.11361007130370951 0.088963733551007784 0.16139877820182549 0.15688771510644564 0.22016899919509889 0.11630293758904062 0.21981738869632994 0.080593057648530073 0.14060946040139519 0.23766281669959427 0.1874589677295595 0.23842913497771537 0.23470697403588195 0.04239859233318681 0.12875241274693205 0.042860560864387526 0.17661496850721381 0.14765468422161496 0.1947946682356837 0.29549205972785841 0.020256069702794775
leaf_weight=549 210 483 353 453 348 125 332 502 291 53 550 409 252 40 41 154 63 341 384 53 182 94 95 192 315 188 253 401 342 240
leaf_count=549 210 483 353 453 348 125 332 502 291 53 550 409 252 40 41 154 63 341 384 53 182 94 95 192 315 188 253 401 342 240
internal_value=0 0.106581 0.202857 0.135253 0.183467 0.245397 0.163694 0.118168 0.0704636 0.211978 0.0799448 0.132755 0.171524 0.265394 0.203162 0.178877 0.141629 0.118537 0.217644 0.123547 0.214762 0.188739 0.0880422 0.0992595 0.0633575 0.203303 0.17158 0.181487 0.287605 0.0417879
internal_weight=0 4829 3459 2692 2376 1083 1403 1830 2137 973 1606 1233 862 735 348 1018 315 824 920 385 307 547 597 742 864 536 864 611 382 531
internal_count=8288 4829 3459 2692 2376 1083 1403 1830 2137 973 1606 1233 862 735 348 1018 315 824 920 385 307 547 597 742 864 536 864 611 382 531
is_linear=0
shrinkage=0.02


Tree=30
num_leaves=31
num_cat=0
split_feature=10 4 4 9 3 3 5 4 2 11 3 7 11 9 3 3 3 9 2 3 11 6 10 2 11 4 6 7 11 3
split_gain=45280 11622 9660.48 2820.14 2686.75 2540.46 2065.06 1908.78 1775.58 1643.51 1483.34 1269.99 1065.45 1061.26 1036.07 1019.41 1007.39 976.031 753.174 594.354 587.744 573.984 529.04 519.188 517.694 628.506 488.561 479.797 456.959 494.832
threshold=11.500000000000002 17.500000000000004 9.5000000000000018 15.500000000000002 0.15500000000000003 0.055000000000000007 23.500000000000004 25.500000000000004 48.500000000000007 5.5000000000000009 0.015000000000000001 23.500000000000004 3.5000000000000004 11.500000000000002 0.56500000000000006 0.075000000000000025 0.055000000000000007 21.500000000000004 64.500000000000014 0.51000000000000012 5.5000000000000009 16.500000000000004 21.500000000000004 48.500000000000007 5.5000000000000009 42.500000000000007 13.500000000000002 15.500000000000002 2.5000000000000004 0.015000000000000001
decision_type=2 2 2 2 2 2 2 2 2 2 2 2 2 2 2 2 2 2 2 2 2 2 2 2 2 2 2 2 2 2
left_child=2 3 8 10 6 7 13 17 12 11 18 16 -1 -4 19 26 22 -3 21 27 -19 -2 -5 -12 28 -26 -10 -7 -9 -30
right_child=1 5 4 9 -6 14 -8 24 15 -11 23 -13 -14 -15 -16 -17 -18 20 -20 -21 -22 -23 -24 -25 25 -27 -28 -29 29 -31
leaf_value=0.07304939290473382 0.1339704058928923 0.20529624145251021 0.12364531779833084 0.18205012161176182 0.077344147173443303 0.15523772863814464 0.22353981511409465 0.25377546118777333 0.096435643752432756 0.11919902017381456 0.076159196661205075 0.24031042527645191 0.036587548896448746 0.16292067596705065 0.11238294470137444 0.068070523922992801 0.13784451967070563 0.25792760673257492 0.18780785045281653 0.29562910992166269 0.16762425757944585 0.17982349184426394 0.22381081398143327 0.12436748676470476 0.1874944643044876 0.31274792085994374 0.1371729200117949 0.20793512498290795 0.30417351100404388 0.22966587725671986
leaf_weight=687 462 558 685 412 259 104 130 209 592 135 122 188 601 460 69 524 161 291 223 23 32 143 172 334 59 22 147 206 236 42
leaf_count=687 462 558 685 412 259 104 130 209 592 135 122 188 601 460 69 524 161 291 223 23 32 143 172 334 59 22 147 206 236 42
internal_value=0 0.189913 0.0964089 0.16041 0.136071 0.227403 0.148001 0.239744 0.0725587 0.184423 0.140436 0.19386 0.0560358 0.139424 0.182919 0.0894088 0.182138 0.221312 0.156389 0.197534 0.248981 0.144808 0.19435 0.11147 0.268332 0.221514 0.104539 0.190256 0.276119 0.292917
internal_weight=0 4203 4085 2352 1534 1851 1275 1449 2551 1068 1284 933 1288 1145 402 1263 745 881 828 333 323 605 584 456 568 81 739 310 487 278
internal_count=8288 4203 4085 2352 1534 1851 1275 1449 2551 1068 1284 933 1288 1145 402 1263 745 881 828 333 323 605 584 456 568 81 739 310 487 278
is_linear=0
shrinkage=0.02


Tree=31
num_leaves=31
num_cat=0
split_feature=4 10 4 10 10 3 3 3 3 3 2 3 6 10 3 5 11 8 2 11 9 9 9 7 2 3 11 3 3 3
split_gain=43918.8 11660.6 6804.13 3927.87 3184.96 2148.76 1975.98 1837.57 1350.64 1277.49 1256.02 1030.24 978.622 943.554 824.664 726.615 707.165 698.383 657.283 618.005 600.607 597.359 583.918 579.139 557.323 525.197 523.027 512.483 508.333 595.898
threshold=13.500000000000002 7.5000000000000009 23.500000000000004 15.500000000000002 17.500000000000004 0.015000000000000001 0.025000000000000005 0.015000000000000001 0.075000000000000025 0.32500000000000007 44.500000000000007 0.015000000000000001 12.500000000000002 21.500000000000004 0.53500000000000014 22.500000000000004 4.5000000000000009 21.500000000000004 53.500000000000007 4.5000000000000009 21.500000000000004 23.500000000000004 25.500000000000004 13.500000000000002 68.500000000000014 0.67500000000000016 4.5000000000000009 1.0000000180025095e-35 0.43500000000000005 0.16500000000000004
decision_type=2 2 2 2 2 2 2 2 2 2 2 2 2 2 2 2 2 2 2 2 2 2 2 2 2 2 2 2 2 2
left_child=1 8 4 7 6 13 15 12 10 21 -1 22 24 -4 18 -2 -13 25 -7 20 -8 27 -5 -12 -3 -9 -10 -6 29 -20
right_child=2 3 5 11 9 14 19 17 26 -11 23 16 -14 -15 -16 -17 -18 -19 28 -21 -22 -23 -24 -25 -26 -27 -28 -29 -30 -31
leaf_value=0.055698415259540827 0.16458969056364839 0.11125852637199274 0.23270784924793514 0.17329426795559255 0.21337004597666248 0.17324234991550444 0.12632439071120935 0.090800018094489302 0.061132225595688053 0.13287054596366463 0.089911446869651981 0.15104582942401371 0.15561649913589159 0.27806418417792045 0.11898519669969877 0.2117458989829212 0.07612971833774021 0.16699593821583794 0.24050095174164898 0.086111050536473319 0.22201966245969135 0.2357744218179402 0.23371042814005066 0.14020873289938285 0.18474527033892546 0.039974125583279639 0.030271571495851159 0.1742084192723036 0.31139204161507744 0.14500260612543892
leaf_weight=482 864 668 353 473 403 125 209 603 545 91 635 252 378 382 48 154 63 43 113 146 30 279 74 107 44 94 368 200 28 34
leaf_count=482 864 668 353 473 403 125 209 603 545 91 635 252 378 382 48 154 63 43 113 146 30 279 74 107 44 94 368 200 28 34
internal_value=0 0.101985 0.195348 0.129675 0.17641 0.236896 0.157127 0.113095 0.0671033 0.204216 0.0808356 0.164875 0.129608 0.256281 0.195955 0.171723 0.136063 0.0887714 0.20827 0.118531 0.138336 0.211577 0.181468 0.0971646 0.1158 0.0839455 0.0486933 0.200381 0.23329 0.218413
internal_weight=0 4829 3459 2692 2376 1083 1403 1830 2137 973 1224 862 1090 735 348 1018 315 740 300 385 239 882 547 742 712 697 913 603 175 147
internal_count=8288 4829 3459 2692 2376 1083 1403 1830 2137 973 1224 862 1090 735 348 1018 315 740 300 385 239 882 547 742 712 697 913 603 175 147
is_linear=0
shrinkage=0.02


Tree=32
num_leaves=31
num_cat=0
split_feature=4 10 4 10 9 4 3 3 3 3 11 3 10 11 3 6 5 10 2 7 11 7 9 9 3 6 3 11 2 3
split_gain=42571.3 11250.7 6640.32 3103.48 2628.78 2158.58 2081.73 1891.62 1423.92 1232.85 1199.44 987.741 922.702 805.668 798.412 714.546 709.337 699.209 639.088 610.116 598.751 594.524 585.679 585.159 553.892 548.191 494.659 493.556 489.749 488.174
threshold=13.500000000000002 9.5000000000000018 23.500000000000004 17.500000000000004 15.500000000000002 7.5000000000000009 0.015000000000000001 0.025000000000000005 0.015000000000000001 0.32500000000000007 5.5000000000000009 0.15500000000000003 21.500000000000004 4.5000000000000009 0.53500000000000014 12.500000000000002 22.500000000000004 25.500000000000004 53.500000000000007 11.500000000000002 4.5000000000000009 9.5000000000000018 21.500000000000004 23.500000000000004 0.055000000000000007 19.500000000000004 1.0000000180025095e-35 4.5000000000000009 45.500000000000007 0.43500000000000005
decision_type=2 2 2 2 2 2 2 2 2 2 2 2 2 2 2 2 2 2 2 2 2 2 2 2 2 2 2 2 2 2
left_child=1 5 3 7 8 13 12 16 15 23 17 19 -4 21 18 -3 27 24 -8 -7 22 -1 -9 26 -6 -15 -5 -2 -14 -20
right_child=2 4 6 9 10 11 14 20 -10 -11 -12 -13 28 25 -16 -17 -18 -19 29 -21 -22 -23 -24 -25 -26 -27 -28 -29 -30 -31
leaf_value=0.064110714057019028 0.17090474996063398 0.12108613144991226 0.22850187465759578 0.20933869745831929 0.1788555527049375 0.097031566000307559 0.17001346616268159 0.12381411246705855 0.093013807952411084 0.13033953709589255 0.10413124484854323 0.059824733038861037 0.20713741445541381 0.039849495398826595 0.11670073951284091 0.16027773642886992 0.20776989490180822 0.22957304720961769 0.21464500832517133 0.13679769089005211 0.08427051517321435 0.10140729378622312 0.21831261070569358 0.23160765982550108 0.12925259379135526 0.14618629416823387 0.17086409724950791 0.13768670848097739 0.28109889302424523 0.3057618910925729
leaf_weight=960 611 513 353 403 415 517 125 209 527 91 107 211 40 638 48 292 154 86 147 220 146 208 30 279 115 20 200 253 342 28
leaf_count=960 611 513 353 403 415 517 125 209 527 91 107 211 40 638 48 292 154 86 147 220 146 208 30 279 115 20 200 253 342 28
internal_value=0 0.0997684 0.191688 0.17298 0.135236 0.0734933 0.232733 0.153944 0.118571 0.200427 0.16594 0.0979787 0.251813 0.0607813 0.192435 0.135302 0.168226 0.176676 0.204553 0.108902 0.116182 0.0707526 0.135676 0.207659 0.168093 0.0430816 0.196578 0.161178 0.273354 0.229224
internal_weight=0 4829 3459 2376 2055 2774 1083 1403 1332 973 723 948 735 1826 348 805 1018 616 300 737 385 1168 239 882 530 658 603 864 382 175
internal_count=8288 4829 3459 2376 2055 2774 1083 1403 1332 973 723 948 735 1826 348 805 1018 616 300 737 385 1168 239 882 530 658 603 864 382 175
is_linear=0
shrinkage=0.02


Tree=33
num_leaves=31
num_cat=0
split_feature=4 10 4 10 10 3 3 3 3 3 4 3 6 10 3 9 11 8 9 9 11 9 2 10 2 3 5 2 11 8
split_gain=41266.9 10886 6482.67 3713.92 3023.66 2018.06 1815.29 1677.33 1263.98 1196.52 1110.81 953.947 923.886 902.741 775.82 695.994 680.536 665.405 636.639 610.524 582.618 571.278 569.874 566.88 527.377 504.271 484.694 478.804 463.421 456.874
threshold=13.500000000000002 7.5000000000000009 23.500000000000004 15.500000000000002 17.500000000000004 0.015000000000000001 0.025000000000000005 0.015000000000000001 0.25500000000000006 0.56500000000000006 5.5000000000000009 0.015000000000000001 12.500000000000002 21.500000000000004 0.57500000000000007 13.500000000000002 4.5000000000000009 21.500000000000004 7.5000000000000009 21.500000000000004 4.5000000000000009 21.500000000000004 50.500000000000007 24.500000000000004 68.500000000000014 0.67500000000000016 27.500000000000004 45.500000000000007 5.5000000000000009 31.500000000000004
decision_type=2 2 2 2 2 2 2 2 2 2 2 2 2 2 2 2 2 2 2 2 2 2 2 2 2 2 2 2 2 2
left_child=1 8 4 7 6 13 15 12 10 19 -1 23 24 29 22 -2 -13 25 -12 -6 21 -8 -7 -5 -3 -9 -17 -15 -24 -4
right_child=2 3 5 11 9 14 20 17 -10 -11 18 16 -14 27 -16 26 -18 -19 -20 -21 -22 -23 28 -25 -26 -27 -28 -29 -30 -31
leaf_value=0.054380711644801655 0.14834293768072315 0.10617289319779434 0.21880550928659984 0.16527218906032065 0.18823899569796093 0.15458692651197134 0.12134642322382858 0.08699740850087101 0.03714499327542678 0.10430210895414624 0.073128041562172438 0.14555375252628611 0.14927764077035208 0.20327353835105896 0.10368425043005691 0.17561694064007696 0.072061720967056264 0.16134668697104895 0.10747549687322001 0.22127803424261705 0.082353351045501968 0.21467592199643451 0.22698026482526421 0.2192426580729637 0.17765805748375979 0.037194378233336385 0.24734394620104536 0.27640384499985748 0.14260073562338949 0.31722437429428102
leaf_weight=724 511 668 333 453 536 83 209 603 531 53 505 252 378 40 38 466 63 43 377 384 146 30 197 94 44 94 41 342 30 20
leaf_count=724 511 668 333 453 536 83 209 603 531 53 505 252 378 40 38 466 63 43 377 384 146 30 197 94 44 94 41 342 30 20
internal_value=0 0.0975981 0.188099 0.124353 0.169614 0.228653 0.150825 0.10823 0.063895 0.196706 0.0727395 0.158581 0.124007 0.247439 0.188977 0.164815 0.130855 0.0849914 0.0878094 0.202029 0.113832 0.133061 0.199432 0.174547 0.110591 0.0802808 0.181417 0.268746 0.215829 0.224382
internal_weight=0 4829 3459 2692 2376 1083 1403 1830 2137 973 1606 862 1090 735 348 1018 315 740 882 920 385 239 310 547 712 697 507 382 227 353
internal_count=8288 4829 3459 2692 2376 1083 1403 1830 2137 973 1606 862 1090 735 348 1018 315 740 882 920 385 239 310 547 712 697 507 382 227 353
is_linear=0
shrinkage=0.02


Tree=34
num_leaves=31
num_cat=0
split_feature=10 4 4 9 3 3 5 4 2 11 3 7 11 9 3 9 3 3 2 11 3 6 10 11 4 2 8 7 11 3
split_gain=40005.7 10494.6 8419.08 2541.43 2358.21 2247.84 1901.73 1755.82 1538.13 1529.51 1249.8 1209.02 965.435 950.487 918.166 913.529 876.159 830.626 674.027 554.134 545.236 527.701 491.681 479.858 612.474 470.604 450.618 448.268 439.234 446.964
threshold=11.500000000000002 17.500000000000004 9.5000000000000018 15.500000000000002 0.15500000000000003 0.055000000000000007 23.500000000000004 25.500000000000004 48.500000000000007 5.5000000000000009 0.015000000000000001 23.500000000000004 3.5000000000000004 11.500000000000002 0.56500000000000006 21.500000000000004 0.055000000000000007 0.075000000000000025 64.500000000000014 5.5000000000000009 0.51000000000000012 16.500000000000004 21.500000000000004 5.5000000000000009 42.500000000000007 48.500000000000007 13.500000000000002 15.500000000000002 2.5000000000000004 0.015000000000000001
decision_type=2 2 2 2 2 2 2 2 2 2 2 2 2 2 2 2 2 2 2 2 2 2 2 2 2 2 2 2 2 2
left_child=2 3 8 10 6 7 13 15 12 11 18 16 -1 -4 20 -3 22 26 21 -17 27 -2 -5 28 -25 -12 -10 -7 -9 -30
right_child=1 5 4 9 -6 14 -8 23 17 -11 25 -13 -14 -15 -16 19 -18 -19 -20 -21 -22 -23 -24 24 -26 -27 -28 -29 29 -31
leaf_value=0.066642279110969552 0.12227981332173465 0.19004145301841735 0.11313014699534996 0.16793830994986794 0.070097470255964162 0.14270111392610349 0.20878347493135013 0.23622380692422673 0.087916665092282201 0.10781919356932243 0.068777247432802543 0.22516575800611618 0.031933938066036165 0.15029920500780092 0.10336024431214817 0.24099139226261282 0.12709917620842501 0.062246968312984791 0.17334910527473074 0.15330802860669793 0.27747452362723973 0.16624536692054123 0.20819753580661707 0.17197512664027134 0.29562079191207885 0.11467454053280307 0.12881154421347243 0.193637677454254 0.28529693944979523 0.21448474935122899
leaf_weight=687 462 558 685 412 259 104 130 209 608 135 122 188 601 460 69 291 161 524 223 32 23 143 172 59 22 334 131 206 236 42
leaf_count=687 462 558 685 412 259 104 130 209 608 135 122 188 601 460 69 291 161 524 223 32 23 143 172 59 22 334 131 206 236 42
internal_value=0 0.175981 0.0880904 0.147945 0.125117 0.211605 0.136293 0.223214 0.0658254 0.17074 0.128984 0.179844 0.0504468 0.128063 0.169761 0.205536 0.168407 0.0815084 0.143627 0.232304 0.18352 0.132672 0.179795 0.250633 0.205558 0.102395 0.095166 0.176549 0.25813 0.274599
internal_weight=0 4203 4085 2352 1534 1851 1275 1449 2551 1068 1284 933 1288 1145 402 881 745 1263 828 323 333 605 584 568 81 456 739 310 487 278
internal_count=8288 4203 4085 2352 1534 1851 1275 1449 2551 1068 1284 933 1288 1145 402 881 745 1263 828 323 333 605 584 568 81 456 739 310 487 278
is_linear=0
shrinkage=0.02


Tree=35
num_leaves=31
num_cat=0
split_feature=4 10 4 10 10 3 3 3 3 3 4 9 3 10 6 3 11 8 2 7 9 10 5 6 2 3 2 11 3 3
split_gain=38813.6 10163.7 6184.78 3497.25 2872.3 1898.28 1683.45 1531.17 1176.23 1125.12 1034.24 976.036 887.197 877.834 873.634 734.147 654.084 631.978 604.747 579.421 551.312 547.987 521.986 513.691 496.375 481.636 467.34 464.339 460.811 456.586
threshold=13.500000000000002 7.5000000000000009 23.500000000000004 15.500000000000002 17.500000000000004 0.015000000000000001 0.13500000000000004 0.015000000000000001 0.27500000000000008 0.32500000000000007 5.5000000000000009 13.500000000000002 0.015000000000000001 27.500000000000004 12.500000000000002 0.53500000000000014 4.5000000000000009 21.500000000000004 53.500000000000007 11.500000000000002 23.500000000000004 24.500000000000004 29.500000000000004 17.500000000000004 68.500000000000014 0.67500000000000016 63.500000000000007 4.5000000000000009 1.0000000180025095e-35 0.43500000000000005
decision_type=2 2 2 2 2 2 2 2 2 2 2 2 2 2 2 2 2 2 2 2 2 2 2 2 2 2 2 2 2 2
left_child=1 8 4 7 6 13 11 14 10 20 -1 23 21 -4 24 18 -14 25 -7 -12 28 -5 -13 26 -3 -9 -2 -8 -6 -20
right_child=2 3 5 12 9 15 27 17 -10 -11 19 22 16 -15 -16 -17 -18 -19 29 -21 -22 -23 -24 -25 -26 -27 -28 -29 -30 -31
leaf_value=0.051665440444265666 0.11191444840922302 0.10132545892773809 0.22547683643303196 0.15872239587553028 0.19796598107288257 0.16029849426269532 0.11274439200320664 0.083354246012038655 0.033426878709355658 0.12254139395860525 0.074862630771676153 0.1677887829418076 0.14011590441186278 0.27436187629776049 0.14323156953449287 0.10965479406217733 0.068066343523133246 0.15579358088415723 0.20379683594922629 0.11370864339985975 0.21965106367637607 0.21178589630634229 0.24749854118483408 0.16610820321107489 0.17067770307714289 0.034681809587364498 0.15572352867177194 0.048418072941365527 0.1608310365169309 0.29191644736698696
leaf_weight=758 315 668 532 453 403 125 136 603 485 91 697 538 252 203 378 48 63 43 147 197 279 94 35 171 44 94 141 67 200 28
leaf_count=758 315 668 532 453 403 125 136 603 485 91 697 538 252 203 378 48 63 43 147 197 279 94 35 171 44 94 141 67 200 28
internal_value=0 0.0933774 0.181147 0.119229 0.163091 0.220759 0.144779 0.103584 0.0608116 0.189497 0.0688512 0.153789 0.152444 0.238978 0.118658 0.182277 0.125706 0.0813808 0.193897 0.0834227 0.196405 0.167841 0.172658 0.136546 0.105611 0.0767901 0.125461 0.0915135 0.185649 0.217896
internal_weight=0 4829 3459 2692 2376 1083 1403 1830 2137 973 1652 1200 862 735 1090 348 315 740 300 894 882 547 573 627 712 697 456 203 603 175
internal_count=8288 4829 3459 2692 2376 1083 1403 1830 2137 973 1652 1200 862 735 1090 348 315 740 300 894 882 547 573 627 712 697 456 203 603 175
is_linear=0
shrinkage=0.02


Tree=36
num_leaves=31
num_cat=0
split_feature=4 10 4 10 10 3 3 3 4 3 9 9 6 10 11 7 8 11 2 3 9 5 6 9 2 7 3 11 2 3
split_gain=37615.4 9814.38 6038.1 3389.87 2799.95 1848.61 1618.68 1460.2 1126.31 1085.77 948.628 871.822 845.57 770.977 676.288 642.82 613.278 611.163 587.418 558.175 540.694 512.533 500.571 484.51 479 474.922 465.02 451.077 450.67 445.662
